<?xml version="1.0"?>
<opencv_storage>
<my_svm type_id="opencv-ml-svm">
  <svm_type>C_SVC</svm_type>
  <kernel><type>LINEAR</type></kernel>
  <C>2.5000000000000000e+000</C>
  <term_criteria><epsilon>2.2204460492503131e-016</epsilon>
    <iterations>100</iterations></term_criteria>
  <var_all>436</var_all>
  <var_count>436</var_count>
  <class_count>11</class_count>
  <class_labels type_id="opencv-matrix">
    <rows>1</rows>
    <cols>11</cols>
    <dt>i</dt>
    <data>
      1 2 3 4 5 6 7 8 9 10 11</data></class_labels>
  <sv_total>55</sv_total>
  <support_vectors>
    <_>
      0. 0. 0. 0. 0. 0. 0. 0. 0. 0. 0. 0. 0. 0. 0. 0. 0. 0. 0. 0. 0. 0.
      0. 0. 0. 0. 0. 0. 0. 0. 0. -1.63093267e-003 -1.30474614e-002 0.
      -1.63093267e-003 -3.26186535e-003 -3.26186535e-003
      -1.63093267e-003 -1.63093267e-003 0. 0. 0. 0. 0. -9.78559628e-003
      -4.89279814e-003 -1.63093267e-003 1.36890551e-002 5.55060327e-001
      9.57460422e-003 2.18437184e-002 1.17373252e-002 8.47546011e-003
      -1.71864487e-003 3.70594161e-003 3.67551930e-002 6.14056647e-001
      9.57460422e-003 3.70594161e-003 1.38123333e-002 5.86866261e-003
      1.01063931e-002 -1.18685642e-003 2.07500905e-003 4.59884048e-001
      5.78095065e-003 5.86866261e-003 4.23773006e-003 8.47546011e-003
      1.38123333e-002 2.44505145e-002 9.57460422e-003 4.32168573e-001
      4.15001810e-003 2.76246667e-002 2.55496595e-002 -5.95637504e-003
      -2.81778909e-003 1.10822562e-002 -4.98051010e-003 3.26900661e-001
      5.07373735e-003 -1.00591755e-003 2.26441566e-002 -1.66601762e-002
      -2.09856182e-002 -4.14450187e-003 1.09068323e-002 3.16869110e-001
      3.66294608e-002 3.22463661e-002 -2.18983125e-002 -7.83124119e-002
      -4.44848090e-002 -1.23592708e-002 2.32035518e-002 -1.02764145e-001
      8.47546011e-003 -1.41110383e-002 3.05087375e-003 -3.34957754e-003
      -6.61144312e-003 -9.34152026e-003 -1.03173843e-002 7.49776438e-002
      1.15619013e-002 -4.98051010e-003 -4.98051010e-003 -9.87330824e-003
      1.26254782e-002 9.57460422e-003 8.91953520e-003 -2.14336216e-001
      9.57460422e-003 9.57460422e-003 -2.16272124e-003 0.
      1.54322060e-003 5.86866261e-003 3.70594161e-003 -4.79279876e-001
      -2.12542713e-002 3.93902650e-003 -1.52978953e-002 -1.22470232e-002
      -8.89744330e-003 -1.21237421e-002 -6.56227712e-005
      -5.64582109e-001 4.25803289e-002 3.13747935e-002 1.04558870e-001
      9.64176878e-002 8.73227268e-002 3.55683416e-002 1.79623514e-002
      -6.21724894e-015 0. 0. 0. 0. 0. 0. 0. 1.79556713e-001
      -3.26186535e-003 -5.42458659e-003 3.05087375e-003 -8.77416413e-003
      -1.24801062e-002 -1.04050972e-002 7.20089162e-003 3.21949631e-001
      2.60679750e-003 1.38123333e-002 4.44076286e-004 -8.77121565e-005
      -3.79365380e-003 -6.19500584e-004 7.94367213e-003 -2.03484297e-001
      -5.42458659e-003 -6.48816349e-003 8.47546011e-003 -4.32544248e-003
      -3.79365380e-003 -2.78222165e-003 -8.11909605e-003
      -4.31953788e-001 -5.95637504e-003 -2.16272124e-003 1.54432664e-002
      -1.63093267e-003 5.78095065e-003 1.54322060e-003 1.21814013e-002
      4.97628599e-001 -2.34826151e-002 -5.90589158e-002 -1.25154316e-001
      -8.69657099e-002 -4.42406572e-002 -4.73081134e-002
      -4.57704067e-002 -6.21724894e-015 0. 0. 0. 0. 0. 0. 0.
      1.27871573e-001 5.86866261e-003 0. 3.70594161e-003 0.
      5.86866261e-003 0. 1.17373252e-002 8.33560247e-003 0.
      5.86866261e-003 0. 1.76059883e-002 -2.16272124e-003
      5.86866261e-003 5.86866261e-003 4.01900373e-002 1.17373252e-002 0.
      5.86866261e-003 0. 0. 0. 5.86866261e-003 9.72457379e-002 0. 0.
      3.70594161e-003 5.86866261e-003 7.94367213e-003 -2.16272124e-003
      5.86866261e-003 -1.71753876e-002 -3.79365380e-003 0. 0.
      -1.63093267e-003 5.86866261e-003 -3.79365380e-003 1.01063931e-002
      -2.18571946e-002 4.23773006e-003 0. -1.63093267e-003
      -1.63093267e-003 -1.63093267e-003 -3.26186535e-003 1.01063931e-002
      2.10571685e-003 5.86866261e-003 0. 0. 0. -1.63093267e-003
      5.86866261e-003 0. 1.35964779e-002 0. 5.86866261e-003
      -1.63093267e-003 -1.63093267e-003 0. -1.63093267e-003 0.
      1.40198991e-001 -2.16272124e-003 -1.63093267e-003 -1.63093267e-003
      -1.63093267e-003 4.23773006e-003 0. 3.70594161e-003
      1.70268506e-001 0. 4.23773006e-003 0. 7.94367213e-003
      -3.26186535e-003 5.86866261e-003 5.86866261e-003 -1.84855238e-002
      1.54432664e-002 9.57460422e-003 0. 7.94367213e-003 9.57460422e-003
      5.86866261e-003 0. -3.42495888e-002 -1.63093267e-003
      2.60679750e-003 8.47546011e-003 1.01063931e-002 1.76059883e-002
      5.86866261e-003 5.86866261e-003 6.90738857e-001 -3.79365380e-003
      2.07500905e-003 0. 2.07500905e-003 1.17373252e-002 5.86866261e-003
      0. 4.34208721e-001 -8.77121565e-005 1.76059883e-002
      5.86866261e-003 4.23773006e-003 5.86866261e-003 -8.15466326e-003
      4.23773006e-003 4.99991834e-001 1.17373252e-002 9.57460422e-003 0.
      5.86866261e-003 -8.77121565e-005 4.23773006e-003 5.86866261e-003
      5.97914159e-001 -1.18685642e-003 4.23773006e-003 2.28195824e-002
      4.44076286e-004 2.07500905e-003 1.36890551e-002 -6.55067968e-004
      3.74611765e-001 1.36779516e-003 -1.04928091e-002 1.63314193e-002
      1.26254782e-002 -1.30996071e-002 -2.90550129e-003 1.79623514e-002
      -6.21724894e-015 0. 0. 0. 0. 0. 0. 0. 7.62926117e-002 0.
      5.86866261e-003 5.86866261e-003 5.86866261e-003 5.86866261e-003
      5.86866261e-003 0. 2.44505145e-002 0. -1.63093267e-003
      -1.63093267e-003 2.60679750e-003 0. 0. 0. 2.22577397e-002 0. 0. 0.
      -3.79365380e-003 1.01063931e-002 5.86866261e-003 5.86866261e-003
      8.07523653e-002 -2.16272124e-003 3.70594161e-003 0.
      9.57460422e-003 5.86866261e-003 2.60679750e-003 0. 1.32805454e-002
      0. 5.86866261e-003 0. 0. 5.86866261e-003 -2.16272124e-003 0.
      2.34746505e-002 0. 0. 1.17373252e-002 5.86866261e-003
      3.70594161e-003 3.70594161e-003 5.86866261e-003 5.31221814e-002
      1.54432664e-002 0. 5.86866261e-003 1.76059883e-002 1.76059883e-002
      0. 0. 8.46282169e-002 0. 0. 0. 5.86866261e-003 -2.16272124e-003 0.
      5.86866261e-003 1.94945946e-001 0. 1.17373252e-002 1.54432664e-002
      1.17373252e-002 0. 1.76059883e-002 3.70594161e-003 2.10921004e-001
      1.76059883e-002 1.76059883e-002 3.70594161e-003 0. 3.70594161e-003
      1.91492084e-002 1.17373252e-002 1.76059883e-002 5.86866261e-003
      5.86866261e-003 5.86866261e-003 0. 5.86866261e-003 0.
      5.86866261e-003 1.17373252e-002 0. 5.86866261e-003 5.86866261e-003
      5.86866261e-003 1.17373252e-002 1.17373252e-002 5.86866261e-003
      -3.57410133e-001 -1.99817792e-001 -1.83186799e-015
      -5.99235948e-003</_>
    <_>
      3.87636513e-001 -2.78430022e-002 -7.26052374e-003 -1.27089759e-002
      1.36694508e-002 1.58729195e-003 3.60276015e-003 -1.25981979e-002
      5.02375185e-001 1.15575129e-002 3.66632710e-003 1.55991763e-002
      -1.63481832e-002 2.55703591e-002 -2.57262168e-003 1.16017992e-002
      2.29803756e-001 4.95355902e-003 6.32786285e-003 -1.13346716e-002
      7.45946448e-003 -1.66446494e-004 1.42728742e-002 1.17364840e-003
      3.29338104e-001 1.08546764e-002 1.89346373e-002 1.28300125e-002
      1.35539537e-002 2.34429259e-002 2.09243335e-002 -1.00984201e-002
      2.23840714e-001 2.97728889e-002 5.38048893e-002 2.60863677e-002
      2.98502184e-002 3.14824544e-002 2.89883763e-002 3.32770427e-003
      2.00703330e-002 6.03402965e-002 5.94005138e-002 -1.63385682e-002
      2.03363806e-001 4.49066937e-001 2.28016883e-001 8.06568936e-002
      5.48228502e-001 -2.42356136e-002 1.52098993e-003 -5.60120773e-003
      -5.06139360e-003 -1.29864123e-002 -1.75310075e-002 5.12382062e-003
      6.70700312e-001 -2.07188800e-002 -1.29300058e-002 3.69794318e-003
      -1.04549881e-002 -9.10084788e-003 -2.52898037e-002
      -7.31100701e-003 3.79049510e-001 -5.37311984e-003 -6.22614985e-003
      4.57014394e-005 6.70248177e-004 -1.76066719e-003 -7.00713834e-003
      1.68745797e-002 1.19179226e-001 1.74446926e-002 1.45355435e-002
      1.65702105e-002 -1.48272850e-002 1.83269698e-002 -1.86568294e-002
      -8.70698038e-003 -2.37507358e-001 -7.59423450e-002 7.50643667e-003
      -6.23880769e-005 6.46976056e-003 3.59070413e-002 -6.20528997e-004
      9.62620694e-003 -6.50333524e-001 1.83584541e-001 1.03613697e-001
      5.09492494e-002 6.74206689e-002 3.88790630e-002 6.55182973e-002
      4.96050902e-002 -4.28343177e-001 8.81333183e-003 6.67890301e-003
      1.19950064e-002 5.78096975e-003 1.40706999e-002 5.69148781e-003
      8.87935981e-003 -6.22840643e-001 -1.43762520e-002 1.31914055e-003
      7.09532108e-003 9.48181935e-003 1.42478794e-002 1.11983819e-002
      1.26103777e-002 -2.46580109e-001 1.13937911e-002 1.58933625e-002
      -3.71730747e-003 6.17634458e-003 1.26644559e-002 3.30643752e-003
      9.40524973e-003 -6.78808749e-001 -7.49669364e-003 1.49087384e-002
      -5.20565081e-003 -5.21470653e-003 3.05240098e-002 3.82975414e-002
      4.11401652e-002 -6.47404969e-001 1.31037757e-001 8.42993557e-002
      9.59993973e-002 7.34778717e-002 7.48344734e-002 3.29794511e-002
      3.27361226e-002 1.77635684e-015 0. 0. 0. 0. 0. 0. 0.
      -8.52643788e-001 4.52063570e-004 2.18465645e-003 7.19570694e-003
      6.69934694e-003 3.48431617e-003 -1.90593896e-003 2.24923622e-002
      -7.19578385e-001 -5.16667264e-003 2.62684170e-002 -2.93580652e-003
      -6.60520047e-003 4.61158250e-003 -2.34490782e-002 -1.18300617e-002
      -5.28084457e-001 -2.69434284e-002 1.60220824e-003 6.61649741e-003
      -2.42935885e-002 2.85823876e-003 4.65119909e-003 9.75722075e-003
      -5.19479096e-001 -5.59196156e-003 1.64369924e-003 1.66112650e-003
      9.85816680e-003 2.68036854e-002 -5.16395830e-003 1.21219559e-002
      5.46122372e-001 -3.86566609e-001 -4.65856731e-001 -1.67075321e-001
      -1.53479382e-001 -1.92820907e-001 1.12202708e-002 7.81809539e-003
      -6.87163498e-004 0. 6.87151856e-004 0. 0. 0. 0. 0. 2.66586095e-002
      5.55811543e-003 1.49486437e-002 2.58638291e-003 2.78951949e-003
      7.65756122e-004 -4.13134694e-003 -3.59712238e-003 5.07401191e-002
      8.49657925e-004 9.98437777e-003 5.02305105e-003 -1.82661213e-004
      2.76618660e-003 1.73839033e-002 3.17210332e-003 2.95644432e-001
      -2.12414898e-002 2.21596342e-002 -1.19109359e-002 1.22080464e-002
      3.94631550e-003 2.14689374e-002 9.91507992e-003 3.06281239e-001
      1.52417151e-002 4.93260659e-003 -5.88851981e-003 2.71022990e-002
      2.44307443e-002 -8.92143464e-004 1.41719161e-002 2.23735332e-001
      1.09537160e-002 5.68907848e-003 2.79256776e-002 3.48553210e-002
      3.06651089e-002 2.40030978e-002 2.27411613e-002 1.54160887e-001
      2.33509857e-002 2.91965213e-002 5.19041047e-002 9.37671140e-002
      9.91002545e-002 1.41870543e-001 1.46084070e-001 8.20900202e-002
      4.40666592e-003 -2.92068347e-003 -1.08765708e-002 -1.49190240e-002
      -1.06371213e-002 -1.21686142e-003 -2.95528509e-002 6.85640052e-002
      -3.76233179e-003 -2.74132080e-002 -4.90539800e-003
      -2.13569272e-002 -2.11403929e-002 -8.84974096e-003
      -3.81921753e-002 5.73654711e-001 -3.57993878e-002 -3.38920355e-002
      -4.08335635e-003 -2.15489380e-002 -1.03660040e-002
      -8.40608217e-003 -3.23810391e-002 5.10145426e-001 -4.30608615e-002
      -3.32354242e-003 -2.15301476e-002 -1.51606733e-002
      -6.18641172e-003 -1.65747646e-002 -1.04068257e-002 6.54794037e-001
      2.37640496e-002 5.29667214e-002 -8.61190073e-003 9.60839540e-003
      4.98286635e-002 7.89508969e-003 4.03030254e-002 3.63266170e-001
      1.71961188e-002 2.82487050e-002 1.24281518e-001 1.14147358e-001
      1.08792305e-001 6.37135878e-002 1.09238420e-002 -3.28359067e-001
      -8.80537368e-003 2.89336080e-003 -3.08656297e-003 -6.81683235e-003
      4.10640240e-003 -1.20508310e-003 1.69789838e-003 -4.28014278e-001
      -1.59799785e-003 1.33750616e-002 1.20667862e-002 5.27841086e-003
      7.09773181e-003 -5.95083926e-003 1.00628724e-002 -4.01490331e-001
      7.71310367e-003 8.89086351e-003 4.88197780e-004 -8.69255979e-003
      5.82297333e-004 4.68074111e-003 1.15137454e-002 -3.53949130e-001
      5.20087918e-003 1.08890254e-002 3.59997503e-003 4.40666592e-003
      -6.59916457e-003 1.12993680e-002 6.60712318e-003 -2.39703864e-001
      -2.18524650e-001 -1.23846747e-001 -1.43090174e-001
      -9.66179222e-002 1.97201669e-002 2.33590826e-002 3.23771201e-002
      1.77635684e-015 0. 0. 0. 0. 0. 0. 0. 3.39094043e-001
      -1.48642361e-002 -1.21140108e-002 -1.29873753e-002
      -4.26669326e-003 -8.92296806e-003 1.14992131e-002 -6.72585284e-003
      3.46821636e-001 -1.07465936e-002 1.89177785e-003 -1.37785394e-002
      -2.85378005e-002 -9.22669470e-003 -1.67973340e-002
      -7.34626735e-003 4.89888310e-001 -1.33896684e-002 -7.06752483e-003
      -4.37753573e-002 -1.19394520e-002 -9.95192397e-003
      -3.98957171e-003 -1.76730696e-002 2.49339253e-001 -6.55512810e-002
      -6.61876351e-002 -5.13796695e-002 1.24058016e-002 -5.74606098e-002
      -6.75213430e-003 7.84756709e-003 3.70131016e-001 1.55202979e-002
      3.01591381e-002 2.95155831e-002 6.30742579e-006 3.35212946e-002
      7.94325676e-003 8.58298596e-003 1.92438349e-001 4.91108932e-003
      5.77940904e-002 6.11861795e-002 9.62260813e-002 1.32967308e-001
      4.23751846e-002 1.80612296e-001 -2.14038998e-001 1.60454737e-003
      -7.23566068e-003 -2.87214313e-002 -3.50464298e-003
      -4.12862329e-003 -3.96187529e-002 -1.09318439e-002
      -2.09498182e-001 -2.42530616e-004 -8.34783912e-003
      -3.90025377e-002 -6.63223909e-003 -1.65445562e-002
      -1.35474745e-002 -1.21674184e-002 -1.10218853e-001
      -9.95831098e-004 1.19619323e-002 8.66345316e-003 -1.23488428e-002
      -5.54809207e-003 -1.42302562e-003 -6.55680383e-003
      -8.33698437e-002 1.51783200e-002 8.06394091e-004 2.62729498e-003
      -8.91654659e-003 -1.25184581e-002 -7.55642261e-003 4.83072741e-004
      8.38317499e-002 1.07225794e-002 8.94828327e-003 -1.67874489e-002
      9.35762282e-003 -1.02167409e-002 -1.70347672e-002 1.08415904e-002
      1.07900389e-001 -1.52270533e-002 -3.62689467e-003 -4.56467830e-003
      2.92311516e-002 -1.26411747e-002 5.49996905e-002 1.58313572e-001
      3.06883752e-001 7.07835734e-001 -8.66743565e-001 5.40817827e-002</_>
    <_>
      -3.62467580e-003 1.31035002e-003 5.74204791e-003 9.20539349e-003
      1.04892021e-002 -1.27913794e-002 4.85612825e-003 -9.57899820e-003
      -1.58909131e-002 -2.28947606e-002 3.45193734e-003 6.13993686e-003
      1.99917471e-003 -5.82020497e-003 3.80736473e-003 -5.24725160e-003
      -2.17137765e-002 1.01558045e-002 -5.49942534e-003 1.05688274e-002
      1.12772977e-003 1.02619715e-002 -1.17219018e-003 -1.85992587e-002
      -1.26706436e-001 1.31980218e-002 -2.21193046e-003 6.68899249e-003
      5.61368698e-003 2.56219078e-002 -7.65918987e-003 2.60508489e-002
      -1.83277845e-001 8.21899530e-003 2.97478749e-003 1.05413347e-002
      3.84577103e-002 3.40786017e-002 3.96076329e-002 1.45667763e-002
      -1.20292552e-001 -2.25879811e-003 3.23681533e-002 4.99536283e-002
      1.14766173e-001 2.16641352e-001 -4.71771695e-002 -1.66560635e-001
      4.68656898e-001 -3.07471268e-002 -1.97397117e-002 -3.88975553e-002
      -2.02174727e-002 -1.89874526e-002 -1.67331826e-002 1.72197931e-002
      4.34722155e-001 -5.15496917e-002 -3.29914242e-002 -3.57558997e-003
      -5.93337975e-003 -2.71037570e-003 -3.74081638e-003
      -1.54245114e-002 2.49270633e-001 -2.74005514e-002 -3.28615494e-002
      -4.01213877e-002 6.01579319e-004 4.50873468e-003 8.26490484e-003
      -1.08626951e-002 1.60684988e-001 -4.77491468e-002 8.31099320e-003
      -2.95318309e-002 -1.06429039e-002 -1.47749279e-002 4.22274228e-003
      -2.48133438e-003 4.18268086e-004 -7.44461594e-003 -2.70482879e-002
      1.19760567e-002 2.51654033e-002 -1.80762168e-002 1.25271669e-002
      -8.57246760e-003 1.20877437e-002 7.17133805e-002 -2.87076682e-002
      4.14364301e-002 5.19494265e-002 5.08516580e-002 4.52874191e-002
      7.78505951e-002 -2.36352488e-001 7.84963556e-003 -1.39797227e-002
      9.99122299e-003 5.51895564e-003 9.27163847e-003 4.97173145e-003
      2.09993799e-003 -3.13856423e-001 1.59000102e-002 -2.66775284e-002
      4.07594861e-003 8.10613763e-003 2.47037411e-003 8.75593256e-003
      -3.67210293e-003 -1.95973307e-001 9.35015734e-003 1.05739860e-002
      5.72953606e-004 3.06996843e-003 8.40163883e-003 3.35452589e-003
      5.40146045e-003 -5.02050579e-001 2.38306299e-002 2.67119892e-002
      4.29572910e-003 1.92273222e-002 1.50542017e-002 1.69109646e-002
      9.48347244e-003 -3.55016500e-001 7.34893456e-002 1.82435866e-002
      7.15666562e-002 7.24811107e-002 3.64933722e-002 -1.73309874e-002
      6.29627751e-003 -7.77156117e-016 0. 0. 0. 0. 0. 0. 0.
      -3.96433890e-001 -2.14580353e-002 -2.22010519e-002
      -4.09238636e-002 -2.24774387e-002 -9.27292835e-003
      -7.88303316e-002 -1.90342311e-002 5.93220778e-002 -2.82323570e-003
      2.21783484e-004 -1.00509467e-004 -2.86194379e-003 1.15395356e-002
      -7.32023735e-003 1.27768423e-003 -7.76006758e-001 9.37424041e-003
      1.40993642e-002 2.06432156e-002 7.53588835e-003 7.70484284e-003
      1.24325864e-002 7.55993975e-003 -6.02859914e-001 2.57207430e-003
      3.67019628e-003 1.36868805e-002 3.54210474e-003 1.29861031e-002
      1.07782166e-002 1.51000144e-002 3.09164643e-001 -5.48279621e-002
      3.13600935e-002 -1.00435093e-001 -1.87742829e-001 -2.77503312e-001
      -1.66597024e-001 -3.04295756e-002 -7.77156117e-016 0. 0. 0. 0. 0.
      0. 0. -2.60844752e-002 8.95334873e-003 5.77999791e-003
      -1.05023496e-002 5.99301234e-003 6.82768133e-003 2.74268119e-003
      9.34034772e-003 -8.89968872e-002 9.28380992e-004 9.03006084e-003
      -1.18895406e-002 1.42227244e-002 4.15298250e-003 -2.97414116e-003
      8.85339733e-003 9.47896019e-003 -1.85872037e-002 -2.25005709e-002
      -3.48260324e-003 -7.76018621e-003 -5.76552330e-003
      -8.77100043e-003 1.59792043e-002 5.69371283e-002 -2.06233766e-002
      8.24236497e-003 1.36111733e-002 -1.54014928e-002 6.20082300e-003
      -4.95748557e-002 -1.65853500e-002 -6.06422983e-002 4.33174660e-003
      1.64985750e-003 1.07732406e-002 1.20888893e-002 -1.79866273e-002
      -3.63218822e-002 2.02002171e-002 -4.93719988e-002 -4.71388996e-002
      1.81084424e-002 -5.47256432e-002 4.00180854e-002 3.87504585e-002
      3.20392922e-002 7.21780881e-002 3.94394070e-001 4.31474671e-003
      3.28298309e-003 4.86834906e-003 1.98325492e-003 5.05322311e-003
      5.40146045e-003 -1.42661724e-002 2.95668840e-001 5.23358583e-003
      -9.41112358e-003 2.70473142e-003 3.30952462e-003 5.43068070e-003
      5.77999791e-003 2.92755570e-003 2.39261270e-001 -2.39149593e-002
      -8.48617498e-003 9.56533290e-003 -8.49147234e-003 8.66241287e-003
      -6.39315881e-003 -5.83720533e-003 2.09047601e-001 5.94895240e-003
      -4.67988988e-003 1.28164757e-002 1.07771913e-002 -8.04420002e-003
      -5.94166806e-003 -1.45688665e-003 5.87290041e-002 1.96511466e-002
      2.10013408e-002 2.76974048e-002 9.74539202e-003 -4.74465266e-003
      1.96350031e-002 1.30145461e-003 4.56045866e-002 9.51250829e-003
      -1.60939954e-002 3.33648175e-002 3.71651016e-002 6.64005801e-002
      -1.67553984e-002 4.42374423e-002 -2.28706539e-001 -3.69720720e-002
      -1.18490588e-002 -1.13617051e-002 -7.35949306e-003
      -1.80842094e-002 -3.93672101e-003 -2.00291108e-002 3.03055406e-001
      -1.05881123e-002 -4.03907197e-003 -9.62962396e-003
      -1.06306821e-002 -1.17075862e-002 -2.99694575e-002
      -9.00285505e-003 -2.54975110e-001 6.40662853e-003 9.05297790e-003
      5.30438090e-004 3.58259445e-003 3.33855208e-003 3.48707521e-003
      6.37586880e-003 -1.91729233e-001 3.46585712e-003 5.12995617e-003
      1.57062672e-002 3.70984548e-003 3.70984548e-003 1.31050581e-002
      3.14756762e-003 -2.57957391e-002 3.14336200e-003 1.11465733e-002
      -7.61035085e-003 -2.52632014e-002 -1.63463548e-001
      -1.04942814e-001 -3.33650112e-002 -7.77156117e-016 0. 0. 0. 0. 0.
      0. 0. 3.83365422e-001 2.92755570e-003 5.59244491e-003
      5.96990203e-003 4.45715943e-003 6.47836411e-003 1.04061114e-002
      4.73574596e-003 2.33805761e-001 4.92673041e-003 8.69003497e-003
      6.50147442e-003 5.75688761e-003 8.09665024e-003 2.73657101e-003
      3.14057013e-003 1.71999261e-001 1.02913212e-002 -1.05331084e-002
      -1.10504888e-002 1.15424767e-002 1.41577143e-002 -4.66475636e-003
      8.12211167e-003 -7.80909508e-002 5.41090500e-003 -3.59847443e-003
      1.48935718e-002 1.84667725e-002 1.55299371e-002 2.19334550e-002
      1.31657925e-002 1.45068645e-001 9.84108075e-004 8.29662289e-003
      2.32216474e-002 4.07280354e-003 5.91547880e-003 6.59636036e-003
      1.92718692e-002 -4.57676016e-002 2.63383184e-002 2.27227267e-002
      7.54604265e-002 4.10945863e-002 -1.46549577e-002 1.25181610e-002
      1.17246446e-003 8.88211951e-002 1.18506039e-002 9.54922638e-004
      4.33066674e-003 1.12996800e-002 1.30858403e-002 -1.44571569e-002
      2.19015917e-003 1.34229407e-001 -1.05073797e-002 -1.26489671e-002
      4.35828837e-003 5.97441383e-003 1.64374732e-003 3.45193734e-003
      6.66323863e-003 -8.38786811e-002 8.66349321e-003 1.12848412e-002
      -6.07378606e-004 -6.36877725e-003 5.62617695e-003 -4.86485064e-002
      -2.16985531e-002 -1.85971364e-001 2.13187933e-002 1.73910446e-002
      6.83300523e-003 -2.27258056e-002 -4.36852267e-003 -1.32574253e-002
      -3.48979351e-003 -3.37516189e-001 -3.84414056e-003 9.57487430e-003
      7.61364959e-003 -3.59288254e-003 -5.14667621e-003 -6.81588566e-003
      1.09056560e-002 -3.03497910e-001 -3.66727971e-002 -1.32023105e-002
      4.76437900e-003 -6.66781934e-003 4.50460389e-002 1.03999339e-001
      1.19903885e-001 -2.77331501e-001 -8.71546507e-001 -3.59344602e-001
      -1.81895420e-001</_>
    <_>
      -2.04758979e-002 -4.95117391e-003 4.91499621e-003 7.92072341e-003
      8.20630975e-003 3.85360746e-003 1.08455559e-002 9.31201223e-003
      1.44474104e-001 6.54718885e-003 3.43325851e-003 1.95931713e-003
      -1.01352176e-002 1.04262754e-002 -5.02199819e-003 2.24426314e-002
      7.91838244e-002 1.94298360e-003 1.55491857e-002 2.12452058e-002
      2.25331858e-002 1.04067139e-002 1.66693497e-002 3.32718790e-002
      1.14234313e-001 -1.02014486e-002 1.45782707e-002 2.25126445e-002
      -8.32195301e-003 2.00900678e-002 1.68923512e-002 2.56778449e-002
      6.72629550e-002 4.63053547e-002 3.12201753e-002 2.00251658e-002
      4.74623181e-002 4.98312227e-002 2.86099631e-002 5.88464411e-003
      -2.25629434e-002 5.87256800e-004 9.56715867e-002 1.15539677e-001
      2.87726313e-001 4.48962659e-001 2.51076937e-001 4.83660474e-002
      8.93876612e-001 -9.99630895e-003 1.07801827e-002 -4.92821261e-003
      -5.52572450e-003 -9.23891552e-003 -3.22087854e-003 5.67138614e-003
      8.73477280e-001 -1.68461930e-002 -1.72392596e-002 -8.78367200e-003
      -6.38972642e-003 -2.13607517e-003 -1.07718939e-002
      -4.20006318e-003 5.95530391e-001 -1.72080155e-002 -1.18259564e-002
      -1.68590080e-002 4.48237592e-003 -6.04396965e-003 -2.06544762e-003
      7.68239202e-004 3.51353645e-001 -2.02143639e-002 5.69139142e-003
      6.69061951e-003 -1.61895137e-002 1.15200607e-002 -9.02458560e-003
      -5.94290905e-003 1.60521083e-002 -6.83464110e-002 -6.20326996e-002
      -1.61418337e-002 -7.00645428e-003 2.25784294e-002 2.92682722e-002
      1.41257821e-002 -4.43339556e-001 1.66797951e-001 1.68450430e-001
      4.13293354e-002 5.60189039e-002 7.38660470e-002 6.54998645e-002
      4.71560359e-002 -3.04689586e-001 1.83273642e-003 1.69286714e-003
      8.99876934e-003 5.27060125e-004 1.22930889e-003 -2.16968590e-003
      -4.71187104e-003 -3.46835196e-001 1.94039708e-003 -1.52734853e-002
      -8.39568209e-003 -1.09849370e-003 -1.20655401e-002
      -1.06243081e-002 -9.82261542e-003 -2.72927701e-001 1.25224087e-002
      1.49256010e-002 1.64308306e-003 4.87358589e-003 9.93798953e-003
      -3.12746642e-003 6.30393717e-003 -6.70866191e-001 2.80730352e-002
      1.87093597e-002 1.92470755e-002 1.14158676e-004 1.21662719e-002
      1.56237744e-002 1.63840391e-002 -6.56077504e-001 1.24849692e-001
      7.85132423e-002 9.90943313e-002 8.25864077e-002 6.96056560e-002
      3.22682336e-002 3.00119035e-002 0. 0. 0. 0. 0. 0. 0. 0.
      -7.13005602e-001 -2.41393852e-003 2.82780896e-003 1.00547858e-002
      1.56333507e-003 -6.39380282e-003 7.09210755e-003 2.38774996e-002
      -5.57794154e-001 5.66568878e-003 2.59750127e-003 1.45710446e-003
      -3.17515980e-004 -6.90084323e-003 -1.71423163e-002
      -1.54662959e-003 -7.66975820e-001 -8.12352374e-002
      -4.47912738e-002 -3.61022316e-002 -3.93257476e-003 2.14106385e-002
      3.35345156e-002 2.38505919e-002 -8.00543785e-001 1.47132427e-002
      6.27136137e-003 1.76085830e-002 1.25892954e-002 2.91885659e-002
      1.99796725e-002 2.42162477e-002 2.53157973e-001 -4.28318858e-001
      -4.43910331e-001 -3.40850621e-001 -8.60752240e-002 2.75825169e-002
      3.44929360e-002 5.63014485e-002 6.48519373e-004 -3.10228439e-004
      -2.31341153e-004 -4.11864370e-004 0. 1.01635909e-004
      1.52453882e-004 0. -6.50973260e-001 1.03011904e-002
      -4.71636653e-003 -7.14605348e-003 -5.62461652e-003
      -1.59593136e-003 -1.97591167e-003 2.25342766e-004 -5.32517195e-001
      -1.25803165e-002 3.49488837e-004 -2.02037171e-002 -7.08834082e-003
      -5.48291951e-003 1.40281785e-002 8.94397032e-003 -2.32363477e-001
      7.35733984e-003 9.32629593e-003 1.35408230e-002 1.53006716e-002
      1.73745602e-002 6.10803301e-003 2.31466480e-002 6.61213174e-002
      1.91357080e-002 -1.07138068e-003 5.04354481e-003 2.97598634e-002
      2.83846911e-002 2.22199336e-002 1.59965381e-002 1.14259757e-002
      2.68640718e-003 -3.10410303e-003 2.82246415e-002 2.22241227e-002
      3.22324745e-002 2.53488757e-002 3.63152660e-002 4.13619098e-004
      1.69742648e-002 3.70076112e-002 5.23302443e-002 8.42678249e-002
      1.29709467e-001 1.93358034e-001 1.50935784e-001 2.62061149e-001
      1.22415519e-003 -5.20513579e-003 7.21218123e-004 -1.23578720e-002
      -3.17879650e-003 -7.88864773e-003 -1.99100329e-003 3.27833712e-001
      -1.11994520e-002 -1.22479920e-003 -3.02446890e-003
      -4.19948669e-003 -1.44403214e-002 -5.11878962e-003
      -9.77943838e-003 6.44448221e-001 -1.96951139e-003 -1.99601427e-002
      -1.38171110e-003 -1.13289640e-003 2.49895663e-003 -6.41975505e-003
      -2.67645307e-002 8.54708731e-001 3.54961958e-003 -1.59579087e-002
      9.05574486e-003 -2.26262980e-003 -7.52632925e-003 -5.70240663e-003
      2.71785236e-003 1.33432135e-001 2.13655345e-002 3.87439765e-002
      2.77962070e-002 1.27022872e-002 4.45094705e-002 5.15010841e-002
      6.57196715e-002 9.36823860e-002 9.93057899e-003 6.00916483e-002
      9.28956568e-002 7.27791861e-002 7.74384812e-002 2.15252265e-001
      1.58037692e-001 2.56780803e-001 -5.55554312e-003 2.96020065e-003
      -4.96189296e-003 -8.21076974e-005 4.69096890e-003 -7.07632815e-003
      -1.24942837e-003 -5.36721526e-003 8.76497186e-004 8.51534586e-003
      -1.28464063e-003 -3.18336068e-003 4.07102430e-004 5.06374333e-003
      4.40815836e-003 -2.48249158e-001 1.69312744e-003 2.94965180e-003
      4.28547850e-004 -6.61569939e-004 5.31840697e-003 -1.24229863e-003
      8.41411017e-003 -4.01186585e-001 5.40752010e-003 7.41324294e-003
      2.18602293e-003 3.32184508e-003 2.07929267e-003 7.55543634e-003
      1.56663987e-003 -1.44007578e-001 -2.63694614e-001 -2.27056339e-001
      -1.63017750e-001 -4.89559844e-002 -2.73301620e-002 2.87734088e-004
      2.96879523e-002 0. 0. 0. 0. 0. 0. 0. 0. 1.63769260e-001
      -1.72556546e-002 -1.26460912e-002 -4.96292207e-003
      -6.36021327e-003 2.70290044e-003 1.01596341e-002 -2.88717495e-003
      6.72168583e-002 -4.86059021e-003 1.17124636e-002 -5.56078972e-003
      -4.17717779e-003 -1.00897113e-003 -4.52193012e-003
      -1.51354652e-002 1.98543534e-001 8.61019175e-003 -1.10806711e-002
      -5.11612091e-003 5.81108779e-003 8.29281344e-004 1.60129163e-002
      -1.49386795e-002 3.25252265e-001 1.79802552e-002 4.45067557e-003
      1.82140544e-002 2.07658708e-002 3.11284384e-004 1.59230884e-002
      1.45199560e-002 1.34341255e-001 6.84776763e-003 3.81315351e-002
      1.71657410e-002 1.16802868e-003 2.26697940e-002 1.18750520e-002
      1.03317909e-002 8.89711231e-002 2.73924917e-002 7.70449713e-002
      4.57235873e-002 4.99444753e-002 1.80860788e-001 1.05986089e-001
      2.36992270e-001 -7.60483205e-001 7.67001091e-003 -1.86228193e-003
      -2.34163040e-003 -3.23084136e-003 3.84103227e-003 -5.30548906e-003
      -7.41744181e-003 -5.41088104e-001 6.25591376e-004 -5.09620039e-003
      -1.96312275e-003 1.60668837e-003 -1.40812080e-002 4.07950534e-003
      -7.49099720e-003 -2.72887170e-001 4.37294645e-003 1.29878167e-002
      1.42744761e-002 3.77602875e-003 6.20544748e-003 -1.70106813e-002
      -3.69819906e-003 -5.96752949e-002 2.11682431e-002 1.06189782e-002
      -7.99135398e-003 -2.94271531e-003 -1.13610190e-003 8.73360690e-003
      -1.31767625e-002 4.76483963e-002 1.95506192e-003 2.06999201e-003
      -2.58391933e-003 1.30951237e-002 1.41094094e-002 6.77956501e-003
      4.02155425e-003 8.73617902e-002 -1.82450209e-002 1.55881271e-002
      -3.73055004e-002 2.29479522e-002 1.22759193e-001 1.20107166e-001
      1.83505833e-001 -3.56089592e-001 -1.19160265e-001 -7.22112715e-001
      8.65728036e-003</_>
    <_>
      6.55465126e-001 -1.78760360e-003 9.77069326e-003 1.23094236e-002
      1.32317403e-002 5.86076826e-003 1.92991178e-002 -1.22426974e-003
      6.04726672e-001 7.71956099e-003 9.47266631e-003 2.21744627e-002
      4.77241306e-003 2.49275602e-002 1.03898824e-003 2.02434435e-002
      2.76296854e-001 1.47898570e-002 1.52706085e-002 1.36614237e-002
      2.85802148e-002 8.45784228e-003 2.18029898e-002 1.11985244e-002
      2.90735513e-001 5.39805880e-003 2.74289660e-002 2.63153296e-002
      1.01261493e-002 1.26457801e-002 2.23126281e-002 2.05194745e-002
      1.85087994e-001 4.72380556e-002 5.22416420e-002 4.09246050e-002
      5.75437695e-002 8.28990787e-002 8.89417678e-002 9.79073197e-002
      1.06958849e-002 4.26457934e-002 8.85350630e-002 1.26839936e-001
      3.88676852e-001 7.63434470e-001 5.42413771e-001 3.41387987e-001
      -1.32305831e-001 8.69467109e-003 2.01525483e-002 -2.04137294e-003
      5.11495443e-003 1.53179246e-003 -7.13587692e-003 4.03927825e-002
      2.27932543e-001 9.37791169e-003 -9.93119273e-003 6.30237488e-003
      -2.62039690e-003 -9.01570951e-004 -5.01347100e-003 4.19922965e-003
      3.42663050e-001 2.13642512e-003 -4.25201328e-003 4.74460330e-003
      1.65172555e-002 2.85365363e-003 -1.18028522e-002 1.29559217e-002
      3.02432716e-001 3.81889124e-003 2.54704598e-002 7.52821425e-003
      -1.31980553e-002 -3.04348022e-002 -6.59875106e-003
      -1.00961514e-002 3.87546152e-001 -5.23556694e-002 -6.23907410e-002
      1.33526055e-002 -4.74852137e-002 -5.33245876e-002 -3.02108824e-002
      -5.27897291e-002 5.25406659e-001 -7.26887882e-002 -5.58237508e-002
      -1.81592092e-001 -1.26250580e-001 -8.97663534e-002 1.47609739e-002
      8.36379768e-004 -2.62854427e-001 3.56932799e-003 -7.19254790e-003
      1.24653773e-002 -3.42235179e-003 8.76374729e-003 -1.46848022e-003
      -7.11529702e-003 -3.66924524e-001 2.76469514e-002 2.59334804e-003
      9.24413791e-004 -1.27143940e-004 2.63638403e-002 -1.72063091e-003
      -6.65186308e-005 -1.84973985e-001 5.22623211e-003 1.16695492e-002
      -3.49730463e-003 -5.55121247e-003 6.67318795e-003 1.83483842e-003
      -1.74734951e-003 -7.39428222e-001 1.21127777e-002 3.47689241e-002
      -1.44846737e-002 2.53778473e-002 5.99603401e-003 1.61535162e-002
      2.44651865e-002 -4.88475859e-001 6.86000660e-002 4.03480828e-002
      9.40999091e-002 7.69421160e-002 8.55327621e-002 2.43008807e-002
      1.54535705e-002 2.22044605e-016 0. 0. 0. 0. 0. 0. 0.
      -3.72687995e-001 -1.55446874e-002 -2.93594766e-002 1.77319329e-002
      1.00569725e-002 -1.40784960e-002 -1.15209920e-002 2.04051472e-002
      -1.32322177e-001 -2.68885423e-003 9.83143132e-003 7.27953948e-003
      -4.00945486e-004 8.24347418e-003 -9.60832182e-003 -2.97015387e-004
      2.60469336e-002 -3.45822647e-002 -3.84633848e-003 1.72754582e-002
      -4.35700864e-002 -1.78926922e-002 -3.58970352e-002
      -1.37825552e-002 -2.43757874e-001 -3.35195884e-002
      -2.33937502e-002 -2.34806482e-002 -2.01295763e-002
      -1.85887162e-002 -3.57679389e-002 -3.35444766e-003 1.90449432e-002
      1.05814241e-001 1.18921690e-001 7.07625831e-003 -5.77339381e-002
      -1.53187634e-002 -1.60054285e-002 -4.66443971e-002
      -2.40380017e-004 0. 2.40375928e-004 0. 0. 0. 0. 0. 7.41002440e-001
      1.35759609e-002 6.70448784e-003 7.29330769e-003 -4.95642656e-004
      1.03749391e-002 1.94366975e-003 1.46323275e-002 3.88829976e-001
      -1.82617847e-002 -6.92934822e-003 -1.23296091e-002 2.53387541e-003
      -5.94941480e-003 1.53818456e-002 7.63240736e-003 -6.86896071e-002
      9.75410454e-003 3.13620229e-004 1.59932375e-002 4.39554639e-003
      2.03025900e-002 3.75638297e-003 2.31137481e-002 5.55821173e-002
      1.52092823e-003 -9.91449878e-003 -9.94417816e-003 4.21131821e-003
      1.55441593e-002 4.54801600e-003 2.02171188e-002 1.20748118e-001
      1.39873810e-002 -5.39607508e-003 3.40351872e-002 3.31966989e-002
      2.92211603e-002 2.28525866e-002 2.23950557e-002 1.33093640e-001
      2.37629097e-002 5.31469621e-002 7.31322616e-002 1.15021765e-001
      1.56609446e-001 1.69386834e-001 2.13406861e-001 -6.45317361e-002
      -1.44332321e-002 -1.30174793e-002 3.39562030e-006 -1.53898625e-002
      -1.56096518e-002 -9.95418150e-003 -2.66464963e-003 3.28437537e-001
      -4.05054353e-003 -1.03227803e-002 -1.89607944e-002
      -7.61218043e-003 2.75678467e-003 -2.19732802e-002 -2.17132419e-002
      5.39085984e-001 -1.32345892e-002 -8.55895877e-003 2.51866132e-003
      -1.17658256e-002 -4.39758087e-003 8.71692412e-003 -1.39215421e-002
      6.33093774e-001 -2.45360062e-002 -1.17395706e-002 -5.36377914e-003
      -8.38007405e-003 -1.10653257e-002 -1.98005326e-003
      -9.22452379e-003 3.70869964e-001 4.96976972e-002 5.37411273e-002
      2.62822304e-002 2.17239279e-002 2.87173148e-002 3.77123728e-002
      5.18182060e-003 2.10059240e-001 3.65141779e-002 3.43293920e-002
      1.11246005e-001 1.01265073e-001 1.48087785e-001 1.90132961e-001
      1.96523696e-001 -3.13700467e-001 -3.78508633e-003 -5.06956456e-003
      -4.69778106e-003 -5.11015672e-003 8.55183229e-003 2.37319549e-003
      1.41849474e-003 -2.98711896e-001 -4.66427254e-003 2.12066900e-002
      9.59841348e-003 2.38130940e-003 -3.79007100e-003 -4.74270247e-003
      -4.53362660e-003 2.76561588e-001 -1.29506728e-002 9.51200258e-003
      -5.01102628e-003 -6.36138138e-004 -8.15882534e-003
      -8.61708354e-003 8.52024090e-003 3.65018189e-001 -5.89525467e-003
      1.10290805e-002 2.94078663e-002 -3.15438746e-003 -8.76494404e-003
      1.81031805e-002 -9.18744990e-005 4.65379953e-002 -3.04583856e-003
      -6.15594983e-002 2.64229942e-002 2.26083733e-002 -1.06803160e-002
      -6.44976320e-003 1.17122456e-002 2.22044605e-016 0. 0. 0. 0. 0. 0.
      0. 5.59299946e-001 -1.24196690e-002 -6.39373716e-003
      -6.84471242e-003 3.01168393e-003 8.64245184e-003 1.60811562e-002
      -3.76237044e-003 2.95493811e-001 -1.18067600e-002 -4.88265231e-003
      -7.73400394e-003 -9.78415180e-003 3.51682957e-003 -1.00598959e-002
      2.36808381e-004 2.56772369e-001 -1.38006685e-003 -7.01318914e-003
      -8.61254800e-003 -1.47358496e-002 1.41803445e-002 6.03254139e-003
      -4.33470501e-004 1.89017519e-001 1.86799672e-002 -1.12939738e-002
      1.04812277e-003 3.78055349e-002 -7.38690142e-003 1.93788726e-002
      2.67301630e-002 7.30289444e-002 1.76865060e-003 1.29797822e-002
      1.04747117e-002 1.71744637e-002 2.65102666e-002 1.13948146e-002
      -1.25847831e-002 7.96755999e-002 1.93235911e-002 1.83006357e-002
      4.81984094e-002 7.22583607e-002 1.80725992e-001 1.83159590e-001
      2.71038473e-001 2.44790003e-001 2.21441630e-002 -3.36514349e-004
      4.30577481e-003 2.03243457e-002 2.60859989e-002 5.58072177e-004
      5.66106383e-003 2.62507737e-001 8.40624981e-003 3.22295539e-003
      5.25987986e-003 7.27584213e-003 4.28726291e-003 1.64740405e-003
      1.30381351e-002 4.88323122e-001 3.78138595e-003 1.46742072e-002
      2.04390027e-002 1.15247760e-002 -1.73228532e-002 1.37783382e-002
      8.80437903e-003 3.30278724e-001 1.71124209e-002 -1.33197289e-003
      -7.39161763e-003 -3.08389869e-002 -3.78495036e-003 1.57666616e-002
      -2.23260978e-003 1.91127732e-001 2.02278420e-002 1.21451560e-002
      1.03521617e-002 1.88943818e-002 1.46612944e-002 1.31858001e-002
      1.49115063e-002 1.64039358e-001 1.26497140e-002 2.59345844e-002
      3.32576558e-002 8.23703036e-002 9.83759016e-002 1.74106553e-001
      2.34275743e-001 2.81845510e-001 3.31997901e-001 1.41052112e-001
      9.82155930e-003</_>
    <_>
      8.08893144e-002 -3.67609155e-003 3.09196115e-003 -2.97489855e-003
      5.29497210e-003 -2.80011049e-003 1.15224137e-003 4.21564281e-003
      1.07333869e-001 -1.60351675e-003 2.36200634e-003 -7.87478406e-004
      -8.60390661e-004 3.06582078e-003 2.18938541e-004 7.45363068e-003
      5.04251681e-002 4.41899057e-003 3.19098914e-003 2.12725042e-003
      7.87591748e-003 2.57567782e-003 6.16568606e-003 7.18242628e-003
      4.98069823e-002 -8.65657930e-004 6.51548558e-004 2.44786334e-003
      1.20691699e-003 7.30233686e-003 9.52093862e-003 1.01153916e-002
      2.82026175e-002 9.41135082e-003 -4.24219668e-003 7.45309051e-004
      1.64982455e-003 7.23952148e-003 8.14668275e-003 -4.86563938e-003
      -8.21305613e-004 3.85570899e-003 2.51449291e-002 1.12980949e-002
      6.11949107e-003 8.67484212e-002 4.29907814e-002 -2.15371046e-002
      3.63952845e-001 -5.95301250e-003 4.57901647e-003 3.28154420e-003
      -6.93066744e-003 1.78933900e-003 -1.50971562e-002 7.76241906e-003
      3.55601490e-001 1.19579816e-003 -4.02717432e-003 3.49877402e-003
      -3.96985281e-003 -9.89501551e-003 -9.64036491e-003
      -5.07532246e-003 1.96809620e-001 -2.56899814e-003 -1.29958196e-002
      -8.46508483e-004 3.48376896e-004 -1.69210462e-003 4.63987142e-003
      2.44971365e-003 1.53338850e-001 6.09046430e-004 -5.68508985e-004
      -3.05928756e-004 -6.62484951e-003 -9.95855778e-003 1.26962271e-003
      -2.22251322e-002 1.57937035e-001 -5.27265370e-002 -6.03018552e-002
      -2.44518202e-002 -3.74614485e-002 -6.01928588e-003
      -1.48888510e-002 -3.51800281e-003 4.52867802e-003 -7.69370124e-002
      1.33755254e-002 3.35421748e-002 4.14388813e-002 3.42834108e-002
      3.01390924e-002 1.51811717e-002 -3.23251665e-001 6.44661952e-003
      -7.58716604e-004 4.31914208e-003 3.52833187e-003 7.43895257e-003
      2.15957104e-003 9.77655174e-004 -4.21555668e-001 7.94744026e-003
      -4.63724369e-003 -2.69752368e-003 -2.37953220e-003 8.22896697e-003
      1.60511525e-003 8.70786421e-003 -1.90355822e-001 7.62762269e-003
      9.68460739e-003 -7.16985436e-004 1.13665091e-003 7.54062645e-003
      2.20130244e-003 3.38230561e-003 -5.09691000e-001 -1.18359001e-002
      8.70857574e-003 1.30919958e-004 1.63720851e-003 6.69411849e-003
      1.11862235e-002 1.34267518e-002 -4.85941052e-001 7.23879933e-002
      5.75832054e-002 8.11439753e-002 6.46154583e-002 5.99816851e-002
      2.71890666e-002 2.08014771e-002 2.22044605e-016 0. 0. 0. 0. 0. 0.
      0. -4.60708588e-001 -3.76217510e-003 -1.92939665e-003
      2.12907605e-003 -2.27523712e-003 -6.37714937e-003 -3.98106233e-004
      7.26425648e-003 -3.96532118e-001 2.16989452e-003 6.25450723e-003
      9.81392805e-003 -3.64278967e-004 3.96529632e-003 8.29895434e-004
      8.16717371e-003 -1.97016314e-001 -1.59819778e-002 -2.59434315e-003
      6.66797766e-003 -9.32066515e-003 -1.23241236e-002 2.18548486e-003
      -7.91545678e-003 -2.60739535e-001 -1.88262388e-002
      -1.09656863e-002 -1.43184271e-002 -9.47966054e-003 1.63629639e-003
      -1.26699638e-002 8.67910217e-003 -1.03272490e-001 -5.97202517e-002
      -3.74419168e-002 -3.36103626e-002 -2.40433216e-003
      -6.30276836e-003 -1.26648778e-002 -1.56259239e-002 2.22044605e-016
      0. 0. 0. 0. 0. 0. 0. -3.30132917e-002 -6.03738707e-003
      -9.46474087e-004 2.20130244e-003 -5.90786431e-003 2.21689278e-003
      -7.86317419e-003 5.23165043e-004 -1.25244543e-001 -1.20502571e-002
      5.22252230e-004 -5.96780702e-003 5.78777574e-004 -4.94842045e-003
      6.33086171e-003 -1.40711921e-003 -9.48623568e-002 2.98946653e-003
      -2.33871373e-003 2.29242630e-003 3.55860032e-003 -4.71127033e-003
      -7.54256174e-003 1.24165684e-003 -6.09442964e-002 -1.67134777e-003
      -1.62270181e-002 1.10615569e-003 2.37324252e-003 -2.66034901e-003
      -6.44502090e-003 3.76023981e-003 2.10508704e-002 -1.00376252e-002
      -9.90718976e-003 4.34849784e-003 -7.80605478e-003 -1.49721885e-002
      -5.59514016e-003 1.88118941e-003 8.41955363e-004 7.75956549e-003
      -7.27947336e-003 -1.02934912e-002 1.25570071e-003 2.04883851e-002
      -3.32224969e-004 5.85107179e-003 3.03775698e-001 -6.58750942e-004
      -7.61337753e-004 -4.88585653e-003 -1.88239815e-003 2.73639278e-004
      -2.74187606e-003 -9.13288258e-003 3.23128998e-001 -2.99048913e-003
      1.39823346e-003 2.60669767e-004 -6.58311835e-003 -2.84446287e-003
      1.09229865e-003 -6.57042605e-004 3.84152204e-001 1.45824641e-004
      -2.93578883e-003 -7.92069826e-003 -8.75756983e-003 5.35221770e-004
      -3.05223657e-004 -5.93833439e-003 3.46151650e-001 -8.03534128e-003
      -6.61358889e-003 5.08168538e-004 4.76494851e-003 -6.83870725e-003
      -9.73169040e-003 -2.34835106e-003 7.13658612e-003 1.01076048e-002
      1.07167363e-002 7.08843907e-003 5.24191046e-003 2.26651169e-002
      2.27685012e-002 9.15047899e-003 -3.53436288e-003 -7.57417176e-003
      -9.15348344e-003 3.42651177e-003 1.92125812e-002 4.40437533e-002
      4.95815501e-002 4.84605469e-002 -8.11837390e-002 -5.00312122e-003
      -1.67813734e-003 -1.93971989e-003 -1.98315945e-003 6.34494564e-003
      2.09962833e-003 -5.14914747e-003 -2.82280922e-001 1.23923772e-003
      1.14218909e-002 2.99120019e-003 2.15957104e-003 -2.94522406e-003
      4.64017794e-004 5.48364222e-003 -2.02218309e-001 -8.96681938e-003
      -4.92838351e-003 -1.21466890e-002 -2.74992716e-002
      -1.70915760e-002 -1.52509101e-002 -8.13348219e-003
      -2.95956582e-001 -6.78293267e-003 -4.00896277e-003 1.15253907e-002
      -1.77981134e-003 2.61582521e-004 3.29896039e-003 1.18191598e-003
      1.39575750e-001 -6.68501183e-002 -8.43839794e-002 -7.19559863e-002
      -6.08084872e-002 -7.80963749e-002 -9.18298587e-002
      -3.69416177e-002 2.22044605e-016 0. 0. 0. 0. 0. 0. 0.
      4.46731210e-001 -6.57042605e-004 4.50598728e-003 -2.69752368e-003
      -6.00600429e-003 3.21525324e-004 2.29242630e-003 -7.74328876e-003
      4.96767521e-001 5.23960625e-004 4.73960349e-003 1.19659386e-003
      -1.82154251e-003 3.15190409e-003 -7.58716604e-004 -3.57441767e-003
      3.35430592e-001 -4.06922743e-004 -5.13093593e-003 -1.00088883e-002
      -6.77880598e-003 -2.79586622e-003 -1.95462466e-003
      -3.50059266e-003 2.14287549e-001 -1.48383330e-003 -4.30104043e-003
      5.17750578e-003 5.40331006e-003 -6.22516964e-003 9.23768710e-003
      -5.76203968e-003 7.48184994e-002 9.85332415e-004 2.31569377e-003
      1.04412716e-002 -3.20703350e-003 -1.11005211e-003 -7.17255753e-003
      -7.58943555e-004 1.71380099e-002 4.69237845e-003 7.82055128e-003
      1.48067223e-002 -1.35340355e-003 2.26110090e-002 1.75977796e-002
      7.50370473e-002 6.53626621e-002 -1.29575701e-003 -3.57441767e-003
      -2.69752368e-003 -5.37040352e-004 1.17269130e-002 -5.14652627e-003
      -2.80011049e-003 5.15700169e-002 -2.11188686e-003 -4.06719744e-003
      -4.62256558e-003 -1.41484651e-003 -7.58716604e-004
      -3.76217510e-003 3.44224833e-003 -1.71512868e-002 3.51793773e-004
      1.31306273e-003 1.00478632e-002 2.41853250e-003 -7.58429291e-003
      7.58418301e-003 -6.81693666e-003 -9.04370397e-002 8.45996197e-003
      3.62258608e-004 -3.29724466e-003 -2.57082353e-003 2.39147921e-003
      9.22749564e-003 2.43674428e-003 1.89676844e-002 1.33036170e-003
      -1.29758182e-003 6.26547378e-004 -9.33383591e-003 -2.91653797e-002
      -9.50842351e-003 -3.69099621e-003 1.02487928e-003 -1.13517353e-002
      -2.03168448e-002 -9.89620667e-003 4.32022661e-003 -4.92413947e-003
      2.31207758e-002 4.17210050e-002 -3.64149749e-001 -3.31534833e-001
      -1.01279104e+000 -2.03255075e-003</_>
    <_>
      9.62228850e-002 -9.89049673e-003 -1.83162058e-003 -1.45046075e-003
      4.88118455e-003 -1.18562300e-002 2.47350195e-003 -3.87224578e-003
      3.19734544e-001 6.00853469e-003 -1.10232895e-002 -2.21401802e-003
      -1.08945640e-002 3.43040051e-003 -1.22193061e-002 8.89288541e-003
      1.48204520e-001 1.02297571e-002 1.05922865e-002 1.43338470e-002
      2.50626709e-002 1.20562771e-002 1.45236030e-002 1.71118900e-002
      1.83014765e-001 -1.28303387e-003 1.43723236e-002 1.48680061e-002
      1.15042459e-002 1.80598553e-002 2.58556809e-002 2.05109827e-002
      1.10677749e-001 3.72394733e-002 2.86108162e-002 2.50795707e-002
      3.50399539e-002 4.21857834e-002 4.58438769e-002 4.75094952e-002
      3.59066107e-005 2.19598860e-002 6.52858019e-002 4.25385386e-002
      9.39913765e-002 2.48090416e-001 5.92057109e-002 -9.98714268e-002
      2.38486588e-001 -3.14079202e-003 1.64388288e-002 -5.37777320e-003
      -4.56446456e-003 -1.30139049e-002 -5.76830190e-003 3.20145711e-002
      4.41775978e-001 -5.97888371e-003 -1.26955714e-002 3.79945710e-003
      -1.15805948e-002 -1.12735545e-002 -1.53885838e-002
      -2.31152144e-003 4.84116703e-001 -1.45765021e-002 -3.32747437e-002
      -2.13749819e-002 -1.31885698e-002 -1.81750534e-003 8.01642018e-004
      -9.79112461e-003 3.94864142e-001 -2.24495772e-002 1.82918310e-002
      -8.08083545e-003 -4.05780710e-002 -3.33631784e-002
      -2.22735517e-002 -3.74664925e-002 2.26034194e-001 -7.07949400e-002
      -5.69012091e-002 -4.02014479e-002 -5.02169356e-002
      -8.18735659e-002 -8.20263028e-002 -9.81398374e-002
      -1.58465803e-001 -3.17234337e-001 -1.27621159e-001
      -4.50668633e-002 6.29924685e-002 7.94023126e-002 1.06812470e-001
      1.11079410e-001 -3.51444751e-001 -6.48227520e-003 -2.21895464e-002
      -3.32513452e-003 -1.04844477e-002 2.89021689e-003 -2.91152578e-003
      -7.61692598e-003 -1.49666235e-001 -1.73419677e-002
      -5.19557483e-002 -4.15843986e-002 -3.59594822e-002
      -1.07703973e-002 -2.98623126e-002 -1.97412483e-002
      -2.50226736e-001 -2.24576462e-002 -1.29542416e-002
      -3.52124646e-002 -1.76629275e-002 1.34440279e-003 4.16840892e-004
      4.45606792e-003 -5.80462813e-001 -1.28662139e-001 -9.05033946e-002
      -9.04020965e-002 -5.69664948e-002 -2.31109560e-002
      -1.69522986e-002 2.74752714e-002 -9.75987613e-001 1.07689619e-001
      1.01709954e-001 1.63130730e-001 1.31906599e-001 1.31591186e-001
      5.70006967e-002 4.49446552e-002 0. 0. 0. 0. 0. 0. 0. 0.
      1.53816372e-001 -4.90638763e-002 -3.10594775e-002 -1.78113673e-002
      -1.56711396e-002 -3.25567983e-002 -2.53769234e-002 1.17694139e-002
      3.37907284e-001 -4.25348319e-002 -4.85874005e-002 -3.57958637e-002
      -5.19070327e-002 -6.38214126e-002 -4.88763116e-002
      -3.44671607e-002 -4.82747138e-001 -3.26885395e-002
      -1.98177397e-002 -2.67870794e-003 -2.78637558e-002
      -2.63256691e-002 -2.07043923e-002 -2.72131767e-002
      -8.05529058e-001 -1.11156879e-002 -1.55008910e-002 1.96353300e-003
      -1.57808885e-002 8.92563816e-003 -3.93917132e-003 9.33621638e-003
      1.01573996e-001 -3.59390438e-001 -1.46108657e-001 -1.52577922e-001
      -9.75533277e-002 -3.21088731e-002 -4.82818894e-002
      -4.16930579e-002 -8.32688354e-004 2.49806413e-004 0.
      8.32687947e-005 0. 1.66537589e-004 2.49806413e-004 0.
      -1.32366300e-001 1.39416028e-002 1.72243267e-006 -2.81579257e-003
      -5.37699182e-003 -1.92985556e-003 -7.36117689e-003 4.91543300e-003
      -2.28338644e-001 -9.41039342e-003 2.49480829e-003 -4.95045260e-003
      8.64577759e-003 -8.45402107e-003 1.35753257e-002 1.72338251e-003
      3.85482945e-002 3.85127077e-003 -6.77140383e-003 7.98407197e-003
      -3.36298556e-003 -3.45858722e-003 -9.83891450e-003 1.41314706e-002
      2.88545728e-001 -8.46013054e-003 -8.53236858e-003 3.72868497e-003
      -4.78752330e-003 7.95354508e-003 -3.70229781e-003 2.89210607e-003
      1.51069194e-001 8.50478932e-003 -4.41342080e-003 2.08324976e-002
      1.65870674e-002 2.13370156e-002 1.09635629e-002 3.25894430e-002
      9.29712951e-002 2.31603179e-002 2.79703960e-002 3.42325680e-002
      6.35536537e-002 5.34040183e-002 5.32421246e-002 5.39163537e-002
      1.35484472e-001 -3.66968825e-003 -8.62651411e-003 6.17114201e-005
      -6.50088815e-003 -2.88762781e-003 1.52094319e-004 -6.37743063e-003
      2.84077406e-001 1.83557789e-003 8.29048455e-004 -9.99309868e-003
      -6.92367740e-003 -1.07327504e-002 1.75174198e-003 -9.91568156e-003
      7.32728779e-001 -4.62695520e-004 -6.06340310e-003 -7.68438214e-004
      -7.68442871e-003 -3.85425310e-003 4.24832944e-003 4.79080062e-003
      9.24671054e-001 -1.99834574e-002 -1.44138988e-002 -1.43220800e-003
      -9.78325680e-003 -2.23874394e-002 -1.56630538e-002
      -6.33841380e-003 2.29978547e-001 4.21639383e-002 3.40956673e-002
      2.57751439e-002 1.06264055e-002 4.74007688e-002 3.75156887e-002
      2.27541365e-002 9.97709334e-002 2.94378214e-002 3.72424349e-002
      7.22693503e-002 6.32285550e-002 5.62882498e-002 6.26645982e-002
      6.57937974e-002 1.89251542e-001 -7.57269235e-003 -2.23974697e-003
      -8.66131391e-003 1.05707592e-003 4.50338889e-003 -2.48110713e-003
      -7.08359620e-003 1.65498614e-001 -6.40337868e-003 5.20978123e-003
      -5.06478734e-003 -1.20943515e-002 -1.19810011e-002
      -9.88771487e-003 8.62934336e-004 3.17181498e-001 -1.41937714e-002
      -9.72322188e-003 -2.23211087e-002 -1.52012976e-002
      -1.33280400e-002 -1.32311489e-002 -7.58568477e-003 2.88447559e-001
      -2.12633722e-002 -8.80662259e-003 9.68821440e-003 -2.01621801e-002
      -1.12491557e-002 -1.12314313e-003 -1.60452295e-002 2.86024004e-001
      -2.00323671e-001 -1.15468286e-001 -2.82879882e-002
      -2.64446381e-002 -5.22549674e-002 -5.65810911e-002
      -2.36362331e-002 0. 0. 0. 0. 0. 0. 0. 0. -1.73351631e-001
      -1.01618655e-002 -6.44732499e-003 -2.05292040e-003
      -8.01490899e-003 -6.46529516e-005 8.23892839e-003 -7.59173278e-003
      -2.26135775e-002 -7.76981190e-003 5.39502827e-003 -9.81702004e-004
      -5.14880940e-003 -2.19611079e-003 -1.05800088e-002
      -8.37033428e-003 1.71785235e-001 7.21958419e-003 5.85704867e-004
      -5.11106150e-003 1.11494130e-002 1.92045141e-002 2.69003562e-003
      -1.45462435e-003 3.38674277e-001 1.98426023e-002 -1.09053757e-002
      5.21876710e-003 3.82971987e-002 1.27461250e-003 9.40010045e-003
      -1.07270554e-002 1.54112890e-001 2.50316784e-003 2.17680745e-002
      2.22195722e-002 1.26846088e-002 1.83634814e-002 1.59398112e-002
      6.80765184e-003 1.06121607e-001 3.20352353e-002 5.44863306e-002
      7.38705397e-002 3.18619944e-002 3.80989015e-002 -1.07884863e-002
      1.19550079e-001 -3.49717259e-001 1.65815875e-002 -3.52860242e-003
      -2.13637203e-003 1.23969475e-002 1.97073556e-002 -3.83477542e-003
      -2.05442426e-003 -1.63896337e-001 4.94568236e-003 -4.91433238e-005
      2.46595615e-003 2.45561753e-003 -5.14925085e-003 -1.86126295e-003
      9.02442448e-003 1.66188031e-001 9.79220774e-003 1.40541680e-002
      2.13029496e-002 9.22212377e-003 -1.82187837e-003 1.29671264e-002
      7.01829046e-003 3.27901810e-001 2.99269464e-002 2.59740856e-002
      4.84876276e-004 -1.43358798e-003 5.34641463e-003 1.90869477e-002
      1.39406440e-003 9.09552500e-002 1.85199287e-002 6.46222429e-003
      3.72657552e-003 2.23719832e-002 1.02897566e-002 1.06700128e-002
      1.11999260e-002 9.28184018e-002 7.10412581e-003 2.00285688e-002
      2.60308366e-002 4.14589047e-002 4.75589857e-002 -1.47333164e-002
      3.02126911e-002 -2.76076019e-001 -3.16740647e-002 -8.72504830e-001
      -2.36634925e-001</_>
    <_>
      3.48662445e-003 3.54331787e-005 9.21262617e-005 4.25198123e-005
      3.54331787e-005 5.66930867e-005 8.50396245e-005 5.66930867e-005
      3.51497112e-003 7.08663574e-005 2.83465433e-005 6.37797202e-005
      1.13386173e-004 7.08663574e-005 6.37797202e-005 7.08663574e-005
      1.97044131e-003 1.48819337e-004 1.55905975e-004 1.41732715e-004
      2.12599058e-004 1.70079249e-004 9.92128917e-005 1.41732715e-004
      2.35347613e-003 2.90552038e-004 2.48032244e-004 2.62205518e-004
      1.98782422e-004 2.69292155e-004 2.62205518e-004 2.69292155e-004
      8.32346093e-004 5.60200831e-004 6.45240420e-004 7.09020183e-004
      7.44810037e-004 1.02154538e-003 1.12004508e-003 9.07445967e-004
      1.35002701e-004 1.09169853e-003 2.92076380e-003 2.80630775e-003
      1.91410491e-003 8.57482897e-004 1.37142531e-004 1.05613908e-002
      2.05410421e-001 -6.48297928e-003 -2.53027561e-003 -8.63882992e-003
      -8.04190710e-003 -9.27145779e-003 -1.03982203e-002 6.08886546e-003
      2.34056219e-001 -1.14500932e-002 -1.43411774e-002 -8.15143529e-003
      -1.23906024e-002 -1.02833733e-002 -1.24411946e-002
      -1.19659938e-002 1.54968247e-001 -2.56242324e-002 -3.04755066e-002
      -3.03046405e-002 -2.46820394e-002 -2.04347856e-002
      -1.38456328e-002 -2.06869133e-002 9.52633247e-002 -4.80237268e-002
      -3.47434282e-002 -3.46395634e-002 -4.22444381e-002
      -3.60369831e-002 -2.52909698e-002 -2.41875481e-002
      -3.61046456e-002 -1.21283211e-001 -6.72131106e-002
      -3.10875960e-002 -1.99457556e-002 -9.15165525e-003
      -4.50658891e-003 1.63748232e-003 -2.69969404e-001 3.66349006e-003
      2.99426503e-002 2.10203510e-002 7.25460984e-003 1.99712012e-002
      3.44052762e-002 4.16052639e-002 -2.44863629e-001 5.20575093e-003
      -6.97964424e-005 5.16394433e-003 2.55752541e-003 2.58551538e-003
      2.53626565e-003 -6.30664508e-005 -3.63654226e-001 9.73831769e-003
      1.93440984e-003 2.05551018e-003 1.96163380e-003 9.88078304e-003
      4.64950595e-003 7.29813986e-003 -1.33665621e-001 5.20575093e-003
      5.25535736e-003 2.83465433e-005 -4.18065429e-005 2.52244901e-003
      2.64893845e-003 2.55752541e-003 -4.05715525e-001 2.36302265e-003
      1.00954892e-002 2.32758955e-003 7.36895343e-003 4.83479537e-003
      5.01444470e-003 1.53153790e-002 -3.53200376e-001 4.88122664e-002
      4.34864014e-002 5.91380149e-002 4.60573845e-002 4.34513241e-002
      2.01420188e-002 1.23277418e-002 1.11022302e-016 0. 0. 0. 0. 0. 0.
      0. -1.06233954e-001 -2.00007334e-002 -2.24725232e-002
      -1.54794073e-002 -1.85204092e-002 -1.99899394e-002
      -1.69534553e-002 -8.23483616e-003 2.63646752e-001 1.23841944e-003
      6.03870535e-003 1.29921362e-003 9.93022113e-004 -1.41933002e-003
      5.38466498e-004 3.01130884e-003 -4.37303007e-001 -4.78404516e-004
      -5.53075166e-004 4.68616746e-003 -9.63459373e-004 -4.66119964e-004
      1.85763231e-003 -6.43913401e-004 -3.63028347e-001 -9.38435405e-005
      -2.44037219e-005 7.56775588e-003 3.94282051e-006 5.09420037e-003
      2.49235216e-003 7.67437927e-003 3.68090540e-001 -2.30591721e-003
      -1.58906616e-002 -9.34042260e-002 -1.46080256e-001
      -1.73964605e-001 -1.42322659e-001 -8.86486992e-002 1.11022302e-016
      0. 0. 0. 0. 0. 0. 0. 6.27745390e-002 2.62767868e-003
      2.12599061e-005 2.59260205e-003 7.08663574e-005 2.65602511e-003
      6.37797202e-005 5.24118403e-003 1.04651228e-002 4.25198123e-005
      2.62767868e-003 3.54331787e-005 7.85468891e-003 4.25198123e-005
      2.53626565e-003 2.66311178e-003 5.60413636e-002 5.24827046e-003
      2.16165427e-005 2.64220848e-003 -6.37336325e-006 4.28764433e-005
      1.48819337e-004 2.72689154e-003 8.15421864e-002 4.78562179e-005
      9.99261611e-005 2.80484441e-003 2.93240394e-003 5.40489005e-003
      2.97638675e-004 2.78429780e-003 7.28887413e-003 2.83465433e-005
      3.57898134e-005 5.70497177e-005 1.70079249e-004 2.91858730e-003
      4.04294871e-004 5.65220881e-003 2.35557952e-003 2.74142134e-003
      7.23193400e-004 1.80036202e-003 1.52469659e-003 1.32591417e-003
      1.10622845e-003 6.09938009e-003 4.68638428e-002 2.58551538e-003
      -2.09032714e-005 2.12599061e-005 1.41732717e-005 3.54331787e-005
      2.56425561e-003 2.12599061e-005 5.66988923e-002 5.66930867e-005
      2.64893845e-003 4.99630805e-005 2.83465433e-005 2.65963081e-005
      1.45299045e-005 -2.76332739e-005 1.37332872e-001 7.79990205e-006
      2.19731737e-005 1.70435873e-004 7.15796268e-005 2.71271821e-003
      4.32330853e-005 2.63512181e-003 1.46289259e-001 1.11992566e-004
      2.72514136e-003 9.28395311e-005 5.30532049e-003 8.32893929e-005
      2.64292187e-003 2.66382517e-003 1.48693938e-002 7.91989546e-003
      5.43287955e-003 3.40158498e-004 5.65010216e-003 5.57959219e-003
      2.86225090e-003 3.38408281e-004 1.15338457e-003 5.39654226e-004
      3.68430046e-003 6.82894699e-003 6.69465773e-003 8.79756827e-003
      3.48341116e-003 3.13687953e-003 2.28146330e-001 -5.80315338e-003
      -3.68318288e-003 -5.98891219e-003 -3.22970422e-003
      -1.57610513e-003 -4.42852173e-003 -6.40864763e-003 3.03551465e-001
      -3.99546669e-004 5.40661998e-003 -4.81766037e-004 -3.74482392e-004
      -5.18487301e-004 -2.98593356e-003 -4.07914136e-004
      -2.53968239e-001 2.98067136e-003 3.35100619e-003 -1.95704843e-003
      3.66241642e-004 2.06729688e-004 5.88872819e-004 7.60867668e-004
      -2.49618784e-001 1.71234633e-003 9.21971572e-004 1.18282959e-002
      1.59042724e-003 1.36615126e-003 9.46068298e-003 1.66063302e-003
      3.10957879e-001 -1.98816750e-002 -3.08343284e-002 -3.74716781e-002
      -6.36184067e-002 -8.99791643e-002 -1.00192718e-001
      -8.05576518e-002 -7.08666585e-006 0. 7.08663583e-006 0. 0. 0. 0.
      0. 3.54259238e-002 2.83465433e-005 2.59968871e-003 2.53626565e-003
      2.62059201e-003 2.53415876e-003 2.58305203e-003 -6.72999931e-006
      1.69814490e-002 -4.18065429e-005 3.56636292e-007 6.37797202e-005
      2.59933202e-003 4.25198123e-005 -5.59798136e-005 -3.68267720e-005
      3.20862830e-002 9.92128917e-005 1.20472803e-004 1.52431785e-005
      7.12229885e-005 5.22736739e-003 2.64220848e-003 2.64256517e-003
      6.50903657e-002 1.84252523e-004 2.70634494e-003 7.65593941e-005
      5.23979031e-003 2.64117145e-003 2.66418164e-003 1.84252523e-004
      1.06546693e-002 2.62205518e-004 2.95437709e-003 4.11024841e-004
      4.53544693e-004 2.98272376e-003 3.69218324e-004 3.48315050e-004
      1.22264391e-002 6.81030273e-004 1.46127352e-003 6.94233319e-003
      4.13004542e-003 3.54826078e-003 3.05430335e-003 2.78501119e-003
      3.03679779e-002 7.72784278e-003 -1.38166370e-005 2.49410234e-003
      7.70693924e-003 7.73492921e-003 1.45299045e-005 1.45299045e-005
      4.37224917e-002 -4.18065429e-005 -1.34599986e-005 1.41732717e-005
      2.59260205e-003 -4.88931801e-005 1.45299045e-005 2.58551538e-003
      9.47691500e-002 -1.34599986e-005 5.22063719e-003 7.79162254e-003
      5.22063719e-003 7.15796268e-005 7.84087181e-003 2.64220848e-003
      1.02366626e-001 7.89756514e-003 7.96134491e-003 2.81228777e-003
      2.90908676e-004 2.81228777e-003 1.05822943e-002 5.24261035e-003
      7.65595259e-003 2.59260205e-003 2.74850801e-003 2.73433467e-003
      1.77522525e-004 2.92567397e-003 3.83391598e-004 3.09575326e-003
      5.21711726e-003 2.35998770e-004 3.65595403e-003 4.83233575e-003
      4.44292696e-003 6.50367513e-003 5.97146386e-003 3.13154305e-003
      2.64156181e-002 -1.52605906e-001 2.77555756e-017 -2.39796668e-001</_>
    <_>
      1.11399166e-001 -1.64085557e-003 3.45745939e-003 4.70259925e-003
      2.94398796e-003 -1.49408579e-005 4.98055900e-003 4.59978404e-003
      1.10754170e-001 3.33970343e-003 1.34795473e-003 1.20031717e-003
      8.64364847e-004 8.71597882e-003 2.49027950e-003 8.33520386e-003
      3.15517597e-002 -1.31984404e-003 3.33970343e-003 4.96561825e-003
      7.16299703e-003 3.33970343e-003 4.18912759e-003 4.56990255e-003
      7.96955603e-004 -8.59999377e-003 3.42757790e-003 3.79341212e-003
      1.18537643e-003 5.03855152e-003 8.77397135e-003 4.14430490e-003
      4.05187532e-002 6.75234059e-003 4.27700160e-003 2.16749730e-003
      9.77103319e-003 1.09862909e-002 1.64504405e-002 1.55561930e-002 0.
      6.22569909e-003 2.11673751e-002 2.20317412e-002 5.63397370e-002
      1.60299689e-001 8.13885555e-002 1.92579571e-002 3.47538203e-001
      1.01031386e-003 1.89426541e-002 -2.34825886e-004 -3.63429263e-003
      -3.83877684e-003 -3.47294263e-003 3.27881388e-002 4.90730822e-001
      4.14676173e-003 -1.96240959e-003 8.01373087e-003 6.88073982e-004
      -2.75498698e-003 -7.88203720e-003 4.93696518e-003 3.24078709e-001
      -1.29354689e-002 -1.58531778e-002 -8.55571311e-003 2.60634697e-003
      -3.88291432e-003 1.56024080e-002 2.56389915e-003 1.69195235e-001
      -2.44788472e-002 5.20081026e-003 -3.22349486e-003 -2.60480586e-002
      -9.62510426e-003 2.15446996e-003 -7.45583698e-003 -6.22625649e-002
      -8.37862417e-002 -3.21954867e-004 2.04210728e-002 -1.38060970e-003
      4.65677446e-003 1.84371113e-003 1.10307345e-002 -2.54886031e-001
      7.62738436e-002 9.77398157e-002 2.46816687e-002 1.22707058e-002
      2.48567294e-002 5.41149415e-002 7.87732825e-002 -4.33394015e-002
      4.42472193e-003 -7.45766843e-003 3.39777838e-003 -1.76290851e-004
      5.18504297e-003 1.94815465e-003 -1.08571360e-002 -1.35793462e-001
      1.11191524e-002 -6.50420133e-003 -7.88203720e-003 -2.87159695e-003
      1.95141193e-002 2.76892539e-003 -4.26058425e-004 -6.50103763e-002
      1.88961963e-003 7.54385442e-003 -5.04032243e-003 -2.81306193e-003
      -3.13699036e-003 -1.26593411e-002 3.20823514e-003 -5.96695244e-001
      3.22140497e-003 1.54260360e-002 7.89118349e-004 1.13683753e-002
      2.95724045e-003 7.11825723e-003 2.31169220e-002 -5.81530035e-001
      9.69823524e-002 7.96100795e-002 1.08907275e-001 7.33641461e-002
      8.61113667e-002 1.85883846e-002 9.00672935e-003 5.55111512e-016 0.
      0. 0. 0. 0. 0. 0. -8.33693072e-002 -6.33028476e-003
      -8.73269048e-003 5.52222412e-003 -1.06675923e-002 -1.76560692e-002
      -4.73302323e-003 1.92636661e-002 -1.32770315e-001 -4.90816822e-003
      3.09116417e-003 4.48148558e-003 1.24459749e-003 -1.20867314e-002
      -3.23743094e-003 6.60715951e-003 -2.98796028e-001 -1.11948587e-002
      -1.71443690e-002 -7.05047231e-003 -1.29086478e-002
      -8.76257196e-003 -1.23532703e-002 -2.08947305e-002
      -5.03774762e-001 -1.28787663e-002 -8.59999377e-003 7.26712169e-003
      -1.05445052e-003 1.35513563e-002 4.16047405e-003 1.37707805e-002
      3.17368545e-002 -2.24291652e-001 -2.25191697e-001 -9.81379226e-002
      -5.94763346e-002 -1.64750740e-002 7.83520658e-003 -1.13740666e-002
      5.55111512e-016 0. 0. 0. 0. 0. 0. 0. 5.66779077e-003
      8.58450960e-003 1.71378895e-003 1.20154570e-003 -2.55004293e-003
      4.19035600e-003 -1.64085557e-003 8.46798252e-003 -1.33254737e-001
      -1.26008061e-003 4.46831575e-003 -2.41734623e-003 1.16911577e-002
      -2.03657127e-003 9.43393447e-003 5.69851464e-003 -2.20066924e-002
      9.81593691e-003 -2.05151225e-003 8.18879437e-003 4.23826627e-004
      2.18243804e-003 -3.95538658e-003 8.52474663e-003 1.56697072e-002
      -2.32947199e-003 -7.73562863e-003 -2.40294798e-003 2.91533465e-003
      6.22638455e-003 -9.81517136e-004 6.43251406e-004 4.99097593e-002
      1.33301411e-003 -6.44566631e-003 7.17793778e-003 4.96759778e-004
      2.35941494e-003 -4.13053157e-003 7.47152464e-003 3.19498666e-002
      5.39067341e-003 8.40813667e-003 4.70320275e-003 4.35053837e-003
      1.33444769e-002 1.20843966e-002 2.46691760e-002 4.80097294e-001
      3.60395107e-003 -5.81681309e-003 -2.81306193e-003 -9.09852423e-003
      8.34483246e-004 1.56737969e-003 -2.91587692e-003 3.97584110e-001
      -6.98901946e-003 -1.72927231e-003 -4.55673272e-003
      -2.03657127e-003 8.49423988e-004 -4.25597333e-004 -5.31828217e-003
      4.36530292e-001 2.81110115e-005 5.56523155e-004 7.89660844e-004
      -7.76551012e-003 3.03309038e-003 2.15255655e-003 -4.27931501e-003
      4.48520541e-001 -8.52706004e-003 2.41680373e-003 -5.55319060e-003
      -1.32010784e-004 -1.49153369e-002 -3.86865856e-003 5.50842937e-003
      9.87207368e-002 2.16074530e-002 1.88678689e-002 9.47813224e-003
      1.12816477e-002 2.68222969e-002 2.39649545e-002 4.37804544e-003
      3.52303497e-002 1.12791918e-002 2.35991199e-002 3.36051211e-002
      3.45418155e-002 4.01225761e-002 5.25141284e-002 5.12970947e-002
      1.29805937e-001 -9.96288937e-003 1.20154570e-003 -6.06489135e-003
      -1.08310394e-003 1.52378564e-003 2.57938216e-003 -7.76490662e-004
      2.16574192e-001 -3.35518690e-003 3.83777334e-003 4.67394618e-003
      -1.59657549e-003 1.18660484e-003 -3.17889615e-003 2.43174448e-003
      5.36016524e-002 4.42472193e-003 6.16839249e-003 -1.13682328e-002
      -1.20085955e-003 8.20770685e-004 -6.12342637e-003 -3.64808762e-003
      -6.22015819e-002 7.03014841e-004 1.17166399e-003 1.38587374e-002
      -5.59738837e-003 1.08378974e-003 1.15148677e-002 -5.97816287e-003
      -1.46411285e-001 -1.66374817e-001 -1.40829578e-001
      -8.59866291e-002 -3.76097560e-002 -2.30024010e-002
      -1.81768893e-003 2.59012487e-002 5.04031777e-003 -5.04032243e-003
      0. 0. 0. 0. 0. 0. 1.78234354e-001 -3.95715761e-004 2.44668545e-003
      3.22317611e-003 2.82746041e-003 1.94815465e-003 8.18879437e-003
      -5.83175384e-003 7.25016743e-002 -6.73675735e-004 7.09006377e-003
      -6.60824450e-003 2.82746041e-003 -2.19967216e-004 -1.65579643e-003
      -4.04326105e-003 -2.43791137e-002 1.15549506e-003 -6.60824450e-003
      -1.70248412e-002 3.39769595e-003 1.01369489e-002 3.54418764e-003
      2.05096952e-003 -3.38219032e-002 6.07866514e-003 4.97988251e-004
      5.84634254e-004 2.21926309e-002 3.50350951e-004 1.24807376e-002
      -1.76038232e-003 4.12926227e-002 -1.34346858e-002 1.56560889e-003
      -2.33124266e-003 -3.16572608e-003 1.04011139e-002 5.84634254e-004
      -1.14409567e-003 4.77501340e-002 -8.44095647e-003 4.88974759e-003
      2.08584499e-002 9.86976177e-003 2.69938782e-002 -8.93100910e-003
      5.85271157e-002 -1.61857069e-001 1.49579281e-002 -3.66248586e-003
      1.70007639e-003 1.42113194e-002 1.49429869e-002 -5.58130117e-003
      -1.11201545e-002 -1.43008769e-001 3.45745939e-003 -3.69236758e-003
      9.52239148e-004 -1.71433145e-003 -1.15726562e-003 -6.47554779e-003
      -7.32210698e-004 -7.01238140e-002 1.90447830e-003 6.02075458e-003
      1.49280466e-002 2.27039447e-003 -3.07841459e-004 1.41963782e-002
      2.41680373e-003 -4.94756959e-002 1.43123632e-002 1.45173892e-002
      1.17166399e-003 -8.80501978e-003 2.88545294e-003 1.95439998e-002
      4.87843016e-003 -4.00594436e-003 5.39067341e-003 2.79757869e-003
      -1.71433145e-003 3.77847091e-003 1.15672324e-003 -2.12384178e-003
      3.77969933e-003 1.03683555e-002 3.06174369e-003 -7.23763974e-003
      -3.63254338e-003 4.36433405e-003 -1.02742505e-003 1.56423803e-002
      5.11793420e-002 -4.56443638e-001 3.54844213e-001 -1.52080798e+000
      -5.39413467e-002</_>
    <_>
      7.60797918e-001 9.41743981e-003 1.91543326e-002 1.51013294e-002
      1.18119288e-002 1.87969971e-002 2.04033349e-002 1.38841709e-002
      6.17783725e-001 1.81757268e-002 1.41863525e-002 3.37099545e-002
      8.90966784e-003 3.51897478e-002 9.91479773e-003 1.67970546e-002
      1.90880969e-001 2.28979974e-003 1.76641252e-002 7.89548922e-003
      1.87248103e-002 2.33274838e-003 2.42090467e-002 1.49846831e-002
      3.77121940e-002 1.12125091e-002 2.78514866e-002 3.04417517e-002
      1.20919868e-002 2.71688439e-002 4.04981002e-002 3.47084776e-002
      -1.84784397e-001 5.45565002e-002 4.42782082e-002 -2.14481279e-002
      2.24019047e-002 7.51813427e-002 5.49195409e-002 7.72972852e-002
      -8.68990570e-002 -3.65834758e-002 6.34534433e-002 1.75115541e-001
      4.08550799e-001 5.06562710e-001 3.38012606e-001 1.60531059e-001
      1.14532217e-001 8.76207463e-003 2.18594931e-002 -3.37597076e-003
      7.01184059e-003 -3.32804490e-003 7.05731055e-003 3.71660776e-002
      2.68244565e-001 7.40028173e-003 -3.83017920e-002 1.61274504e-002
      -1.05500082e-003 1.36279324e-002 7.18952436e-003 1.53349210e-002
      3.35473806e-001 4.59137745e-003 -1.11688068e-002 -1.28500573e-002
      6.45783357e-003 1.34471413e-002 2.55232956e-002 1.93573686e-003
      3.00689548e-001 1.45085435e-002 2.93612219e-002 1.84497889e-002
      -1.40165249e-002 1.02439970e-002 1.77316666e-002 1.90532785e-002
      2.70370483e-001 3.34462933e-002 2.05551798e-004 2.86003202e-002
      1.56634906e-003 -4.26362595e-003 1.28082931e-002 4.54965569e-002
      4.50498939e-001 7.64658162e-003 4.23191022e-003 -5.86851239e-002
      -1.86061740e-001 -4.72897924e-002 3.07416115e-002 -1.65680028e-003
      -1.66296080e-001 3.08820861e-003 6.81630662e-003 2.13378165e-002
      -1.80393388e-003 1.00362906e-002 6.71896618e-003 8.79811496e-003
      -2.32013077e-001 1.99566875e-002 -5.94316167e-004 8.84572044e-003
      -1.82870813e-002 2.58496907e-002 2.12774947e-002 1.30609969e-005
      -1.09640956e-001 2.63602491e-002 2.10647676e-002 -8.61143414e-003
      -3.94185015e-004 6.22611120e-003 8.76635965e-003 9.65895411e-003
      -6.27052665e-001 -2.78972019e-003 1.81752108e-002 -4.27294429e-003
      -1.61294416e-002 -9.93379299e-003 -3.66618223e-002 1.77384112e-002
      -6.44237936e-001 1.14838637e-001 4.24754247e-002 1.73137933e-001
      7.12437257e-002 9.81905758e-002 2.43723784e-002 5.61915245e-003
      -8.88178420e-016 0. 0. 0. 0. 0. 0. 0. 2.19857302e-002
      1.15201063e-002 2.03053956e-003 2.15169918e-002 -2.21618768e-002
      -1.86275337e-002 1.37048895e-002 2.38969140e-002 2.30889052e-001
      2.63036508e-002 1.18842693e-002 1.57998670e-002 1.95898246e-002
      2.09904984e-002 -2.15825532e-002 1.38819655e-002 1.15074918e-001
      -1.71260815e-002 4.32133451e-002 3.83760594e-002 -5.21942601e-003
      1.30314112e-003 1.28014116e-002 -1.82101838e-002 9.81277153e-002
      -1.79908529e-003 -2.50720768e-004 6.59122970e-003 -1.25499982e-002
      1.09543959e-002 1.37668299e-002 2.43845806e-002 -1.89167485e-001
      1.78592116e-001 1.39992297e-001 -2.99147163e-002 9.24929678e-002
      6.47055507e-002 -8.77293944e-002 2.61627287e-002 1.16154887e-002
      -2.39897240e-003 -9.21648834e-003 0. 0. 0. 0. 0. 7.74330497e-002
      9.01313685e-003 9.36092995e-003 1.11531401e-002 -6.80121453e-003
      3.70559306e-003 -1.05835330e-002 1.32911112e-002 -1.53878033e-001
      5.55318454e-003 1.58578809e-002 8.20060726e-003 1.93644054e-002
      7.75504042e-004 1.85140409e-002 7.76669756e-003 -9.07510594e-002
      7.48351309e-003 8.68207589e-003 1.17989881e-002 3.42641473e-002
      4.41731885e-002 3.22734341e-002 2.49674022e-002 -1.35078087e-001
      1.86670404e-002 1.29902577e-002 8.69495142e-003 2.44923867e-002
      2.70876996e-002 3.99287529e-002 5.47360666e-002 -5.64848304e-001
      -2.72339326e-003 5.60121657e-003 1.53835518e-002 1.50934495e-002
      2.66400049e-003 2.41945274e-002 3.44857052e-002 -3.69041562e-001
      -2.20876001e-002 -3.75624225e-002 4.96433713e-002 1.60420105e-001
      1.90568879e-001 2.90517062e-001 2.93710828e-001 -4.49089736e-001
      -5.03463857e-003 -1.85632892e-002 5.27602481e-003 -2.30219830e-002
      -1.14326738e-003 8.55200738e-003 -2.39947848e-002 -6.22700900e-002
      -7.08975736e-003 4.01274581e-003 -2.39882153e-002 -4.04863507e-002
      -2.82295514e-002 -4.01398120e-003 -4.25397679e-002 8.89723480e-001
      1.01047801e-002 -5.46229258e-003 2.63683647e-002 1.51356822e-002
      1.67622846e-002 -1.75399650e-002 6.29166141e-004 1.04945099e+000
      -1.17718487e-003 9.90674482e-004 -1.69333685e-002 -3.55746457e-003
      -1.63165655e-003 -2.97184754e-003 1.79852005e-002 2.97564596e-001
      7.78799504e-003 2.51720492e-002 2.51444653e-002 1.06570665e-002
      5.35225831e-002 2.49392278e-002 3.46233584e-002 1.76862225e-001
      4.25267033e-002 2.47251876e-002 1.13283440e-001 1.25803813e-001
      1.10791072e-001 2.20104963e-001 2.31243894e-001 -1.00998916e-001
      -4.35136631e-003 6.70241285e-003 -8.43528565e-003 4.79055196e-003
      9.49115679e-003 -3.49052693e-003 -2.61971407e-004 -3.88055027e-001
      4.12360812e-003 2.45637223e-002 7.52840145e-003 4.04146919e-003
      -4.61364444e-003 5.40823815e-003 2.21637636e-003 -5.66474423e-002
      4.82925447e-003 1.58403516e-002 -1.04927672e-002 1.59037625e-003
      -2.10582614e-002 -6.51973998e-003 -3.03608074e-004 1.84286878e-001
      8.59499630e-003 1.12749403e-002 1.86725426e-002 1.14932712e-002
      -4.21960867e-004 2.54015848e-002 -2.10180245e-002 6.58894479e-002
      -1.65949631e-002 -1.75247863e-002 4.04512510e-002 -1.58189535e-002
      -4.01822254e-002 3.17946309e-003 2.33082976e-002 -8.88178420e-016
      0. 0. 0. 0. 0. 0. 0. 8.91093254e-001 -2.04174463e-002
      -2.15694252e-002 -6.26038760e-003 -2.44519543e-002
      -6.19781157e-003 -1.67545192e-002 9.57977213e-003 7.78577149e-001
      1.48648284e-002 -1.20926173e-002 2.25157454e-003 -1.14844106e-002
      -6.03865972e-003 -1.60323165e-003 4.43252316e-003 3.81447166e-001
      -2.51494180e-002 -2.99376398e-002 -1.83296427e-002
      -2.69139595e-002 -9.28742252e-003 4.89912601e-003 -3.38169634e-002
      1.38230309e-001 4.44272310e-002 -6.70785317e-003 -1.87343322e-002
      4.30364423e-002 -1.37335202e-002 7.09177088e-003 -1.63259674e-002
      -1.69625103e-001 2.87210885e-002 2.16917340e-002 2.18943749e-002
      1.28340516e-002 2.84090880e-002 1.80868413e-002 -7.83183612e-003
      -1.03696056e-001 1.96721442e-002 6.22074232e-002 8.13889429e-002
      1.71834350e-001 1.15381204e-001 2.23334819e-001 2.57630229e-001
      5.28644681e-001 1.91972647e-002 -8.12899321e-003 -9.08967480e-003
      2.21711844e-002 1.94085557e-002 2.10758694e-003 -5.61531913e-003
      2.16170505e-001 9.08622611e-003 -1.40469475e-002 -3.56516335e-004
      2.30546156e-003 2.29357649e-003 -5.87729039e-003 7.09054573e-003
      -3.32086943e-002 1.08624268e-002 1.77570302e-002 3.30373421e-002
      5.16526634e-003 -6.68027718e-003 1.95057504e-002 1.80618335e-002
      -1.52745366e-001 2.72924956e-002 4.79014451e-003 2.61994370e-004
      5.22586796e-003 1.31742666e-002 1.54776098e-002 7.73113733e-003
      -2.10175201e-001 -6.19264459e-003 6.28599781e-004 -3.71852964e-002
      -2.42706034e-002 -7.40489736e-003 -1.79206720e-003
      -1.71520691e-002 -2.21234828e-001 -5.69224246e-002
      -3.66772115e-002 2.48846691e-002 2.74529699e-002 1.72191814e-001
      2.23986670e-001 2.16152191e-001 4.14516717e-001 -1.23098052e+000
      -2.25038737e-001 8.01089108e-002</_>
    <_>
      -1.35618169e-002 -6.01635547e-004 -2.13323015e-004
      -1.91667114e-005 -4.07479296e-004 -6.27191213e-004
      -6.14413409e-004 -6.20802282e-004 -6.08024513e-003
      -4.20257129e-004 -6.08024478e-004 0. -2.06934114e-004
      -2.00545197e-004 -2.19711917e-004 -1.91667114e-005 0. 0. 0. 0. 0.
      0. 0. 0. -4.39423835e-004 -1.91667114e-005 -4.33034933e-004
      -6.20802282e-004 -6.33580086e-004 -1.21604896e-003
      -2.23794160e-003 -8.96822137e-004 8.19185982e-004 -3.19445207e-005
      -1.12292287e-003 -7.90918304e-004 -3.00330436e-003
      -3.78112169e-003 -3.18587525e-003 -3.91897000e-003 0.
      -6.38890378e-006 -9.58335586e-005 -1.52271637e-003
      -8.25635437e-003 -1.41101750e-002 -1.18618403e-002
      -1.22686690e-002 -1.66822061e-001 -4.83864034e-003
      -1.64746167e-003 -6.87603652e-003 -9.66993533e-003
      -8.85311235e-003 -7.33233290e-003 -8.56550131e-003
      -1.42340153e-001 -1.01997601e-002 -9.68323369e-003
      -1.87980663e-002 -1.66619290e-002 -1.35095129e-002
      -7.92132504e-003 -3.94723890e-003 -1.55656591e-001
      -2.82976869e-002 -2.40344591e-002 -8.99671298e-003
      -6.99149724e-003 -3.57312663e-003 -5.91792027e-003
      -4.41980548e-003 -1.97244599e-001 -3.58912013e-002
      -1.15223918e-002 -1.01808114e-002 -8.57808534e-003
      -4.98223258e-003 -6.99860416e-003 -3.66992620e-003
      -2.74042845e-001 -2.53677871e-002 -1.37502337e-002
      -6.98258821e-003 -9.16857971e-004 3.13408789e-004 9.10583045e-003
      5.26597025e-003 -2.73877084e-001 1.62916053e-002 1.80897750e-002
      2.64287367e-002 2.82815062e-002 2.25531626e-002 1.82117559e-002
      1.81046445e-002 -8.57269317e-002 1.15273800e-003 1.59322587e-003
      3.24692158e-003 1.34603900e-003 3.18589993e-003 2.61155004e-003
      1.66870048e-003 -1.86385959e-001 1.60282507e-005 5.05236967e-004
      -2.62494921e-003 2.61504727e-004 6.69117901e-004 -1.55392787e-004
      1.58878230e-003 -3.25788325e-003 7.61794101e-004 0. 0.
      2.49609089e-004 0. 0. 0. -5.31534404e-002 2.30520777e-003
      4.56673885e-003 2.48519913e-003 3.47378012e-003 2.93053500e-003
      2.20468407e-003 5.10932133e-003 -5.34752980e-002 1.14476206e-002
      1.37446905e-002 8.43434688e-003 7.51310121e-003 4.43964824e-003
      2.41718488e-003 1.65539060e-003 2.46330734e-016 0. 0. 0. 0. 0. 0.
      0. -2.26681337e-001 -1.52176619e-003 -2.93234945e-003
      -4.92654461e-003 -2.07503908e-003 -3.25709605e-003
      -5.97160263e-003 -7.04480195e-003 -2.61006683e-001
      -1.06993678e-003 -2.99581350e-003 -1.90653169e-004
      -7.51247862e-004 -3.49664874e-003 -3.44486558e-003
      -2.01367657e-003 -1.39066055e-001 1.59650331e-003 2.17037625e-003
      1.82298233e-003 -6.08024478e-004 3.78255965e-003 2.38388823e-003
      2.47906148e-003 -4.51715365e-002 1.19850447e-003 -1.64259138e-004
      2.22189265e-004 1.00434816e-003 1.66162569e-003 1.17813970e-003
      3.13548394e-003 -1.17036663e-001 -8.74814093e-002 -1.46302715e-001
      -1.31941168e-002 1.72380339e-002 2.95015275e-002 3.04895323e-002
      3.38813402e-002 2.46330734e-016 0. 0. 0. 0. 0. 0. 0.
      -6.70880079e-002 -8.02180788e-004 -1.01550377e-003
      -6.27191213e-004 -6.20802282e-004 -6.01635547e-004
      -6.01635547e-004 -1.00272603e-003 -6.20640852e-002
      -5.52571728e-004 -4.20257129e-004 -3.77582124e-004
      -6.38890378e-006 -8.08569719e-004 -4.07479296e-004
      -1.21604896e-003 -5.79356477e-002 -6.14413409e-004
      -4.20257129e-004 -6.27191213e-004 -9.72828770e-004
      -2.21238611e-003 -1.22243783e-003 -6.08024478e-004
      -5.68028539e-002 -1.23521569e-003 -7.35808455e-004
      -8.14958592e-004 -8.02180788e-004 -2.26955934e-004 2.98862025e-004
      -5.65349532e-004 -1.15495306e-002 -1.09097839e-003
      -1.61713944e-003 -1.42298301e-003 -1.31707918e-003
      -1.85601797e-003 -8.60536005e-004 -1.09736726e-003
      -3.23102088e-003 -1.67983619e-003 -1.83685136e-003
      -2.90866289e-003 -2.90227402e-003 -2.47767521e-003
      -3.51300626e-003 -3.70586547e-003 -1.06710546e-001
      -4.13868227e-004 -8.53292062e-004 -1.83046237e-003
      -8.14958592e-004 -1.49206887e-003 -2.04378529e-003
      -1.04744826e-003 -9.17088315e-002 -8.14958592e-004
      -6.14413409e-004 -8.96822137e-004 -4.76565008e-004
      -6.39969017e-004 -1.28513470e-003 -4.20257129e-004
      -6.15710057e-002 -9.17186902e-004 -1.31707918e-003
      -1.85048417e-003 5.91282442e-005 -7.02665886e-004 -9.91995446e-004
      -7.91450322e-004 -5.40786982e-002 -2.72848271e-003 3.64190113e-004
      -5.35263272e-004 -4.03992890e-004 -9.78685683e-004
      -2.83318828e-003 -2.45765364e-003 -5.29853720e-003
      -8.66069866e-004 -1.05383724e-003 -8.40514258e-004
      -1.31707918e-003 -8.59680935e-004 -1.53159443e-003
      -6.52746821e-004 -5.89048862e-003 5.89391566e-005 5.83958581e-007
      -6.11730095e-004 -1.63896172e-003 -3.34493746e-003
      -2.93082255e-003 -2.84942403e-003 -3.61358464e-001
      -1.68622518e-003 1.01803249e-004 -1.13051001e-003 -7.62219250e-004
      -3.07206693e-003 -9.78868266e-005 -1.37163093e-003
      -2.64569551e-001 -1.86965091e-003 -1.80056517e-003
      -6.99522323e-004 -2.37091631e-003 -1.65547291e-003
      -7.91241357e-004 -3.23699205e-003 -3.63059223e-001
      -1.71254866e-003 -1.68493995e-003 -2.24185339e-003
      -2.23546452e-003 -1.89954811e-003 -1.55801105e-003
      -4.73421562e-004 -3.59356195e-001 1.93093356e-003 3.81068530e-004
      2.31200201e-003 2.81087728e-003 6.43644482e-004 1.81312684e-003
      5.25837822e-004 -2.23326147e-001 -7.62967169e-002 -8.58794674e-002
      -2.04827115e-002 -9.55986883e-003 -1.00567071e-002
      -7.40918703e-003 -3.63955763e-003 2.46330734e-016 0. 0. 0. 0. 0.
      0. 0. -9.44102407e-002 -1.25438243e-003 -1.48048322e-003
      -1.26077130e-003 -1.27354905e-003 -1.05383724e-003
      -1.46131648e-003 -1.43576087e-003 -7.66589493e-002
      -1.63630617e-003 -1.95065932e-003 -1.52401335e-003
      -5.96761995e-004 -1.48687209e-003 -8.59680935e-004
      -1.70658412e-003 -7.71789700e-002 -1.25438243e-003
      -1.48687209e-003 -1.05383724e-003 -2.30702735e-003
      -2.74645118e-003 -2.06295215e-003 -1.66186178e-003
      -8.23647007e-002 -1.24160456e-003 -2.89707724e-003
      -8.98014347e-004 -1.46770536e-003 -8.46903131e-004
      -2.39527994e-003 -8.59680935e-004 -2.33157631e-002
      -1.46131648e-003 -6.33580086e-004 -1.04744826e-003
      -1.42937189e-003 -1.84324023e-003 -1.03467051e-003
      -1.00911490e-003 -1.45517653e-002 -3.29816784e-003
      -1.02828164e-003 -3.34289018e-003 -4.07479284e-003
      -3.40677937e-003 -2.97374418e-003 -3.28290090e-003
      -9.33127552e-002 -1.04105938e-003 -6.27191213e-004
      -8.21347523e-004 -1.03467051e-003 -1.22882682e-003
      -1.41659414e-003 -1.02189265e-003 -7.66061023e-002
      -1.23521569e-003 -1.42937189e-003 -1.45492749e-003
      -8.34125327e-004 -4.39423835e-004 -8.34125327e-004
      -4.20257129e-004 -7.72527829e-002 -1.02189265e-003
      -1.02828164e-003 -1.82407349e-003 -1.02189265e-003
      -1.01550377e-003 -1.23521569e-003 -6.20802282e-004
      -7.63939619e-002 2.79695319e-004 -2.41932017e-003 -1.02828164e-003
      -1.22243783e-003 -8.34125327e-004 -1.62991718e-003
      -2.05017440e-003 -1.61497369e-002 -2.45126453e-003
      -1.62352831e-003 -8.21347523e-004 -1.44214975e-003
      -2.01184093e-003 -8.40514258e-004 -2.41932017e-003
      -8.84705503e-003 -3.44760180e-003 -3.47954617e-003
      -2.46404251e-003 -4.30089375e-003 -2.54070922e-003
      -4.14897036e-003 -3.51539068e-003 -8.20299797e-003 1.55977309e-001
      -1.77847669e-001 -1.70847755e-002</_>
    <_>
      -2.70572528e-002 0. -1.27334679e-005 0. 0. -1.34649593e-003 0.
      -1.34649593e-003 -2.83655487e-002 -2.69299187e-003 0. 0. 0.
      -1.34649593e-003 0. -1.34649593e-003 -1.62470862e-002 0.
      -1.35922944e-003 0. -1.34649593e-003 0. -1.35922944e-003
      -2.69299187e-003 -2.42369268e-002 0. -1.35922944e-003
      -1.34649593e-003 -1.34649593e-003 -1.27334679e-005
      -2.70572538e-003 0. -2.28904299e-002 -1.35922944e-003
      -1.34649593e-003 -1.35922944e-003 0. 0. -1.27334679e-005
      -2.70572538e-003 -1.07719675e-002 -1.34649593e-003
      -1.34649593e-003 -1.34649593e-003 -4.05222131e-003
      -8.09170865e-003 -2.56460048e-002 -3.10203414e-002
      -1.93728030e-001 -3.58056910e-002 -2.81336494e-002
      -2.66178176e-002 -1.60601623e-002 -1.57656576e-002
      -1.52517101e-002 -1.27391545e-002 -1.86209142e-001
      -4.38004099e-002 -3.23164538e-002 -2.40071900e-002
      -2.21703164e-002 -1.82419084e-002 -1.33051202e-002
      -9.93264839e-003 -2.01890871e-001 -5.71478009e-002
      -4.01564799e-002 -2.88895257e-002 -1.23484964e-002
      -1.05351936e-002 -1.36302300e-002 -1.16765955e-002
      -2.68034637e-001 -7.47473389e-002 -3.21530998e-002
      -3.09276879e-002 -1.93491969e-002 -1.98130030e-002
      -1.58653557e-002 -1.01282680e-002 -4.12723303e-001
      -6.91256821e-002 -4.03448045e-002 -8.48890655e-003 8.54168460e-003
      -2.09588534e-003 1.69796143e-002 6.84054848e-003 -4.18823332e-001
      3.06783095e-002 1.08377263e-002 4.11690548e-002 5.00114784e-002
      4.22738902e-002 2.53302995e-002 3.28067280e-002 -1.26011074e-001
      1.36924989e-003 -4.03715421e-005 8.48127622e-003 1.30612438e-003
      4.15868359e-003 2.70192488e-003 1.38144149e-003 -3.10701817e-001
      3.91891506e-003 2.74743279e-003 1.07908936e-003 3.89453187e-003
      1.04088534e-003 2.54912325e-003 2.57404475e-003 2.42019841e-003
      1.38252520e-003 -3.76585449e-005 -2.49250770e-005 -2.49250770e-005
      -3.82004000e-005 -3.82004000e-005 0. -7.65246153e-002
      5.26486523e-003 1.11433752e-002 3.99260269e-003 3.98204057e-003
      8.24150816e-003 8.36613402e-003 9.67117026e-003 -5.19642532e-002
      1.51487123e-002 1.40016126e-002 8.27482808e-003 1.39959343e-002
      4.01481474e-003 -1.47763104e-003 -1.91005718e-004 2.77555756e-016
      0. 0. 0. 0. 0. 0. 0. -2.68879175e-001 -3.67303751e-002
      -3.58265601e-002 -2.67075077e-002 -2.12521609e-002
      -1.49341952e-002 -1.80205703e-002 -1.15094343e-002
      -1.22005872e-001 -2.69573939e-004 -1.51094724e-003 1.26466912e-003
      1.31614483e-003 2.56077317e-003 -1.73852418e-003 1.23811851e-003
      -2.87292540e-001 1.00214675e-003 5.31200645e-003 3.96930706e-003
      -3.29444563e-004 6.65795663e-003 6.80859061e-003 6.64468110e-003
      -9.41139907e-002 2.56239856e-003 -2.76885141e-004 2.44996487e-003
      2.63825757e-003 4.12048306e-003 3.98149900e-003 8.28973297e-003
      3.80533785e-002 -2.63371312e-005 1.72028169e-002 1.01890955e-002
      -5.94231002e-002 -1.98002279e-001 -2.14785770e-001
      -1.70958005e-002 2.77555756e-016 0. 0. 0. 0. 0. 0. 0.
      -3.24044935e-002 -1.27334679e-005 0. -1.35922944e-003 0. 0.
      -1.27334679e-005 -2.54669358e-005 -2.84026656e-002 0.
      -2.54669358e-005 -1.34649593e-003 0. -2.54669358e-005
      -1.37196283e-003 0. -3.14372927e-002 -2.69299187e-003
      -2.74338387e-003 -1.35922944e-003 -1.35922944e-003
      -1.35922944e-003 -1.37142104e-003 -2.54669358e-005
      -2.84682531e-002 -2.70572538e-003 1.39471679e-003 0.
      -2.69299187e-003 -1.35922944e-003 -3.95360822e-003
      -2.73065036e-003 -1.50512233e-002 0. -1.27334679e-005
      -2.54669358e-005 0. -2.69299187e-003 -4.03948780e-003
      -3.76585449e-005 -9.66578163e-003 -5.39871724e-003 0.
      -6.73247967e-003 -1.27334679e-005 -1.38415443e-003
      -2.71791685e-003 -2.71791685e-003 -5.81271909e-002
      -1.27334679e-005 0. -2.54669358e-005 -1.27334679e-005
      -1.27334679e-005 0. -1.34649593e-003 -6.12189770e-002 0.
      -1.34649593e-003 -2.54669358e-005 0. -1.27334679e-005 0. 0.
      -5.41248694e-002 -1.32374198e-003 -1.37142104e-003
      -2.49250770e-005 1.05623221e-005 0. -1.34649593e-003
      -1.35922944e-003 -5.99779449e-002 1.40745030e-003 8.58794083e-005
      1.40690838e-003 -3.82004000e-005 -1.39742985e-003 -1.34649593e-003
      -1.38415443e-003 -1.77591201e-002 -1.34649593e-003
      -1.37196283e-003 -6.25836183e-005 -1.35922944e-003
      -4.06495482e-003 -1.37196283e-003 -2.70572538e-003
      -5.56262676e-003 -1.35922944e-003 -5.48730977e-003
      -4.06441279e-003 -4.06441279e-003 -2.74338387e-003
      -1.21821305e-002 -9.48805548e-003 -2.97641218e-001
      -3.01915873e-002 -2.42821798e-002 -2.13057995e-002
      -1.71920788e-002 -1.82771273e-002 -1.25600761e-002
      -1.19729824e-002 2.46145483e-002 -1.66266516e-003 -2.02760077e-003
      -7.58051290e-004 -2.37980299e-003 -2.91542127e-003
      -3.86799267e-003 -9.85086313e-004 -5.47105670e-001 4.05681599e-003
      2.49873125e-003 2.62444047e-003 2.55020708e-003 -2.78510706e-004
      1.06635597e-003 9.67197528e-004 -5.13537169e-001 3.79320607e-003
      -4.30770451e-004 3.84251447e-003 5.21122245e-003 1.03872165e-003
      2.46107276e-003 -3.03435780e-004 -2.03507580e-002 -3.49141913e-003
      -8.23665969e-003 -7.76472827e-003 -4.59718965e-002
      -1.78794652e-001 -1.97360858e-001 -9.64904130e-002 2.77555756e-016
      0. 0. 0. 0. 0. 0. 0. -6.60709515e-002 0. -2.49250770e-005
      -4.98501540e-005 -1.27334679e-005 -1.27334679e-005
      -3.76585449e-005 -2.49250770e-005 -6.48829490e-002 0. 0.
      -3.76585449e-005 0. -1.27334679e-005 0. -2.49250770e-005
      -5.99166453e-002 -1.27334679e-005 -1.38469634e-003
      -1.34649593e-003 -4.98501540e-005 0. -1.35922944e-003
      -1.27334679e-005 -8.11325088e-002 -1.37142104e-003
      -1.35922944e-003 -6.31254734e-005 -1.34649593e-003
      -2.54669358e-005 0. -1.27334679e-005 -1.08976765e-002
      -1.34649593e-003 -1.37142104e-003 0. -1.34649593e-003
      -1.34649593e-003 -1.37142104e-003 0. -1.76290721e-002
      -1.34649593e-003 -2.75557558e-003 -3.82004000e-005
      -2.71791685e-003 -1.07847005e-002 -9.46313050e-003
      -1.61961522e-002 -1.09729934e-002 0. 0. 0. 0. 0. -1.34649593e-003
      0. -9.50078852e-003 -1.34649593e-003 -1.34649593e-003 0. 0. 0. 0.
      0. -4.19318341e-002 0. -1.27334679e-005 -1.34649593e-003
      -1.34649593e-003 -1.27334679e-005 -5.38598374e-003
      -2.70572538e-003 -5.82154952e-002 1.43237540e-003 0.
      -3.82004000e-005 -2.69299187e-003 -1.34649593e-003
      -2.69299187e-003 -1.37142104e-003 -4.05073091e-002
      -1.34649593e-003 -1.27334679e-005 0. -1.35922944e-003
      -1.34649593e-003 -1.34649593e-003 0. -3.50964032e-002
      -4.03948780e-003 -2.69299187e-003 -1.34649593e-003
      -4.10207128e-003 -1.34649593e-003 0. -2.70572538e-003
      2.84646563e-002 -1.55309606e-002 -4.06589776e-001 -2.27524579e-001</_>
    <_>
      -2.68137082e-002 0. -5.44437906e-004 -9.37611680e-004
      -1.01324380e-003 -4.68805840e-004 -1.51264190e-004
      -7.56320951e-005 -1.55918300e-002 -7.56320951e-005
      -7.56320951e-005 -4.68805840e-004 -1.08887581e-003
      -7.56320951e-005 -9.37611680e-004 -4.68805840e-004
      -7.96969980e-003 -4.68805840e-004 -4.68805840e-004
      -4.68805840e-004 0. -7.56320951e-005 -7.56320951e-005
      -9.37611680e-004 -1.09187849e-002 -7.56320951e-005
      -1.48204959e-003 -1.16450794e-003 -1.08887581e-003
      -1.51264190e-004 -7.56320951e-005 -8.65397567e-004
      -5.84931765e-003 -6.20070030e-004 -1.01666176e-003 1.44428268e-004
      2.95692444e-004 -1.72737718e-003 -1.80300919e-003 -3.41789168e-003
      -9.37611680e-004 -4.68805840e-004 -1.48204959e-003
      -1.51264190e-004 -4.26978664e-003 -7.60179292e-003
      -5.16028190e-003 -6.84071239e-003 -1.80230454e-001
      -6.20070030e-004 -1.94672568e-004 -1.87522336e-003
      -9.44447587e-004 -4.40000033e-004 -5.33773389e-004
      -7.35692447e-004 -1.67433694e-001 -1.08887581e-003
      -8.86956637e-004 8.28787306e-005 -3.26662743e-003 -1.09229388e-003
      -5.69705095e-004 -2.42307922e-003 -1.71302721e-001
      -4.29830234e-003 -1.97583274e-003 -2.42307922e-003
      -1.41325337e-003 -2.57434347e-003 -2.31864140e-003
      -1.31577218e-003 -2.02199534e-001 -6.70131901e-003
      -1.83701946e-003 -4.10199817e-003 -2.63931090e-003
      -2.35770107e-003 4.90775681e-004 -1.70198921e-003 -2.63544261e-001
      -1.59875804e-003 2.09175632e-003 -1.07809075e-003 8.51036166e-004
      -4.04117076e-004 3.90160130e-003 2.95622298e-003 -2.19537973e-001
      1.10513614e-002 1.41836451e-002 1.89732425e-002 1.55444574e-002
      9.88696329e-003 2.00227704e-002 1.23459743e-002 -7.44349062e-002
      3.28112068e-003 1.44217978e-003 2.48866098e-004 3.70651809e-003
      2.78704776e-003 3.42184096e-003 1.21870148e-003 -1.66421220e-001
      7.75162829e-004 2.13224426e-004 -3.71203845e-004 -9.39427046e-005
      1.59031607e-003 -1.28013047e-003 2.36165035e-003 -6.80352375e-003
      2.77551240e-004 0. -4.68805840e-004 2.77551240e-004 0. 0. 0.
      -4.57311794e-002 5.62179659e-004 8.61579960e-004 3.23783280e-003
      8.48795101e-003 2.77992175e-003 2.67548393e-003 2.41961260e-003
      -6.51727021e-002 1.46609079e-002 1.56307425e-002 1.05754677e-002
      6.41439529e-003 5.37234591e-003 3.42896697e-003 2.68260995e-003 0.
      0. 0. 0. 0. 0. 0. 0. -2.66098946e-001 -1.73113382e-004
      1.40589743e-003 3.10800737e-003 3.45777255e-003 3.25585366e-003
      1.92165026e-003 4.89641400e-003 -3.05635422e-001 9.52104805e-004
      -2.80558830e-003 -1.76761605e-004 1.30870589e-003 -5.37191343e-004
      -1.11820176e-003 -4.13637375e-003 -6.19775727e-002 1.68344844e-003
      7.57021597e-004 5.73243713e-004 0. 1.73752161e-003
      -1.91254599e-004 -3.96591699e-004 -1.67903583e-002 4.25397448e-004
      6.70724956e-004 -9.37611680e-004 8.94203316e-004 -7.89765443e-004
      2.77551240e-004 -2.48745491e-004 -5.70790842e-002 -4.67273518e-002
      -1.08081669e-001 -2.89940760e-002 1.40631907e-002 1.46019896e-002
      2.99266391e-002 2.17316542e-002 0. 0. 0. 0. 0. 0. 0. 0.
      -6.94622770e-002 -9.37611680e-004 -1.40641746e-003 0.
      -1.48204959e-003 -4.68805840e-004 -1.51264190e-004
      -1.08887581e-003 -7.06868321e-002 7.46357080e-004 -1.40641746e-003
      6.70724956e-004 -1.40641746e-003 0. -1.40641746e-003
      -2.34402926e-003 -7.16043711e-002 -4.68805840e-004
      -6.95702096e-004 -1.01324380e-003 2.77551240e-004 -1.01324380e-003
      -1.48204959e-003 -9.37611680e-004 -7.26096705e-002
      -9.37611680e-004 -6.20070030e-004 -9.37611680e-004
      -9.37611680e-004 -1.94672568e-004 -1.08887581e-003
      -2.76218005e-003 -3.36099304e-002 -7.89765443e-004
      -1.40641746e-003 -4.68805840e-004 1.47846222e-004 -1.87522336e-003
      -4.34083777e-005 -7.89765443e-004 -2.23333221e-002
      -3.20959603e-004 -1.40641746e-003 -2.19618296e-003
      -1.01666176e-003 -4.97200934e-004 -1.33762124e-003
      -1.09229388e-003 -1.32876605e-001 -4.68805840e-004
      -1.40641746e-003 -1.40641746e-003 -3.65980132e-003
      -2.81625288e-003 -1.16450794e-003 -1.70894584e-003
      -1.05492584e-001 -1.40641746e-003 -1.40641746e-003
      -2.19618296e-003 -1.72737718e-003 -9.37611680e-004
      -1.72737718e-003 -2.81283492e-003 -6.86264113e-002
      -1.78457797e-003 -1.87864131e-003 -1.82798645e-003
      -2.70304648e-004 -1.87864131e-003 -8.11324571e-004
      -2.36900616e-003 -6.99076280e-002 -1.95085548e-003 4.36061935e-004
      -1.70894584e-003 -1.32353872e-003 -3.06158047e-003
      -3.90171097e-003 -3.11536319e-003 2.03986075e-002 -2.81283492e-003
      -2.34402926e-003 -1.87522336e-003 -7.89765443e-004
      -1.87522336e-003 -3.75044672e-003 -5.15686395e-003 3.43129598e-003
      1.44930568e-003 1.87470333e-003 2.98490818e-003 -1.27723278e-003
      -3.94170126e-003 -2.17143586e-003 -2.44463840e-003
      -3.43130708e-001 -3.20959603e-004 1.64056034e-003 0.
      8.94203316e-004 -1.40641746e-003 6.70724956e-004 2.23907107e-003
      -3.14548969e-001 -9.81020043e-004 5.95092890e-004 -6.60060381e-004
      -1.33420329e-003 -1.87522336e-003 -6.67186338e-004 1.47846222e-004
      -3.19436014e-001 7.46357080e-004 -9.37611680e-004 -4.68805840e-004
      -4.68805840e-004 -9.41029633e-004 4.25397448e-004 2.77551240e-004
      -3.28701049e-001 -2.52671616e-005 8.18571192e-004 7.93304062e-004
      1.31960073e-003 1.47846222e-004 8.87077360e-004 -3.46226763e-004
      -2.48853192e-001 -5.73622398e-002 -5.16280718e-002
      -1.78994425e-002 -7.49871647e-003 -4.26188530e-003
      -6.86413434e-004 1.05996057e-003 0. 0. 0. 0. 0. 0. 0. 0.
      -8.38006660e-002 -2.57092551e-003 -2.02648761e-003
      -1.40641746e-003 -1.87522336e-003 -4.29488439e-003
      -1.95085548e-003 -1.01324380e-003 -7.21808523e-002
      -1.87522336e-003 -1.87864131e-003 -8.65397567e-004
      -3.06158047e-003 -2.02648761e-003 -1.55768159e-003
      -1.48204959e-003 -1.02221459e-001 -1.24014006e-003
      -1.01324380e-003 -2.96409917e-003 -1.80300919e-003
      -1.56109966e-003 -2.10211962e-003 -2.57092551e-003
      -1.25523984e-001 -6.20070030e-004 -3.19099543e-003
      -1.87522336e-003 -1.87522336e-003 -2.64655752e-003
      -1.80642714e-003 -1.16450794e-003 -1.14187486e-002
      -2.94908602e-003 -1.63331372e-003 -1.55768159e-003
      -2.25338386e-003 -1.16450794e-003 -2.17775162e-003
      -1.48204959e-003 -1.15394201e-002 -4.43113549e-003
      -2.79782177e-003 -5.29311504e-003 -5.36874728e-003
      -5.53502468e-003 -4.82430914e-003 -7.78840808e-003
      -7.19448328e-002 0. -4.68805840e-004 -7.56320951e-005
      -1.01324380e-003 -7.71334220e-004 -1.87522336e-003
      -1.08887581e-003 -5.06961755e-002 -5.44437906e-004
      -9.37611680e-004 -1.51264190e-004 -1.01324380e-003
      -4.68805840e-004 -1.01324380e-003 -1.70894584e-003
      -4.84074391e-002 -2.02648761e-003 -5.44437906e-004
      -1.01324380e-003 -1.78457797e-003 -1.08887581e-003
      -5.44437906e-004 -6.20070030e-004 -5.21556884e-002
      -6.95702096e-004 -1.70894584e-003 -1.55768159e-003
      -1.87522336e-003 -2.10211962e-003 -1.87522336e-003
      -5.44437906e-004 -3.02528380e-003 -2.26896285e-004
      -3.02528380e-004 -3.78160476e-004 -4.53792571e-004
      -1.51264190e-004 -3.78160476e-004 -1.61830045e-003
      -2.49585905e-003 -3.78160476e-004 -4.53792571e-004
      -1.86020997e-003 -3.26662743e-003 -3.97734297e-003
      -2.87345378e-003 -3.73543333e-003 -3.36843245e-002
      -2.44094878e-002 -1.67698935e-001 -3.01616406e-003</_>
    <_>
      -1.30944727e-002 0. 0. 0. -1.19040662e-003 0. 0. -1.19040662e-003
      0. 0. 0. 0. 0. 0. 0. 0. 0. 0. 0. 0. 0. 0. 0. 0. 0. 0. 0. 0. 0. 0.
      0. 6.69685367e-004 5.35748294e-003 0. 6.69685367e-004
      1.33937073e-003 1.33937073e-003 6.69685367e-004 6.69685367e-004 0.
      0. 0. 0. 0. 4.01811209e-003 2.00905604e-003 6.69685367e-004
      4.01811209e-003 -3.37366968e-001 -2.38081324e-003 4.77897527e-004
      -3.57121974e-003 -3.30793392e-003 -8.74535413e-004
      -2.52001570e-003 -4.23602434e-003 -2.87457347e-001
      -3.57121974e-003 1.35731371e-003 2.55260104e-003 -7.14243948e-003
      -7.66316056e-003 -4.30167187e-003 -3.26022925e-003
      -2.32295290e-001 -2.78721238e-003 -3.76300747e-003
      -4.45063598e-003 -2.47622235e-003 -5.16802538e-003
      -2.58566299e-003 -3.09820310e-003 -2.37242505e-001
      -8.01697467e-003 -9.54090210e-005 -1.00439731e-002
      -9.59583744e-003 -6.01279968e-003 -3.93809611e-003 2.95997038e-003
      -2.64727741e-001 -1.71169732e-002 -8.17032531e-003
      -1.04834354e-002 -9.24765412e-003 -1.69774313e-002
      -4.47172346e-003 -6.55069621e-003 -2.14841887e-001
      -4.08284813e-002 -4.54135276e-002 -1.54896290e-004 2.99320724e-002
      5.04736369e-003 6.13567512e-003 1.14097064e-002 -1.44332021e-001
      3.08308401e-003 4.71062120e-003 3.43298726e-003 4.27837111e-003
      6.75556343e-003 7.40730576e-003 5.23134274e-003 -2.82644182e-001
      -3.44713591e-003 5.35552099e-005 -5.48719754e-003 1.75650173e-003
      1.15734455e-003 -3.76300747e-003 3.17946286e-003 3.02892439e-002
      -4.59471904e-003 -4.76162648e-003 -2.38081324e-003 5.25602023e-004
      -5.95203275e-003 -3.57121974e-003 -3.57121974e-003
      -7.61832856e-003 3.79326264e-003 6.30634045e-003 7.74600077e-003
      7.59861758e-003 7.31189689e-003 6.63733063e-003 5.32051036e-003
      -3.34692933e-002 2.12845597e-002 2.21211519e-002 1.75569430e-002
      9.76936240e-003 -2.20620097e-003 -3.74836498e-003 -5.10567892e-003
      2.22044605e-016 0. 0. 0. 0. 0. 0. 0. -3.74681771e-001
      -9.54090210e-005 1.53398234e-003 4.89547150e-003 -3.07379873e-003
      3.54303839e-003 -5.48902142e-004 -6.64013717e-003 -5.65287769e-001
      -2.86894897e-003 -6.59923709e-004 -1.51163549e-003 4.96111857e-003
      -3.75812687e-003 -3.18482029e-003 3.38431285e-003 -2.12645996e-002
      -4.72416030e-003 -3.42919328e-003 -5.16314479e-003
      -7.14243948e-003 2.02982291e-003 -2.45827949e-003 6.66171909e-005
      -1.25071006e-002 -7.85494782e-003 -1.13784634e-002
      -1.90779648e-003 -7.12509151e-004 -5.16802538e-003
      -1.74088927e-003 1.56801438e-003 -4.35081095e-001 -1.24008413e-002
      3.30879702e-003 3.50623503e-002 3.35111059e-002 3.68865654e-002
      4.28027809e-002 4.39282432e-002 2.22044605e-016 0. 0. 0. 0. 0. 0.
      0. -3.94538306e-002 0. -1.19040662e-003 -2.38081324e-003
      -3.57121974e-003 -1.19040662e-003 -2.38081324e-003
      -1.19040662e-003 -4.18346412e-002 5.25602023e-004 0.
      -6.64804538e-004 -1.19040662e-003 0. 0. -3.57121974e-003
      -2.57738773e-002 -2.38081324e-003 -4.76162648e-003
      -2.38081324e-003 -3.04561784e-003 -4.76162648e-003
      -9.52325296e-003 -4.76162648e-003 -4.60556671e-002
      -5.95203275e-003 -1.54910155e-003 -1.19040655e-002
      -2.38081324e-003 -4.75674542e-003 -5.12032118e-003
