<?xml version="1.0"?>
<opencv_storage>
<my_svm type_id="opencv-ml-svm">
  <svm_type>C_SVC</svm_type>
  <kernel><type>LINEAR</type></kernel>
  <C>1.</C>
  <term_criteria><epsilon>2.2204460492503131e-016</epsilon>
    <iterations>100</iterations></term_criteria>
  <var_all>436</var_all>
  <var_count>436</var_count>
  <class_count>10</class_count>
  <class_labels type_id="opencv-matrix">
    <rows>1</rows>
    <cols>10</cols>
    <dt>i</dt>
    <data>
      1 2 3 4 5 6 7 8 9 10</data></class_labels>
  <sv_total>45</sv_total>
  <support_vectors>
    <_>
      1.46210222e-002 1.86255071e-004 3.10425094e-004 2.17297566e-004
      1.86255071e-004 1.24170037e-004 1.86255071e-004 6.20850187e-005
      1.00267306e-002 2.17297566e-004 2.17297566e-004 1.86255071e-004
      4.65637626e-004 3.41467588e-004 1.24170037e-004 3.72510141e-004
      5.40139666e-003 3.41467588e-004 4.65637626e-004 3.41467588e-004
      5.89807692e-004 5.58765198e-004 2.48340075e-004 6.82935177e-004
      9.21962503e-003 7.45020283e-004 4.65637626e-004 5.89807692e-004
      1.05544529e-003 9.31275252e-004 9.31275252e-004 5.19907462e-006
      -9.51767899e-004 1.11753040e-003 7.81261828e-004 1.96653156e-004
      2.27695651e-004 1.89879222e-003 1.55732455e-003 3.19737848e-003
      5.89807692e-004 1.89359300e-003 4.78054630e-003 1.07407086e-002
      2.29729759e-003 5.41699398e-003 3.57508752e-003 9.76169482e-003
      2.87659943e-001 4.57155379e-003 1.00461245e-002 5.51714282e-003
      3.94437322e-003 -7.51940766e-004 1.76641846e-003 1.68134924e-002
      3.12690496e-001 4.47842618e-003 1.76641846e-003 6.20227214e-003
      2.86722020e-003 4.68419446e-003 -5.46172610e-004 1.02659722e-003
      2.39364445e-001 2.88614328e-003 2.89826281e-003 2.03427160e-003
      3.94437322e-003 6.60582492e-003 1.12474468e-002 4.44738381e-003
      2.24702373e-001 2.23944965e-003 1.29322670e-002 1.22160958e-002
      -2.35161721e-003 -1.06869626e-003 5.48716309e-003 -2.07637064e-003
      1.71006337e-001 3.55636841e-003 1.46693128e-005 1.13525763e-002
      -7.75711518e-003 -9.98976175e-003 -1.82701612e-003 5.02832886e-003
      1.64893165e-001 1.78090595e-002 1.49949975e-002 -1.14751775e-002
      -3.84513848e-002 -2.22463347e-002 -7.74011575e-003 9.10813082e-003
      -3.74546424e-002 3.82020301e-003 -6.76470064e-003 1.23975892e-003
      -1.70905946e-003 -3.28182941e-003 -4.71091596e-003
      -5.01720514e-003 5.29101416e-002 5.43081900e-003 -2.41783820e-003
      -2.38679559e-003 -4.88564186e-003 5.74922748e-003 4.63363854e-003
      4.01385128e-003 -1.00409433e-001 4.66468139e-003 4.88197897e-003
      -8.83504283e-004 3.72510141e-004 9.76041658e-004 2.83617782e-003
      1.82850345e-003 -2.16687471e-001 -9.47623607e-003 2.43416126e-003
      -6.81419298e-003 -5.97798778e-003 -4.08267230e-003
      -5.43979835e-003 -7.01792131e-004 -2.56970018e-001 1.90032274e-002
      1.35987261e-002 4.77165841e-002 4.42398600e-002 3.98603007e-002
      1.62673201e-002 8.06921162e-003 -1.11022302e-016 0. 0. 0. 0. 0. 0.
      0. 1.12499677e-001 -1.35547225e-003 -2.23897654e-003
      1.45705650e-003 -4.10324847e-003 -5.77653944e-003 -4.84306971e-003
      3.13774077e-003 1.74027041e-001 2.16364069e-003 7.00937724e-003
      7.52413704e-004 5.77688101e-004 -1.18873036e-003 3.04523091e-005
      4.11111536e-003 -7.95278251e-002 -2.14584917e-003 -2.86781043e-003
      4.28584078e-003 -1.51866849e-003 -1.74749549e-003 -1.16347708e-003
      -3.82492924e-003 -1.92816600e-001 -2.32057460e-003
      -9.76631884e-004 7.19043333e-003 -7.08778680e-004 2.57571810e-003
      7.27701583e-004 5.40036615e-003 2.53300518e-001 -7.70894112e-003
      -2.74492241e-002 -5.93334921e-002 -4.16735113e-002
      -2.12616194e-002 -2.31686998e-002 -2.17048582e-002
      -3.10425239e-004 9.31275354e-005 0. 3.10425094e-005 0.
      6.20850187e-005 9.31275354e-005 0. 7.24214539e-002 2.92930519e-003
      2.17297566e-004 1.95267342e-003 2.79382599e-004 2.92930519e-003
      1.86255071e-004 5.70339803e-003 1.51558686e-002 2.48340075e-004
      3.20868776e-003 2.48340075e-004 8.35331995e-003 -7.59334245e-004
      2.92930519e-003 2.92930519e-003 2.88224183e-002 5.64131327e-003
      1.86255071e-004 3.08451778e-003 4.34595131e-004 3.72510141e-004
      3.41467588e-004 3.14660277e-003 5.53889312e-002 4.03552636e-004
      5.58765198e-004 2.44935369e-003 3.39494296e-003 4.17320011e-003
      -3.86824162e-004 3.17764538e-003 -3.63254850e-003 -1.65436801e-003
      2.79382599e-004 2.17297566e-004 -4.91481100e-004 2.99139041e-003
      -1.46811293e-003 4.99461964e-003 -7.94031657e-003 2.56199413e-003
      1.02440279e-003 5.63964189e-004 4.59949067e-003 4.44427785e-003
      3.30090383e-003 9.83725116e-003 3.40683162e-002 2.83617782e-003
      9.31275354e-005 1.24170037e-004 9.31275354e-005 -7.39821175e-004
      2.80513521e-003 1.24170037e-004 3.80434394e-002 1.86255071e-004
      2.86722020e-003 -6.15651137e-004 -6.46693632e-004 2.79382599e-004
      -5.84608642e-004 9.31275354e-005 9.27489772e-002 -5.10994229e-004
      -6.15651137e-004 -4.60438576e-004 -3.67311062e-004 2.22052657e-003
      1.55212547e-004 2.16997112e-003 1.04100622e-001 5.27722645e-004
      2.37573916e-003 5.58765198e-004 4.45258291e-003 -1.16921728e-003
      3.11556039e-003 3.51911294e-003 3.91290709e-003 7.93545321e-003
      5.09927655e-003 7.13977672e-004 4.11111536e-003 5.03719132e-003
      3.39494296e-003 8.07105273e-004 -8.89314804e-003 5.63964189e-004
      3.25012859e-003 6.80028414e-003 9.86829307e-003 1.17369536e-002
      6.65440643e-003 7.18212873e-003 3.59653354e-001 -1.80958048e-003
      9.95554728e-004 1.55212547e-004 9.33469739e-004 5.45505807e-003
      2.71200784e-003 3.10425094e-005 2.39440769e-001 -1.05247120e-004
      8.07393808e-003 2.68096523e-003 1.87905901e-003 2.71200784e-003
      -3.97848850e-003 1.91010151e-003 2.67489433e-001 5.42401569e-003
      4.41634096e-003 6.20850187e-005 2.71200784e-003 -1.05247120e-004
      1.87905901e-003 2.71200784e-003 3.10255557e-001 -5.46172610e-004
      1.94114412e-003 1.03834560e-002 2.24691074e-004 1.02659722e-003
      6.00555120e-003 -3.71446949e-004 2.04656333e-001 1.60369463e-003
      -4.51372191e-003 8.01232550e-003 6.05965266e-003 -5.96338511e-003
      -1.04977330e-003 8.37963633e-003 -1.11022302e-016 0. 0. 0. 0. 0.
      0. 0. 6.71057105e-002 3.10425094e-005 2.77409283e-003
      2.77409283e-003 2.77409283e-003 2.83617782e-003 2.74305022e-003
      3.10425094e-005 4.26624678e-002 2.17297566e-004 -5.22523595e-004
      -5.53566089e-004 1.32549298e-003 3.10425094e-005 2.79382599e-004
      1.55212547e-004 3.91819254e-002 4.34595131e-004 2.48340075e-004
      3.41467588e-004 -1.46811293e-003 4.80836444e-003 3.17764538e-003
      3.02243279e-003 6.35616332e-002 -2.93696590e-004 2.20101350e-003
      7.13977672e-004 5.16136130e-003 3.30181536e-003 1.76008802e-003
      7.13977672e-004 1.85687207e-002 9.31275252e-004 3.48807056e-003
      6.82935177e-004 8.69190262e-004 3.45702795e-003 -1.43140878e-005
      1.30378536e-003 1.96951460e-002 2.51444313e-003 2.70069833e-003
      8.40409659e-003 7.61672435e-003 6.23654015e-003 5.30526461e-003
      6.09564129e-003 3.30504291e-002 7.00417859e-003 1.24170037e-004
      2.77409283e-003 8.07393808e-003 8.13602284e-003 1.86255071e-004
      3.10425094e-005 4.71214615e-002 1.55212547e-004 3.10425094e-005
      9.31275354e-005 2.77409283e-003 -9.14546836e-004 3.10425094e-005
      2.83617782e-003 9.97797325e-002 3.72510141e-004 5.76548325e-003
      7.40773091e-003 5.82756801e-003 3.41467588e-004 8.41540564e-003
      1.92163093e-003 1.08852230e-001 8.50853324e-003 8.72583035e-003
      1.98371592e-003 4.65637626e-004 2.29414110e-003 9.26727708e-003
      5.95173799e-003 1.33511638e-002 2.99139041e-003 2.96034780e-003
      3.05347540e-003 6.82935177e-004 2.99139041e-003 4.65637626e-004
      3.27077298e-003 9.55266971e-003 1.24170037e-003 4.10892069e-003
      4.94706817e-003 7.18212873e-003 1.03597743e-002 9.92517918e-003
      7.98923429e-003 -1.39384568e-001 -9.96100903e-002 0.
      -1.54468033e-003</_>
    <_>
      2.30410784e-001 -1.46087585e-002 -3.99442110e-003 -6.07218267e-003
      8.51928350e-003 8.69830401e-005 -6.09903964e-006 -7.47743342e-003
      3.39925200e-001 7.76271475e-003 1.45722367e-003 7.30860233e-003
      -9.49205924e-003 1.26985079e-002 -1.30837166e-003 4.59903711e-003
      2.05312550e-001 6.82181166e-003 6.11471338e-003 -3.39786662e-003
      7.10936915e-003 1.78948813e-003 1.14691686e-002 1.12567318e-003
      2.31249243e-001 1.67554207e-002 1.13465311e-002 1.64039843e-002
      1.98334884e-002 2.49761045e-002 1.59884784e-002 4.12712386e-003
      1.39047056e-001 1.90095436e-002 3.07137389e-002 2.45957635e-002
      2.88611818e-002 2.40328051e-002 2.00429596e-002 3.42761329e-003
      1.54852513e-002 3.63547914e-002 3.71264108e-002 -1.49748046e-002
      1.55627191e-001 2.80577481e-001 1.35801986e-001 4.64818673e-003
      3.86705488e-001 -1.38626173e-002 -1.03642279e-003 -5.64878108e-003
      -7.03836326e-003 -1.20117730e-002 -1.77106168e-002 4.72720340e-003
      4.88286048e-001 -1.98614597e-002 -1.51558192e-002 -8.28116853e-003
      -1.67821385e-002 -1.86800212e-002 -3.57984379e-002
      -2.12237854e-002 3.01922679e-001 -3.48791890e-002 -3.87956612e-002
      -3.21474262e-002 -2.50321161e-002 -1.23467343e-002
      -1.02790790e-002 -2.81007029e-004 1.09837286e-001 -5.32755852e-002
      -2.54022572e-002 -8.73558130e-003 -2.41758656e-002
      -6.55784272e-003 -1.76009759e-002 -1.22036226e-002
      -2.22972363e-001 -9.72731486e-002 -5.89327049e-003
      -3.43347318e-003 5.72777167e-003 2.25021765e-002 2.08184053e-003
      1.04423175e-002 -5.27586162e-001 1.36587366e-001 7.47806579e-002
      4.49550264e-002 4.04473282e-002 2.93160994e-002 5.34509011e-002
      4.79675494e-002 -3.52246225e-001 7.28518935e-003 3.32750590e-003
      9.03984345e-003 6.51280908e-003 8.65428429e-003 4.25880169e-003
      5.11125335e-003 -4.70095009e-001 -7.28543662e-003 -2.50836881e-003
      -6.97883661e-004 3.79370479e-003 8.72029830e-003 5.48250787e-003
      7.43852975e-003 -1.97109088e-001 9.25119780e-003 9.84046236e-003
      -2.03485205e-003 3.25999339e-003 6.87561929e-003 3.01571144e-003
      6.27986994e-003 -5.66486418e-001 -1.37514697e-004 1.29269026e-002
      -5.09287231e-003 2.56341277e-003 1.78612769e-002 2.28892602e-002
      3.00504714e-002 -5.24206877e-001 9.77055505e-002 6.85969144e-002
      8.01121145e-002 6.36318550e-002 6.07083961e-002 2.68994663e-002
      2.24180315e-002 0. 0. 0. 0. 0. 0. 0. 0. -6.11636877e-001
      -9.93888732e-003 -1.13231409e-002 -3.99635127e-003
      -4.47725458e-003 -6.52393093e-003 -9.72811785e-003 5.00882464e-003
      -4.12630260e-001 -6.12704502e-003 9.42383986e-003 -1.26928091e-002
      -2.80949231e-002 -1.70560330e-002 -3.20904218e-002
      -2.86000594e-002 -4.88805741e-001 -1.69487037e-002
      -7.44979479e-005 3.68460873e-003 -1.24338279e-002 -1.87481040e-004
      1.38464640e-003 2.46808352e-003 -4.46005970e-001 -4.26243385e-003
      2.16794410e-003 8.04945920e-003 3.66731361e-003 1.41104786e-002
      -8.93611112e-004 9.19435360e-003 2.65314043e-001 -4.28414196e-001
      -2.91136175e-001 -8.08909759e-002 -5.67298420e-002
      -7.39600658e-002 1.90366413e-002 5.92216291e-003 -5.16861561e-004
      0. 5.16852771e-004 0. 0. 0. 0. 0. 2.12503709e-002 2.24104663e-003
      8.00892245e-003 1.45019719e-003 4.13257582e-003 -3.38923710e-004
      -9.56570439e-004 1.30544731e-003 3.78266238e-002 -7.22971105e-004
      6.55472372e-003 2.64230929e-003 4.97718668e-003 2.06392864e-003
      9.87690315e-003 4.62417753e-004 1.80020198e-001 -9.11798701e-003
      1.48248449e-002 -6.26134919e-003 4.01907368e-003 2.91780592e-003
      1.05563067e-002 5.65160066e-003 1.85479507e-001 9.21404827e-003
      6.23987056e-003 -2.08588713e-003 2.09345967e-002 1.86215118e-002
      1.13365380e-003 9.50585864e-003 1.19299367e-001 2.31804117e-003
      3.83226154e-003 1.13220131e-002 1.66242830e-002 1.77743193e-002
      1.03409085e-002 1.13286851e-002 8.26191008e-002 1.42743755e-002
      1.36664147e-002 2.18821149e-002 4.74433713e-002 5.67372702e-002
      8.20512623e-002 9.60779712e-002 8.53713900e-002 2.79116863e-003
      -2.46468629e-003 -7.23618548e-003 -1.07380822e-002
      -7.85610918e-003 4.05671162e-004 -1.89608242e-002 9.87520516e-002
      -2.37890775e-003 -1.76120047e-002 -2.99659395e-003
      -1.31999627e-002 -1.18153412e-002 -5.39834937e-003
      -1.98484268e-002 4.45390642e-001 -2.22195350e-002 -1.81845538e-002
      -6.93513826e-003 -1.09272301e-002 -7.83006754e-003
      -6.69507729e-003 -1.81793347e-002 4.43574160e-001 -2.72230469e-002
      -1.28013117e-003 -1.32524697e-002 -7.03959493e-003
      -4.47418680e-003 -8.08839779e-003 -5.14864689e-003 4.41647112e-001
      2.36501489e-002 3.88778001e-002 -3.33529967e-003 1.63001157e-002
      3.18570510e-002 2.63711042e-003 1.94983855e-002 2.21217990e-001
      1.16465138e-002 2.72010751e-002 8.80387872e-002 7.70949647e-002
      6.46633878e-002 3.93891037e-002 3.81289423e-002 -2.21067697e-001
      -1.06871473e-002 -2.40881392e-003 -2.03095539e-003
      -3.87580297e-003 3.13272444e-003 -1.69498287e-003 -1.97154703e-003
      -2.29621366e-001 -3.56189720e-003 6.19531516e-003 2.46496103e-003
      9.68678738e-004 -2.79563572e-003 -8.96741264e-003 4.14087018e-003
      -3.73250991e-001 4.22843528e-004 3.05028778e-004 -8.53018090e-003
      -7.41525786e-003 -3.60071519e-003 6.48505928e-004 2.72730086e-003
      -3.60476911e-001 4.05729096e-003 6.23352686e-003 8.32795631e-003
      3.95997707e-003 -1.95171672e-003 1.18770152e-002 4.61315550e-003
      -1.24433622e-001 -2.87046164e-001 -1.20164223e-001
      -9.24831107e-002 -6.09324276e-002 1.04727643e-002 1.20147699e-002
      2.19145510e-002 0. 0. 0. 0. 0. 0. 0. 0. 2.98044533e-001
      -1.07179657e-002 -8.38018488e-003 -6.10776292e-003
      -5.81333879e-003 -4.36147954e-003 3.23253009e-003 -6.03170553e-003
      2.80499756e-001 -9.06429626e-003 -4.60791029e-003 -8.80571548e-003
      -1.65912490e-002 -7.55324913e-003 -1.14713805e-002
      -4.88987891e-003 3.45116466e-001 -1.20723601e-002 -6.81342231e-003
      -2.36217249e-002 -1.13264564e-002 -8.11246876e-003
      -7.46342959e-003 -1.13666039e-002 2.62521118e-001 -3.50967683e-002
      -3.72408889e-002 -3.05799395e-002 5.41834766e-003 -3.06871627e-002
      -8.98085535e-003 -6.60035177e-004 2.63677359e-001 1.84562020e-002
      1.98059268e-002 1.95506848e-002 4.58129449e-003 2.12918613e-002
      1.11962594e-002 9.18112788e-003 1.38160214e-001 1.99186709e-002
      4.04388681e-002 5.52169234e-002 5.76400906e-002 8.10201541e-002
      6.14078231e-002 1.17563009e-001 -2.50268251e-001 5.60590823e-004
      -5.83578320e-003 -1.49122784e-002 1.89703214e-003 -1.26373419e-003
      -2.25254484e-002 -8.49589333e-003 -2.05876157e-001
      -2.58843182e-003 -7.97899906e-003 -2.18214300e-002
      -4.29386320e-003 -1.17675485e-002 -8.46777949e-003
      -7.90887233e-003 -9.65912491e-002 -3.90492799e-003 7.53603922e-003
      6.66527078e-003 -4.73588984e-003 -4.63997852e-003 5.08951861e-003
      -1.78395421e-003 -4.97324169e-002 8.90986435e-003 3.22093442e-003
      5.31186990e-004 -5.48399100e-003 -5.32630784e-003 3.05309572e-004
      9.04588960e-004 5.94852678e-002 5.16956905e-003 6.46861130e-003
      -6.64215535e-003 2.02467060e-003 -3.21539142e-003 -9.06129368e-003
      3.58424918e-003 7.31858164e-002 -1.07450364e-002 2.57776421e-003
      -2.06733681e-003 1.98604502e-002 3.25407973e-003 6.54487610e-002
      1.08453251e-001 1.21658221e-001 5.05591094e-001 -5.71715176e-001
      1.18905548e-002</_>
    <_>
      -7.87298754e-003 4.32322850e-004 2.13592593e-003 4.20450512e-003
      5.06915106e-003 -5.02442103e-003 1.28845451e-003 -4.05807979e-003
      -5.79296565e-003 -8.97229183e-003 1.07655011e-003 2.15310021e-003
      7.54436478e-004 -2.65941606e-003 1.50887296e-003 -2.65941606e-003
      -3.21137626e-003 5.17936004e-003 -2.34596292e-003 3.77218239e-003
      5.78748237e-004 3.45006888e-003 2.75557795e-005 -9.19270981e-003
      -5.75579703e-002 8.10392480e-003 -1.70173566e-003 5.12239523e-003
      5.77513641e-003 1.38001284e-002 -2.41144188e-003 1.24101257e-002
      -8.05919617e-002 1.20580115e-003 -6.08011149e-004 5.21543017e-003
      1.69452578e-002 1.40206935e-002 1.56140877e-002 6.97242375e-003
      -4.83924747e-002 -2.87132058e-003 4.02030302e-003 9.09796823e-003
      5.34450300e-002 1.07110158e-001 -2.35377648e-003 -5.73439896e-002
      2.23734722e-001 -3.08119711e-002 -2.08479278e-002 -2.70052999e-002
      -1.66279133e-002 -1.53890261e-002 -1.27018029e-002 8.63294210e-003
      2.20779642e-001 -4.34734859e-002 -3.11256424e-002 -1.25893205e-002
      -1.28688244e-002 -8.71658977e-003 -8.75583384e-003
      -1.13247922e-002 1.08159043e-001 -4.50234376e-002 -3.56099084e-002
      -3.03313173e-002 -8.48916825e-003 -3.73002444e-003 1.39484313e-004
      -1.05101056e-002 3.97067182e-002 -6.09004647e-002 -1.08811529e-002
      -2.29351800e-002 -1.93537138e-002 -1.56105459e-002
      -4.08687536e-003 -9.45791975e-003 -9.70272869e-002
      -4.32208851e-002 -3.44937705e-002 3.03075439e-003 1.26941474e-002
      -4.31791740e-003 7.80933490e-003 7.39452080e-004 -1.52276814e-001
      5.41069247e-002 6.18185103e-003 2.93297172e-002 2.45947279e-002
      2.91118752e-002 3.44852582e-002 5.10773994e-002 -2.01659113e-001
      5.77255478e-003 -6.00806437e-003 6.40083058e-003 3.66167468e-003
      4.52700490e-003 3.14673828e-003 1.11806171e-003 -2.80554116e-001
      1.07909543e-002 -9.71673336e-003 2.59338180e-003 4.11267625e-003
      5.54058515e-003 5.42434957e-003 1.74286612e-003 -1.34574249e-001
      6.13821577e-003 5.90859912e-003 -7.97580742e-006 1.06857438e-003
      3.72063555e-003 2.43218080e-003 3.23814061e-003 -3.80999714e-001
      1.03618335e-002 1.62153449e-002 1.76617515e-003 1.19270273e-002
      7.46846385e-003 8.37298855e-003 1.06744422e-002 -2.98350215e-001
      5.07191457e-002 2.69719008e-002 5.47761209e-002 4.95892242e-002
      3.43437418e-002 1.92211242e-003 7.59830931e-003 0. 0. 0. 0. 0. 0.
      0. 0. -2.05975920e-001 -3.30767967e-002 -3.37049179e-002
      -3.33768204e-002 -2.18709931e-002 -1.52112199e-002
      -3.98657396e-002 -1.14267478e-002 1.58213452e-001 2.69310607e-004
      3.98546131e-003 2.87982490e-004 -1.50965003e-004 4.73608449e-003
      -1.64428947e-003 2.58289673e-003 -4.83917415e-001 3.20990896e-003
      5.60060190e-003 1.01720719e-002 2.76054000e-003 2.16217712e-003
      5.06859599e-003 1.89821154e-003 -3.79739195e-001 5.00488968e-004
      1.83180626e-003 9.30970069e-003 4.66953119e-004 6.41665375e-003
      5.20395534e-003 8.81244987e-003 3.14520538e-001 -1.46199334e-002
      1.95242558e-002 -4.20876592e-002 -1.15542665e-001 -2.70957500e-001
      -1.87764809e-001 -4.30793874e-002 0. 0. 0. 0. 0. 0. 0. 0.
      3.79895307e-002 4.61963005e-003 2.69563240e-003 -2.44768197e-003
      3.23816435e-003 3.99257708e-003 1.71211699e-003 6.66235061e-003
      -1.13604805e-002 4.32322850e-004 5.79772890e-003 -4.15977510e-003
      1.04773715e-002 2.44937907e-003 -9.98516189e-005 4.31469083e-003
      3.76376286e-002 -5.08143380e-003 -7.92955235e-003 2.75319435e-005
      -3.75314080e-003 -2.02384940e-003 -2.98099173e-003 7.62020145e-003
      5.38292453e-002 -8.01461097e-003 3.64533695e-003 6.79841870e-003
      -3.78444116e-003 5.96981868e-003 -1.89109240e-002 -4.35212348e-003
      -2.63039414e-002 1.39866385e-003 8.47471296e-004 3.40720615e-003
      4.30620043e-003 -7.03111943e-003 -1.51834721e-002 8.17190856e-003
      -2.21774485e-002 -1.74192488e-002 7.11204205e-003 -2.53510363e-002
      7.62037188e-003 6.36015786e-003 9.24493186e-003 4.17537652e-002
      2.06805989e-001 2.89885257e-003 1.61908218e-003 2.33916985e-003
      7.37262075e-004 1.81381230e-003 3.23814061e-003 -5.88906650e-003
      1.79696992e-001 2.26330943e-003 -3.08324886e-003 1.15241052e-003
      1.18675933e-003 2.78866710e-003 2.69563240e-003 1.18675933e-003
      1.96932733e-001 -1.05491774e-002 -3.20141017e-003 3.65399756e-003
      -3.67605756e-003 4.31469083e-003 -2.65941606e-003 -1.15922745e-003
      1.87777087e-001 2.14512437e-003 -1.67198101e-004 5.24670677e-003
      6.96728984e-003 -3.47403623e-003 -4.89311758e-004 3.41669802e-004
      4.41801138e-002 1.38619617e-002 1.33953141e-002 1.28008081e-002
      8.24164227e-003 1.49845774e-003 7.86832254e-003 -1.34340592e-003
      1.91244707e-002 4.12185211e-003 -4.24683979e-003 2.10555121e-002
      1.69527028e-002 2.87411921e-002 -8.55019968e-003 3.23394910e-002
      -3.09105031e-002 -3.32439765e-002 -1.86087266e-002
      -1.67995375e-002 -1.21742208e-002 -1.42069077e-002
      -7.87556544e-003 -1.43327247e-002 3.01117688e-001 -3.29690753e-003
      1.27321749e-003 -3.46347876e-003 -3.42155737e-003 -4.44449671e-003
      -1.32491244e-002 -3.12459399e-003 -2.69816428e-001 4.72021382e-003
      6.24667108e-003 1.85128330e-004 2.67127808e-003 2.18498637e-003
      2.57620751e-003 3.10469535e-003 -2.10774168e-001 2.06045830e-003
      2.64949398e-003 1.19848531e-002 2.39648763e-003 2.43636686e-003
      1.00021698e-002 2.17701052e-003 1.74084812e-001 9.56502219e-004
      2.91641895e-003 -5.17701171e-003 -4.45548967e-002 -1.89967141e-001
      -1.45730659e-001 -5.68904690e-002 0. 0. 0. 0. 0. 0. 0. 0.
      1.73135281e-001 1.18675933e-003 3.23016476e-003 4.19704383e-003
      2.78864335e-003 4.08561202e-003 4.93376795e-003 1.93322008e-003
      9.95143503e-002 1.94119581e-003 2.36500474e-003 3.10280500e-003
      3.67046334e-003 3.32268514e-003 1.18675933e-003 1.72131555e-003
      9.03691575e-002 3.10226693e-003 -3.99939390e-003 -4.48188884e-003
      3.85792600e-003 7.33241299e-003 -1.59155030e-003 4.40772530e-003
      9.81118251e-003 1.85922708e-003 -2.94581725e-004 5.75557444e-003
      1.02846799e-002 7.40829716e-003 1.02399737e-002 5.15367184e-003
      6.31208196e-002 2.10464909e-003 3.91912227e-003 1.00280931e-002
      3.28289438e-003 3.17266141e-003 3.91914602e-003 8.62942915e-003
      -1.54373962e-002 1.47266788e-002 7.38028111e-003 3.33895944e-002
      1.41953351e-002 -4.20300383e-003 1.78097840e-002 1.09286029e-002
      2.39152852e-002 7.77322566e-003 0. 2.91602686e-003 8.31575785e-003
      8.52766167e-003 -5.88906650e-003 7.54436478e-004 5.01058251e-002
      -4.49040299e-003 -5.13463002e-003 9.66340944e-004 3.23814061e-003
      3.22113628e-004 1.07655011e-003 3.56025412e-003 -8.50086473e-003
      2.79732770e-003 6.78122044e-003 2.63859541e-003 -5.70127231e-005
      1.81381230e-003 -1.53422039e-002 -7.26019824e-003 -4.63637263e-002
      1.12147806e-002 1.03586484e-002 3.07640829e-003 -9.51482356e-003
      -8.19939363e-004 -9.78671131e-004 1.01156160e-003 -1.35057330e-001
      -9.30148526e-004 4.72983904e-003 4.53510927e-003 -2.78679980e-003
      -1.89648953e-003 -3.30364355e-003 4.20448137e-003 -1.20554812e-001
      -1.65906493e-002 -4.97971475e-003 1.46401522e-004 -4.75620572e-003
      1.68797318e-002 5.20395152e-002 5.82234710e-002 -1.33111373e-001
      -2.73449302e-001 -3.13291222e-001 -2.33571738e-001</_>
    <_>
      -2.71683149e-002 -3.48796626e-003 3.66461487e-003 5.50125446e-003
      3.51221231e-003 -4.77483409e-004 8.09919462e-003 4.26448416e-003
      7.05765635e-002 5.10727614e-003 2.99925637e-003 1.72667718e-003
      -2.67117005e-003 8.17153789e-003 -2.15106364e-003 1.37228649e-002
      8.65111277e-002 3.33059765e-003 1.27471313e-002 1.51811503e-002
      1.70792602e-002 1.26327183e-002 1.00697279e-002 2.35138685e-002
      1.86943740e-001 4.60796803e-003 1.41666280e-002 1.73310433e-002
      8.81827530e-003 2.24116892e-002 1.55411614e-002 1.92891229e-002
      1.01176195e-001 3.93394157e-002 4.24570106e-002 3.49759087e-002
      5.57625294e-002 7.64363855e-002 4.39388454e-002 2.30102781e-002
      -1.68135343e-003 3.50190662e-002 9.22136828e-002 1.67986810e-001
      2.98939049e-001 3.79626602e-001 1.92262977e-001 -1.45559125e-002
      7.09169269e-001 -1.34856254e-003 7.74123194e-003 -2.32104328e-003
      -4.29157517e-004 -1.36068149e-003 -1.07269327e-003 8.90655164e-003
      6.99512780e-001 -1.00168008e-002 -1.29538644e-002 -1.05947703e-002
      -2.06578919e-003 2.01832780e-004 -4.41088714e-003 -4.13670065e-003
      4.87184763e-001 -1.33291045e-002 -9.90904123e-003 -1.43596129e-002
      5.77934203e-004 1.81022973e-004 3.77558847e-003 -3.42698162e-003
      2.68426150e-001 -2.36485153e-002 1.70236686e-003 9.25000943e-003
      -7.70126842e-003 9.16266162e-003 9.42745755e-005 1.94482284e-003
      -3.62889953e-002 -4.71204184e-002 -4.16951440e-002 3.83711816e-003
      3.24832718e-003 1.73080880e-002 2.56535765e-002 2.08193846e-002
      -3.79148751e-001 1.57701597e-001 1.43238068e-001 4.33985516e-002
      3.34003903e-002 5.49065955e-002 4.84225228e-002 4.40716259e-002
      -1.94379672e-001 -5.32350969e-004 5.39761058e-005 4.11358848e-003
      1.21649657e-003 -9.02406173e-004 -2.38719443e-003 -4.65228409e-003
      -2.75592595e-001 9.03917104e-003 -9.75099020e-003 -5.66493813e-003
      -5.40932233e-004 -2.36389693e-003 -1.33170490e-003
      -6.90672686e-003 -2.29911178e-001 1.27544338e-002 1.58964172e-002
      2.70054070e-003 5.14809880e-003 8.93767551e-003 -2.24388810e-003
      5.23858704e-003 -5.83505869e-001 2.71722712e-002 2.66977437e-002
      1.40532339e-002 -4.61676298e-003 1.26566365e-002 1.40912961e-002
      1.83668770e-002 -5.77997684e-001 1.13744713e-001 8.04756358e-002
      8.86945948e-002 6.65590316e-002 5.49744740e-002 3.02754380e-002
      2.36593075e-002 -1.66533454e-016 0. 0. 0. 0. 0. 0. 0.
      -5.77750146e-001 -8.35156010e-004 3.43726226e-003 9.13568959e-003
      3.49509693e-003 -2.65878602e-003 9.51850601e-003 1.49406381e-002
      -5.56055963e-001 1.41089754e-002 9.95955803e-003 -2.95265741e-003
      -3.23267956e-003 -6.84793200e-003 -1.42515441e-002
      -3.33139236e-004 -6.34803236e-001 -2.95079332e-002
      -1.76711921e-002 -9.58746392e-003 8.42996128e-003 1.22232353e-002
      2.12319698e-002 1.17787849e-002 -6.39880657e-001 1.87922902e-002
      4.90125269e-003 1.69754010e-002 1.04805427e-002 2.04710290e-002
      1.10536581e-002 1.65307242e-002 2.86961664e-002 -4.70919758e-001
      -2.87521690e-001 -1.52743205e-001 -1.58023257e-002 4.40435857e-002
      4.21760641e-002 4.47502136e-002 -3.91594693e-003 9.81693272e-004
      1.28033731e-004 -3.20476174e-005 -1.01486905e-004 9.79911769e-004
      1.46986777e-003 0. -4.40430343e-001 6.58427086e-003
      -3.22776427e-003 -7.57809612e-004 5.93745965e-004 -2.00652541e-003
      8.80320149e-004 5.52123552e-003 -3.89581531e-001 -5.04826522e-003
      8.98081530e-003 -9.90697462e-003 9.49028064e-004 -2.07566353e-003
      9.10458341e-003 9.07475315e-003 -1.73491240e-001 6.89207111e-003
      6.68988843e-003 1.09043950e-002 1.21185072e-002 1.61798988e-002
      8.26962572e-003 1.95141900e-002 4.47578579e-002 1.89523082e-002
      2.80756131e-003 1.16014071e-002 3.18969004e-002 2.47544907e-002
      1.72484536e-002 1.78207792e-002 7.22945435e-003 5.07285411e-004
      3.29402182e-003 2.09810622e-002 1.85406730e-002 2.60678772e-002
      2.04974245e-002 2.83581577e-002 2.30345293e-003 1.59864388e-002
      3.09534110e-002 4.45361696e-002 9.10315737e-002 1.40792340e-001
      2.01809376e-001 1.89625114e-001 2.50051945e-001 1.58743758e-003
      -2.33521033e-003 -2.71089352e-003 -5.52924071e-003
      -4.33535315e-003 -2.70221219e-003 -1.17437821e-003 3.25968385e-001
      -1.22899571e-002 -2.59324512e-003 -4.32724366e-003
      -8.47048243e-004 -7.54070375e-003 -6.87777065e-003
      -5.58785815e-003 5.23486674e-001 -2.00490002e-003 -1.37074981e-002
      -2.32411386e-003 2.34642345e-003 1.22523156e-003 -6.31595869e-003
      -7.35744415e-003 5.81252158e-001 5.78533206e-003 -4.12440486e-003
      6.55080518e-003 1.00801494e-002 -2.75481911e-003 1.23412721e-003
      8.89654458e-003 2.59705275e-001 2.61319093e-002 3.54912505e-002
      1.12240091e-002 1.97119340e-002 3.01312488e-002 3.29351462e-002
      4.45721336e-002 1.78032950e-001 2.51243301e-002 6.49868771e-002
      8.04447308e-002 5.48981465e-002 6.58975542e-002 1.69868395e-001
      1.44180924e-001 1.59048706e-001 -4.53302963e-003 5.19295782e-003
      -1.21028768e-003 2.91786535e-004 4.94926004e-003 -2.68644257e-003
      -3.07287835e-003 -4.29148488e-002 -5.16082102e-004 3.41043645e-003
      -3.58871440e-003 -2.66625173e-003 -2.51244940e-003 2.96956906e-003
      2.65179970e-003 -2.09658846e-001 2.39162380e-003 1.93101913e-003
      2.45204079e-003 -1.12545735e-003 4.35443828e-003 -3.43605236e-004
      5.84056415e-003 -3.33068252e-001 6.84221089e-003 4.57503833e-003
      6.51677512e-003 5.70585020e-003 4.19005426e-003 9.04057827e-003
      3.99554707e-003 -1.84147403e-001 -2.08846986e-001 -1.68088689e-001
      -1.31151333e-001 -3.71187478e-002 -2.35662516e-002 5.04068891e-003
      2.30161026e-002 5.76385646e-004 -5.76385937e-004 0. 0. 0. 0. 0. 0.
      9.63061154e-002 -1.36710778e-002 -9.02430806e-003 -4.77140257e-003
      -4.44627274e-003 3.94527800e-003 5.72746061e-003 -5.66641567e-003
      5.08707315e-002 -2.78437138e-003 8.15794617e-003 -4.78406809e-003
      -7.41566546e-005 -5.73971774e-003 -8.12555489e-004
      -8.09983909e-003 1.52439296e-001 4.37893718e-003 -5.06553659e-003
      -1.14343502e-003 -1.55740557e-003 -4.26690141e-003 1.11917704e-002
      -9.38620698e-003 2.05562338e-001 1.36144590e-002 6.75842632e-003
      1.46227907e-002 1.14834383e-002 5.38512319e-003 1.01126935e-002
      1.22226495e-002 1.88033238e-001 1.61909666e-002 2.59022471e-002
      1.10508837e-002 8.28072336e-003 2.17591468e-002 1.45007083e-002
      2.05832887e-002 1.28185138e-001 4.25002538e-002 7.20979124e-002
      4.06066217e-002 5.89880645e-002 1.47161722e-001 1.28875211e-001
      1.87535435e-001 -6.52071178e-001 2.40650191e-003 -7.57385045e-004
      -3.40304989e-003 -4.46675345e-003 5.80492616e-003 -4.21256479e-003
      -8.51439685e-003 -4.63554740e-001 -1.26225350e-003
      -4.76933643e-003 -4.67156898e-003 -1.75414071e-003
      -1.18774772e-002 -3.66069213e-003 -5.76812588e-003
      -2.47446612e-001 1.34979084e-003 8.89875647e-003 1.48344701e-002
      3.67128151e-003 2.86778226e-003 -3.14592524e-003 -3.61071760e-003
      -9.34038833e-002 1.54896490e-002 1.46036251e-002 -5.68161625e-003
      -2.83186743e-003 4.27952083e-003 1.38677321e-002 -1.26582617e-003
      6.21065944e-002 4.42990148e-003 7.45238131e-003 2.78958143e-003
      1.79722644e-002 1.13144657e-002 5.90670248e-003 4.29432373e-003
      8.71513113e-002 4.10034647e-003 2.74135731e-002 -2.79005058e-002
      2.72555016e-002 1.24713138e-001 1.64266154e-001 2.07820505e-001
      -2.41283208e-001 -1.68278262e-001 -9.44637597e-001 1.45467026e-002</_>
    <_>
      5.45141697e-001 1.45339803e-003 8.48139077e-003 7.93247670e-003
      7.43361888e-003 5.04615484e-003 1.25946729e-002 -1.72501453e-003
      4.43020642e-001 6.94270618e-003 8.29731394e-003 1.40522104e-002
      9.57146008e-003 1.66831519e-002 1.13466906e-003 1.44106532e-002
      2.20065296e-001 1.16940299e-002 1.38865141e-002 1.05241528e-002
      2.01319717e-002 1.14821075e-002 1.09409969e-002 1.37945153e-002
      2.86811978e-001 1.43947126e-002 2.09573135e-002 2.15776395e-002
      1.85725056e-002 1.74493156e-002 1.91686470e-002 2.13417802e-002
      1.77359670e-001 3.97783220e-002 5.09558357e-002 4.90888320e-002
      5.72135784e-002 8.41394812e-002 8.00054818e-002 9.43125114e-002
      1.53336050e-002 5.20254634e-002 1.17356040e-001 2.33109191e-001
      3.15241188e-001 4.97995466e-001 3.32059711e-001 2.08981946e-001
      -7.38661066e-002 6.37606811e-003 9.75674205e-003 -1.46686926e-003
      5.07168192e-003 2.72904220e-003 -2.16642697e-003 1.69369094e-002
      1.15132123e-001 2.78894091e-003 -4.61636577e-003 1.53479388e-003
      2.11050792e-005 -2.86693708e-003 -3.23391357e-003 2.73870840e-003
      2.16407746e-001 1.59365591e-004 -1.60089065e-003 1.30333134e-003
      5.01238508e-003 -1.59894978e-003 -9.14705358e-003 3.73237708e-004
      1.89482570e-001 5.81445824e-003 1.34482719e-002 6.66279439e-003
      -2.04182090e-003 -1.52351419e-002 3.67417210e-003 -5.77233266e-003
      2.66783327e-001 -1.48854209e-002 -2.03893986e-002 2.03656871e-002
      -1.95157155e-002 -3.16906981e-002 -1.12896515e-002
      -3.50582637e-002 3.92612606e-001 -3.88765149e-002 -4.40004170e-002
      -1.18961386e-001 -9.70279202e-002 -4.67206649e-002
      -1.11613339e-002 -2.12315358e-002 -1.32484525e-001 2.28491053e-003
      -1.61580706e-003 6.30624359e-003 8.81651213e-005 5.72332321e-003
      -1.68503320e-005 -2.78324867e-003 -2.23340899e-001 1.76129472e-002
      2.44177342e-003 2.03443272e-003 3.09004972e-004 1.33054350e-002
      3.99988750e-003 2.91246385e-003 -1.23713672e-001 6.67722244e-003
      1.36532867e-002 -1.23017246e-003 1.49658334e-003 7.63382250e-003
      1.98955159e-003 1.51772273e-003 -3.61066103e-001 1.68436561e-002
      3.15748528e-002 1.18721440e-003 1.22567508e-002 6.25070743e-003
      1.40307639e-002 9.32461396e-003 -2.02308565e-001 3.92028466e-002
      2.68010329e-002 4.07279134e-002 2.61485744e-002 2.83940006e-002
      9.39563848e-003 3.11697768e-005 -9.99200722e-016 0. 0. 0. 0. 0. 0.
      0. -2.72477120e-001 -3.81470029e-003 -4.26597428e-003
      1.10802073e-002 9.54705756e-003 -7.63234263e-003 2.88096606e-003
      1.23206852e-002 -1.75807312e-001 1.44332657e-002 1.65622383e-002
      1.32474694e-002 7.70950457e-003 1.16721159e-002 -2.65603792e-003
      4.55224793e-003 1.09022409e-002 -1.37207527e-002 -5.81209734e-003
      6.98631769e-003 -1.35075944e-002 -1.11044524e-002 -1.63734369e-002
      -9.57822427e-003 -1.25231192e-001 -7.80788669e-003
      -1.40014673e-002 -1.08934548e-002 -9.56091378e-003
      -9.55758058e-003 -1.92185137e-002 -4.70273942e-003 5.99173736e-003
      1.02921247e-001 7.73231983e-002 3.06069180e-002 -3.77942156e-003
      1.75617617e-002 -7.06894416e-003 -2.51723938e-002 -4.92030475e-003
      1.43402175e-003 1.40227654e-004 4.78007219e-004 0. 9.56014439e-004
      1.43402175e-003 0. 5.07874012e-001 5.05100470e-003 4.99024242e-003
      7.00791646e-003 2.44284864e-003 5.67072630e-003 2.47251871e-003
      1.15592992e-002 3.15662980e-001 -8.70695896e-003 4.03338857e-003
      -3.28038610e-003 2.99106492e-003 -3.87112173e-004 8.86594038e-003
      5.31682093e-003 8.12184662e-002 5.58289001e-003 1.64774642e-003
      1.15478151e-002 4.51989844e-003 1.43276686e-002 4.18366486e-004
      1.55198080e-002 1.06166571e-001 3.76925827e-003 4.21943516e-003
      3.99543811e-003 7.29021570e-003 1.04083596e-002 7.44453445e-003
      1.45127624e-002 1.09959319e-001 9.45747457e-003 2.34272704e-003
      1.87237822e-002 1.77215934e-002 1.94534529e-002 1.76396500e-002
      1.47177419e-002 1.07445844e-001 2.15854999e-002 3.92315723e-002
      5.32226563e-002 1.42521679e-001 1.60861731e-001 1.64574310e-001
      1.86685115e-001 1.83561474e-001 -7.30189448e-003 -5.12926746e-003
      -8.49553908e-005 -6.42901240e-003 -7.03310873e-003
      -3.24247731e-003 -2.45984481e-003 3.75022203e-001 1.71491236e-004
      -7.33916229e-003 -5.76409418e-003 -1.99707109e-003 1.85796979e-003
      -1.12791676e-002 -9.36277956e-003 4.42171782e-001 -2.21156026e-003
      -4.37370781e-003 4.05475358e-003 -1.35536003e-003 -1.31968351e-003
      3.28192883e-003 -1.00623816e-002 4.37302142e-001 -1.07411714e-002
      -2.60311924e-003 -3.25525878e-003 -1.25431735e-003
      -2.13460298e-003 2.28069094e-003 4.29952098e-003 3.91738683e-001
      3.71183865e-002 3.50699015e-002 2.19955705e-002 2.20865030e-002
      2.16085277e-002 2.71617025e-002 1.47834634e-002 2.26392776e-001
      3.91138941e-002 5.12780510e-002 9.79416445e-002 1.26203954e-001
      1.22900024e-001 1.51444465e-001 1.59319490e-001 -1.10540271e-001
      -2.90017668e-003 -1.92787556e-004 6.03121240e-004 -2.81482236e-003
      9.53941781e-004 1.46276108e-003 5.80911350e-004 -7.77318552e-002
      -2.79745716e-003 5.07281255e-003 3.62148625e-003 -2.45194091e-003
      -4.48897714e-003 -1.00823445e-003 -1.75526377e-003 1.56307533e-001
      -9.01566073e-003 1.01772137e-003 -7.78674323e-004 -3.64306645e-004
      -4.54005040e-003 -3.40080447e-003 4.14919015e-003 1.93553269e-001
      6.75033138e-004 2.77267373e-003 1.20608294e-002 -2.28151301e-004
      -3.08349100e-003 8.86905752e-003 -1.42679852e-003 7.00358674e-002
      1.43912975e-002 -1.71623509e-002 2.34821290e-002 1.52360043e-002
      -3.48970178e-004 3.23329377e-003 8.96834861e-003 -9.99200722e-016
      0. 0. 0. 0. 0. 0. 0. 4.81865257e-001 -8.70164763e-003
      -2.43585813e-003 -4.10478190e-003 2.23304494e-003 5.92949288e-003
      4.49072057e-003 -3.26965307e-003 3.74919981e-001 -5.40063111e-003
      -1.77697279e-004 -1.75989885e-003 -3.90635803e-003 1.06343324e-003
      -1.17821456e-003 1.73865899e-003 3.72386098e-001 2.90125329e-003
      -3.05979932e-003 1.59224524e-004 -7.08990311e-003 6.75065676e-003
      6.72583422e-003 -1.00485852e-003 2.72271991e-001 1.24195060e-002
      -2.41512177e-003 7.14304857e-003 2.34471820e-002 2.48844619e-003
      1.59696229e-002 2.40208320e-002 2.12621614e-001 1.64234973e-002
      1.44988280e-002 1.20277395e-002 2.04308778e-002 2.17503384e-002
      2.01975442e-002 1.20365154e-002 1.70665696e-001 4.17252593e-002
      4.41524163e-002 5.91765232e-002 1.09079845e-001 1.50290012e-001
      1.45568326e-001 1.75371364e-001 2.42110416e-001 9.05371271e-003
      2.20541935e-003 3.15537816e-003 8.85448512e-003 1.22622857e-002
      2.97954213e-003 3.19648720e-003 2.38608241e-001 5.96504007e-003
      1.02711876e-003 2.99395132e-003 4.60093981e-003 3.91450990e-003
      2.08564001e-004 8.30476545e-003 3.16933900e-001 5.58939856e-003
      1.09294234e-002 9.37252305e-003 1.06673306e-002 -7.70944078e-003
      1.05615109e-002 5.97249158e-003 2.33122751e-001 9.60034318e-003
      5.67598548e-003 -1.87877205e-003 -9.06661712e-003 4.81933868e-003
      1.40293576e-002 5.03398478e-003 1.66126415e-001 1.34909377e-002
      9.20228660e-003 1.08939121e-002 1.79074276e-002 1.17324293e-002
      1.31050870e-002 1.37448264e-002 1.36774912e-001 2.50203107e-002
      3.46204080e-002 5.30315638e-002 1.09743729e-001 1.27924904e-001
      1.61468074e-001 2.00173959e-001 3.85026425e-001 2.72926748e-001
      2.65187025e-002 2.94770394e-002</_>
    <_>
      9.79156867e-002 -1.75482454e-003 1.92498637e-003 -2.60923291e-003
      4.82459459e-003 -9.65028594e-004 1.30988180e-003 3.64478352e-003
      1.07757166e-001 4.62702505e-004 2.74963654e-003 4.13352624e-004
      1.42569188e-004 4.16987389e-003 9.00242885e-004 6.41029840e-003
      5.17649427e-002 4.03479813e-003 3.48315621e-003 2.95428606e-003
      7.27841863e-003 1.92930002e-003 4.73808544e-003 5.56246052e-003
      5.72348498e-002 -2.41242611e-004 1.96513603e-003 4.57720784e-003
      1.76521600e-003 5.67845115e-003 8.45508184e-003 8.55204836e-003
      3.43780369e-002 9.23942588e-003 -3.46576399e-003 3.35056288e-003
      6.62951171e-003 9.25989076e-003 1.10701425e-002 -7.10956985e-004
      2.98743777e-004 6.09352160e-003 2.53366493e-002 1.92133412e-002
      3.54402773e-002 1.11051328e-001 5.40303551e-002 -8.30545835e-003
      2.77332813e-001 -7.34452996e-003 3.04446719e-003 2.45155999e-003
      -7.94237386e-003 -1.09951485e-004 -1.35113671e-002 7.96941388e-003
      2.75658727e-001 3.62721708e-004 -4.90144175e-003 1.43572816e-003
      -5.56302350e-003 -1.30252978e-002 -6.05206797e-003
      -4.77937143e-003 1.56758040e-001 -3.45706218e-003 -1.06308758e-002
      -8.41139816e-004 -1.39983906e-003 -2.30869511e-003 4.94574569e-003
      1.05851493e-003 1.27968937e-001 -4.04995168e-004 -2.15714728e-003
      1.40451360e-003 -5.62395854e-003 -5.34752384e-003 1.34385715e-003
      -1.55962482e-002 1.47221386e-001 -5.37931770e-002 -4.99597080e-002
      -2.04244945e-002 -2.54028048e-002 5.15116495e-004 -1.13538997e-002
      -7.94712920e-004 2.87916437e-002 -5.33301421e-002 9.23256669e-003
      1.63722932e-002 3.29598263e-002 2.37412658e-002 1.72522608e-002
      7.22893514e-003 -2.85529286e-001 5.79056516e-003 2.09737755e-005
      4.73282440e-003 3.16370209e-003 6.32899767e-003 2.50712456e-003
      1.16069382e-003 -3.77317816e-001 6.84384350e-003 -1.41351321e-003
      -2.35559215e-004 -1.73155754e-003 7.18489150e-003 3.20632849e-003
      8.10573809e-003 -1.56371817e-001 7.13020517e-003 8.62643588e-003
      -1.15083612e-003 3.07160459e-004 6.48882706e-003 1.12424616e-003
      2.53424235e-003 -4.32248533e-001 -7.30374362e-003 9.00962297e-003
      2.84930528e-003 5.99247916e-003 6.84374245e-003 1.08150793e-002
      8.27892497e-003 -4.01815861e-001 6.15574978e-002 5.03135212e-002
      7.07288235e-002 5.47367893e-002 4.90355343e-002 2.28077471e-002
      1.79902501e-002 -2.22044605e-016 0. 0. 0. 0. 0. 0. 0.
      -3.72408807e-001 -7.00864010e-004 -4.18332056e-004 4.58605960e-003
      1.12505478e-003 -5.18645067e-003 1.87721686e-003 8.63632839e-003
      -3.80447835e-001 3.26674664e-003 7.22230505e-003 8.15849099e-003
      1.71040103e-003 5.23882220e-003 2.56957114e-003 8.87945201e-003
      -2.03075781e-001 -9.84104071e-003 2.04615601e-004 7.40008149e-003
      -5.49127953e-003 -6.63525425e-003 3.07341293e-003 -3.00829741e-003
      -2.30712280e-001 -1.05546014e-002 -5.96438069e-003
      -6.14626845e-003 -4.70810244e-003 4.29714099e-003 -5.86578576e-003
      7.65384221e-003 -1.07645921e-001 -4.28296402e-002 -1.42176664e-002
      -2.68358700e-002 -4.09712410e-003 -1.15788607e-002
      -6.77967723e-003 -8.80149193e-003 -2.22044605e-016 0. 0. 0. 0. 0.
      0. 0. -1.12204328e-001 -5.14841266e-003 4.22611862e-004
      1.47602707e-003 -4.82490333e-003 1.77518663e-003 -6.44272892e-003
      -3.70594644e-005 -1.52330920e-001 -1.11306338e-002
      -1.84562450e-004 -6.15654234e-003 -2.47400394e-003
      -6.80086389e-003 5.18978480e-003 -5.40157966e-003 -1.24257319e-001
      4.86562727e-003 -3.05087026e-003 4.17990331e-003 4.59950464e-003
      -1.99004845e-003 -4.67909500e-003 2.16804002e-003 -8.57748464e-002
      -2.75347615e-003 -1.59735475e-002 2.94894469e-003 3.93818598e-003
      -2.22406420e-003 -1.34761608e-003 4.12878813e-003 3.04890405e-002
      -9.61154047e-003 -9.56266467e-003 5.95076801e-003 -8.03647749e-003
      -1.38638392e-002 -5.22723375e-003 -7.98848050e-004 1.28237735e-002
      8.30370001e-003 -3.60818370e-003 -1.56537071e-003 1.59213052e-003
      2.09587608e-002 7.98248779e-003 2.11372040e-002 2.28493109e-001
      -1.59455871e-003 -2.32402817e-003 -3.26493545e-003
      -1.69882341e-003 -2.10634060e-003 -1.54946360e-003
      -9.56590381e-003 2.52087563e-001 -3.04910471e-003 1.12740272e-004
      -3.41923180e-004 -7.85111077e-003 -2.27893307e-003
      -5.14250598e-004 4.00907375e-005 3.61709148e-001 -2.32351071e-004
      -5.63355209e-003 -6.92438288e-003 -1.07384976e-002
      -1.31577440e-003 -1.27094227e-003 -7.05216080e-003 2.92134911e-001
      -5.03836991e-003 -8.88231397e-003 7.69227063e-006 2.34782323e-003
      -1.06656514e-002 -8.77348147e-003 -5.70388744e-004 2.91599389e-002
      9.41345375e-003 1.00842146e-002 7.97319598e-003 4.30448353e-003
      1.93489343e-002 2.06509195e-002 9.00096260e-003 4.46255086e-003
      -4.24267957e-003 -5.12976339e-003 6.75114430e-003 2.14622673e-002
      4.33198102e-002 4.89466153e-002 4.32716534e-002 -1.16611592e-001
      -4.14606137e-003 -1.30201795e-003 -9.66885418e-004
      -1.42972497e-003 5.56037948e-003 1.10512925e-003 -4.98658931e-003
      -2.77191788e-001 7.55205110e-004 9.70258936e-003 2.19408469e-003
      2.43676850e-003 -1.79876608e-003 -1.62976910e-004 4.71117161e-003
      -2.21093625e-001 -4.94193472e-003 -3.43955960e-003
      -7.16330856e-003 -1.62759535e-002 -1.17530935e-002
      -8.67139082e-003 -3.54996882e-003 -2.64888793e-001
      -5.18577173e-003 -2.18692399e-003 1.07906302e-002 -1.25077879e-003
      -1.24064012e-004 3.96035565e-003 1.76856783e-003 1.30745932e-001
      -5.99348657e-002 -8.38870257e-002 -8.98221582e-002
      -5.27268350e-002 -5.71881048e-002 -6.49868175e-002
      -2.66484246e-002 -2.22044605e-016 0. 0. 0. 0. 0. 0. 0.
      4.60081846e-001 2.51159276e-004 4.11332725e-003 -5.87340153e-004
      -2.21080286e-003 1.77042466e-003 3.54669779e-003 -3.92016303e-003
      4.61876154e-001 1.37973088e-003 4.95415833e-003 1.99058070e-003
      2.02455849e-004 3.53805046e-003 3.02398519e-004 -1.52463908e-003
      3.28638285e-001 2.31257104e-003 -1.63886603e-003 -6.11986406e-003
      -2.77149328e-003 6.02099637e-004 1.55192125e-003 -1.24706514e-003
      2.42304817e-001 1.91238918e-003 1.56787151e-004 3.50379501e-003
      7.54225021e-003 -5.10938640e-004 1.03539042e-002 -4.28333646e-003
      8.67682695e-002 2.40402622e-003 5.01883309e-003 9.64415167e-003
      7.84692646e-004 3.14744958e-003 -1.43188541e-003 1.63609430e-003
      3.49430032e-002 7.63870217e-003 1.32961739e-002 2.16099024e-002
      1.47701269e-002 3.74079123e-002 3.63844261e-002 7.49612525e-002
      1.00131124e-001 1.80683599e-003 -1.87641999e-003 -7.98408699e-004
      1.99693069e-003 1.01820780e-002 -2.99336831e-003 -1.24645338e-003
      9.29252431e-002 -3.36444093e-004 -2.09498242e-003 -2.03577452e-003
      3.49279842e-004 3.02398519e-004 -1.47478201e-003 3.58445686e-003
      2.61363741e-002 2.01017247e-003 1.10313541e-003 8.66220053e-003
      3.89839581e-004 -4.77369642e-003 6.17487170e-003 -9.97589063e-003
      -6.41329214e-002 5.46965143e-003 -2.31319224e-003 -8.57050298e-004
      -4.38527390e-003 1.57259370e-003 5.57617377e-003 3.17471358e-003
      3.27536389e-002 3.24801309e-003 1.08969351e-003 1.75741932e-003
      -5.78472763e-003 -1.60279758e-002 -5.44142257e-003 3.41845036e-004
      1.68376565e-002 -7.05442717e-003 -1.02913557e-002 -3.01565276e-003
      5.41930413e-003 -8.53718352e-003 2.89231148e-002 4.59650494e-002
      -3.21949661e-001 -3.54221433e-001 -9.37862933e-001 1.39652134e-003</_>
    <_>
      1.95437104e-001 -2.62812874e-003 1.09142682e-003 6.51110022e-004
      2.92176916e-003 -3.06760473e-003 1.73735432e-003 -2.05388176e-003
      2.60842383e-001 3.32087371e-003 -1.89500093e-003 1.66864635e-003
      -2.47459044e-004 3.92466597e-003 -4.67154291e-003 6.60303701e-003
      1.29004464e-001 8.24315008e-003 1.06110834e-002 9.17721167e-003
      1.68242734e-002 1.26964552e-002 8.90764967e-003 1.45716835e-002
      1.92455351e-001 8.02176539e-003 1.12013854e-002 1.46555193e-002
      1.64698139e-002 1.79792941e-002 2.13412084e-002 1.71316415e-002
      1.13021411e-001 3.01847402e-002 3.20146307e-002 3.09489369e-002
      3.92087735e-002 4.90212925e-002 4.81739938e-002 5.78039400e-002
      7.98876490e-003 3.24558057e-002 8.82645845e-002 1.48146048e-001
      1.26408562e-001 1.83293685e-001 5.00287674e-002 -4.55513299e-002
      2.22489625e-001 2.19766254e-004 5.42895868e-003 -1.46356376e-003
      -1.36050477e-003 -3.93738970e-003 -3.73858190e-003 1.12805646e-002
      3.21139336e-001 -5.19106863e-003 -6.55676192e-003 -1.41779974e-003
      -4.21607960e-003 -6.51481841e-003 -9.73848160e-003
      -4.16822731e-003 3.61151129e-001 -6.94802962e-003 -1.24498839e-002
      -1.06371762e-002 -8.43377598e-003 -3.86321358e-003
      -1.12552627e-003 -5.32922288e-003 2.86407292e-001 -6.84241066e-003
      6.20778371e-003 -2.96305539e-003 -1.44009953e-002 -1.12942755e-002
      -5.27792238e-003 -1.90026183e-002 1.76914409e-001 -2.97415704e-002
      -2.73683425e-002 -1.53837483e-002 -3.21740694e-002
      -4.49772589e-002 -4.22096215e-002 -5.53292744e-002
      -4.65552397e-002 -1.69996440e-001 -6.86246455e-002
      -2.64242832e-002 2.54630148e-002 4.08158787e-002 5.04928827e-002
      5.05464710e-002 -1.12283297e-001 -6.61882665e-003 -8.40147585e-003
      -6.40553143e-003 -6.31427485e-003 -8.02900409e-004
      -1.81386212e-003 -6.32419577e-003 1.31690642e-002 -8.86253268e-003
      -2.48588976e-002 -2.32534818e-002 -1.96471103e-002
      -8.36403202e-003 -1.27810752e-002 -1.14271985e-002
      -1.38294429e-001 -7.85613153e-003 -2.04637088e-003
      -1.19741382e-002 -5.98835899e-003 4.17018728e-003 8.23892420e-004
      2.41126958e-003 -2.80155271e-001 -5.90575337e-002 -3.76594774e-002
      -3.78295295e-002 -2.53913552e-002 -8.68206657e-003 1.75242219e-003
      1.45987337e-002 -4.65002388e-001 6.11431263e-002 5.82092069e-002
      7.61287138e-002 5.76049611e-002 5.67823425e-002 2.65120678e-002
      1.97091624e-002 -1.38777878e-016 0. 0. 0. 0. 0. 0. 0.
      2.09866405e-001 -2.17399374e-002 -1.42221190e-002 -7.86960777e-003
      -9.41454992e-003 -1.89686306e-002 -1.24870334e-002
      -2.25000922e-003 2.30710313e-001 -1.51450913e-002 -1.92884393e-002
      -1.12242792e-002 -2.13900451e-002 -2.70416010e-002
      -2.41269264e-002 -1.70710701e-002 -1.66028246e-001
      -1.46195870e-002 -7.93377031e-003 3.16027808e-003 -1.13283759e-002
      -1.11578424e-002 -8.66462756e-003 -1.29829114e-002
      -3.46668750e-001 5.61141351e-004 -7.07849162e-003 3.63404863e-003
      -2.54628854e-003 5.46894735e-003 -1.33410314e-004 6.17260579e-004
      1.21865630e-001 -1.92252144e-001 -8.78821909e-002 -8.10890868e-002
      -3.64538766e-002 -1.12006655e-002 -2.14187428e-002
      -1.73512939e-002 -3.90542438e-003 1.17162685e-003 0.
      3.90542235e-004 0. 7.81084469e-004 1.17162685e-003 0.
      3.38224061e-002 7.45453360e-003 2.74953223e-003 7.74694898e-004
      9.06990550e-004 9.94455419e-004 -2.50243512e-003 4.82723908e-003
      -1.33125968e-002 -2.05691159e-003 7.40344869e-003 -1.74251408e-003
      7.21131731e-003 -2.02315114e-003 7.36692874e-003 2.98731681e-003
      1.22407138e-001 2.36293068e-003 -4.85787308e-003 5.58467908e-003
      2.55334168e-003 3.32275406e-003 1.12733606e-003 9.42821614e-003
      2.37221792e-001 -3.23537795e-004 1.53323531e-003 9.46747139e-003
      7.19453208e-003 7.82231148e-003 3.76506150e-003 4.04329598e-003
      1.22540869e-001 6.01472706e-003 2.70514749e-003 1.28381876e-002
      1.11157671e-002 1.31180855e-002 1.08229853e-002 2.04539094e-002
      7.55282268e-002 1.79195069e-002 2.45272964e-002 3.49712968e-002
      9.31700766e-002 9.17997807e-002 8.40230510e-002 8.34964663e-002
      3.00679326e-001 -1.00149751e-004 -5.94438659e-003 2.58778251e-004
      -2.80226604e-003 -1.55278191e-003 -2.17961337e-004
      -3.20226932e-003 3.97274792e-001 1.13554159e-003 1.21340633e-003
      -3.81074776e-003 -2.46215751e-003 -2.56229448e-003
      -2.55143910e-004 -3.77242221e-003 6.08771503e-001 2.08247220e-003
      -4.50618565e-003 1.08680257e-003 -1.17362733e-003 1.01820267e-004
      -3.95840092e-004 6.48947433e-003 6.41037762e-001 -3.86121613e-003
      -5.09971380e-003 4.05297801e-003 1.98285840e-003 -8.72824062e-003
      -4.47689975e-003 3.27157066e-003 2.61945695e-001 2.77522039e-002
      2.41305009e-002 1.96082592e-002 1.10370228e-002 2.27754619e-002
      2.22817250e-002 1.81008913e-002 1.42228931e-001 2.94092372e-002
      3.88652459e-002 6.17588498e-002 8.68814439e-002 5.94165549e-002
      7.70483986e-002 7.47751817e-002 2.02773839e-001 -6.04814757e-003
      -9.82190832e-004 -2.41147657e-003 7.42662407e-004 1.85986387e-003
      -2.78134085e-003 -2.64578080e-003 2.15673909e-001 -4.09919443e-003
      2.47467891e-003 -5.85219963e-003 -5.11805853e-003 -4.39254660e-003
      -6.02907222e-003 -1.27566454e-003 3.02554071e-001 -9.64880642e-003
      -1.03420531e-002 -1.19843762e-002 -8.67636967e-003
      -6.20126817e-003 -8.43006093e-003 -8.24978389e-003 2.55811274e-001
      -8.40081088e-003 -8.03259946e-003 5.92501659e-004 -1.56251192e-002
      -7.15260813e-003 -2.34117475e-003 -6.81072706e-003 2.77356416e-001
      -1.10436670e-001 -6.85615540e-002 -1.62949096e-002
      -1.50530450e-002 -2.46004928e-002 -2.73184869e-002
      -1.27405934e-002 -1.38777878e-016 0. 0. 0. 0. 0. 0. 0.
      6.18817098e-003 -4.00571246e-003 -2.41465447e-003 -2.83075520e-003
      -2.08443333e-003 3.97097290e-004 2.90134014e-003 -3.45034571e-003
      1.18267208e-001 -4.62216185e-003 4.20527812e-003 1.56223355e-003
      -1.53411459e-003 -1.94876781e-003 -3.23342672e-003
      -1.40338985e-003 2.04149485e-001 7.60445651e-003 1.10124692e-003
      3.52756208e-004 6.63852971e-003 9.04274825e-003 6.46766229e-003
      1.90583779e-003 2.59660929e-001 1.31437657e-002 1.86768055e-004
      6.64279191e-003 2.30202433e-002 1.66260917e-003 5.68363955e-003
      8.04503681e-004 1.68120667e-001 1.25632491e-002 1.82382837e-002
      1.62194669e-002 1.03897210e-002 1.33901807e-002 1.54648777e-002
      1.48466714e-002 1.24599956e-001 4.09184881e-002 5.11033721e-002
      6.03003465e-002 6.37269467e-002 6.58897460e-002 3.85735892e-002
      7.59157315e-002 -2.19916582e-001 6.23556739e-003 -1.58720461e-004
      -1.07143866e-003 2.33403081e-003 8.14624690e-003 -6.77941774e-004
      -6.04465487e-004 -1.20650053e-001 1.20840047e-003 -8.39884509e-004
      8.52528610e-004 1.38277293e-003 -1.91719655e-003 -1.55092054e-003
      3.92958568e-003 5.73556945e-002 5.48864668e-003 9.17538442e-003
      1.22605655e-002 7.44849956e-003 2.62717693e-003 6.47335639e-003
      4.74332040e-003 1.62017360e-001 1.39422072e-002 1.68863535e-002
      1.82058208e-003 2.14718399e-003 6.52878452e-003 1.30402325e-002
      8.40691477e-003 8.11207592e-002 1.02296956e-002 3.82628385e-003
      3.52174090e-003 1.53738959e-002 6.70817960e-003 8.39061476e-003
      9.90966149e-003 7.85840303e-002 1.59868784e-002 2.32365970e-002
      3.62181365e-002 6.83197901e-002 7.60615095e-002 4.50205430e-002
      6.40042275e-002 -3.19545832e-003 -3.73014482e-003 -5.97419858e-001
      -1.15284450e-001</_>
    <_>
      3.48662445e-003 3.54331787e-005 9.21262617e-005 4.25198123e-005
      3.54331787e-005 5.66930867e-005 8.50396245e-005 5.66930867e-005
      3.51497112e-003 7.08663574e-005 2.83465433e-005 6.37797202e-005
      1.13386173e-004 7.08663574e-005 6.37797202e-005 7.08663574e-005
      1.97044131e-003 1.48819337e-004 1.55905975e-004 1.41732715e-004
      2.12599058e-004 1.70079249e-004 9.92128917e-005 1.41732715e-004
      2.35347613e-003 2.90552038e-004 2.48032244e-004 2.62205518e-004
      1.98782422e-004 2.69292155e-004 2.62205518e-004 2.69292155e-004
      8.32346093e-004 5.60200831e-004 6.45240420e-004 7.09020183e-004
      7.44810037e-004 1.02154538e-003 1.12004508e-003 9.07445967e-004
      1.35002701e-004 1.09169853e-003 2.92076380e-003 2.80630775e-003
      1.91410491e-003 8.57482897e-004 1.37142531e-004 1.05613908e-002
      2.05410421e-001 -6.48297928e-003 -2.53027561e-003 -8.63882992e-003
      -8.04190710e-003 -9.27145779e-003 -1.03982203e-002 6.08886546e-003
      2.34056219e-001 -1.14500932e-002 -1.43411774e-002 -8.15143529e-003
      -1.23906024e-002 -1.02833733e-002 -1.24411946e-002
      -1.19659938e-002 1.54968247e-001 -2.56242324e-002 -3.04755066e-002
      -3.03046405e-002 -2.46820394e-002 -2.04347856e-002
      -1.38456328e-002 -2.06869133e-002 9.52633247e-002 -4.80237268e-002
      -3.47434282e-002 -3.46395634e-002 -4.22444381e-002
      -3.60369831e-002 -2.52909698e-002 -2.41875481e-002
      -3.61046456e-002 -1.21283211e-001 -6.72131106e-002
      -3.10875960e-002 -1.99457556e-002 -9.15165525e-003
      -4.50658891e-003 1.63748232e-003 -2.69969404e-001 3.66349006e-003
      2.99426503e-002 2.10203510e-002 7.25460984e-003 1.99712012e-002
      3.44052762e-002 4.16052639e-002 -2.44863629e-001 5.20575093e-003
      -6.97964424e-005 5.16394433e-003 2.55752541e-003 2.58551538e-003
      2.53626565e-003 -6.30664508e-005 -3.63654226e-001 9.73831769e-003
      1.93440984e-003 2.05551018e-003 1.96163380e-003 9.88078304e-003
      4.64950595e-003 7.29813986e-003 -1.33665621e-001 5.20575093e-003
      5.25535736e-003 2.83465433e-005 -4.18065429e-005 2.52244901e-003
      2.64893845e-003 2.55752541e-003 -4.05715525e-001 2.36302265e-003
      1.00954892e-002 2.32758955e-003 7.36895343e-003 4.83479537e-003
      5.01444470e-003 1.53153790e-002 -3.53200376e-001 4.88122664e-002
      4.34864014e-002 5.91380149e-002 4.60573845e-002 4.34513241e-002
      2.01420188e-002 1.23277418e-002 5.55111512e-017 0. 0. 0. 0. 0. 0.
      0. -1.06233954e-001 -2.00007334e-002 -2.24725232e-002
      -1.54794073e-002 -1.85204092e-002 -1.99899394e-002
      -1.69534553e-002 -8.23483616e-003 2.63646752e-001 1.23841944e-003
      6.03870535e-003 1.29921362e-003 9.93022113e-004 -1.41933002e-003
      5.38466498e-004 3.01130884e-003 -4.37303007e-001 -4.78404516e-004
      -5.53075166e-004 4.68616746e-003 -9.63459373e-004 -4.66119964e-004
      1.85763231e-003 -6.43913401e-004 -3.63028347e-001 -9.38435405e-005
      -2.44037219e-005 7.56775588e-003 3.94282051e-006 5.09420037e-003
      2.49235216e-003 7.67437927e-003 3.68090540e-001 -2.30591721e-003
      -1.58906616e-002 -9.34042260e-002 -1.46080256e-001
      -1.73964605e-001 -1.42322659e-001 -8.86486992e-002 5.55111512e-017
      0. 0. 0. 0. 0. 0. 0. 6.27745390e-002 2.62767868e-003
      2.12599061e-005 2.59260205e-003 7.08663574e-005 2.65602511e-003
      6.37797202e-005 5.24118403e-003 1.04651228e-002 4.25198123e-005
      2.62767868e-003 3.54331787e-005 7.85468891e-003 4.25198123e-005
      2.53626565e-003 2.66311178e-003 5.60413636e-002 5.24827046e-003
      2.16165427e-005 2.64220848e-003 -6.37336325e-006 4.28764433e-005
      1.48819337e-004 2.72689154e-003 8.15421864e-002 4.78562179e-005
      9.99261611e-005 2.80484441e-003 2.93240394e-003 5.40489005e-003
      2.97638675e-004 2.78429780e-003 7.28887413e-003 2.83465433e-005
      3.57898134e-005 5.70497177e-005 1.70079249e-004 2.91858730e-003
      4.04294871e-004 5.65220881e-003 2.35557952e-003 2.74142134e-003
      7.23193400e-004 1.80036202e-003 1.52469659e-003 1.32591417e-003
      1.10622845e-003 6.09938009e-003 4.68638428e-002 2.58551538e-003
      -2.09032714e-005 2.12599061e-005 1.41732717e-005 3.54331787e-005
      2.56425561e-003 2.12599061e-005 5.66988923e-002 5.66930867e-005
      2.64893845e-003 4.99630805e-005 2.83465433e-005 2.65963081e-005
      1.45299045e-005 -2.76332739e-005 1.37332872e-001 7.79990205e-006
      2.19731737e-005 1.70435873e-004 7.15796268e-005 2.71271821e-003
      4.32330853e-005 2.63512181e-003 1.46289259e-001 1.11992566e-004
      2.72514136e-003 9.28395311e-005 5.30532049e-003 8.32893929e-005
      2.64292187e-003 2.66382517e-003 1.48693938e-002 7.91989546e-003
      5.43287955e-003 3.40158498e-004 5.65010216e-003 5.57959219e-003
      2.86225090e-003 3.38408281e-004 1.15338457e-003 5.39654226e-004
      3.68430046e-003 6.82894699e-003 6.69465773e-003 8.79756827e-003
      3.48341116e-003 3.13687953e-003 2.28146330e-001 -5.80315338e-003
      -3.68318288e-003 -5.98891219e-003 -3.22970422e-003
      -1.57610513e-003 -4.42852173e-003 -6.40864763e-003 3.03551465e-001
      -3.99546669e-004 5.40661998e-003 -4.81766037e-004 -3.74482392e-004
      -5.18487301e-004 -2.98593356e-003 -4.07914136e-004
      -2.53968239e-001 2.98067136e-003 3.35100619e-003 -1.95704843e-003
      3.66241642e-004 2.06729688e-004 5.88872819e-004 7.60867668e-004
      -2.49618784e-001 1.71234633e-003 9.21971572e-004 1.18282959e-002
      1.59042724e-003 1.36615126e-003 9.46068298e-003 1.66063302e-003
      3.10957879e-001 -1.98816750e-002 -3.08343284e-002 -3.74716781e-002
      -6.36184067e-002 -8.99791643e-002 -1.00192718e-001
      -8.05576518e-002 -7.08666585e-006 0. 7.08663583e-006 0. 0. 0. 0.
      0. 3.54259238e-002 2.83465433e-005 2.59968871e-003 2.53626565e-003
      2.62059201e-003 2.53415876e-003 2.58305203e-003 -6.72999931e-006
      1.69814490e-002 -4.18065429e-005 3.56636292e-007 6.37797202e-005
      2.59933202e-003 4.25198123e-005 -5.59798136e-005 -3.68267720e-005
      3.20862830e-002 9.92128917e-005 1.20472803e-004 1.52431785e-005
      7.12229885e-005 5.22736739e-003 2.64220848e-003 2.64256517e-003
      6.50903657e-002 1.84252523e-004 2.70634494e-003 7.65593941e-005
      5.23979031e-003 2.64117145e-003 2.66418164e-003 1.84252523e-004
      1.06546693e-002 2.62205518e-004 2.95437709e-003 4.11024841e-004
      4.53544693e-004 2.98272376e-003 3.69218324e-004 3.48315050e-004
      1.22264391e-002 6.81030273e-004 1.46127352e-003 6.94233319e-003
      4.13004542e-003 3.54826078e-003 3.05430335e-003 2.78501119e-003
      3.03679779e-002 7.72784278e-003 -1.38166370e-005 2.49410234e-003
      7.70693924e-003 7.73492921e-003 1.45299045e-005 1.45299045e-005
      4.37224917e-002 -4.18065429e-005 -1.34599986e-005 1.41732717e-005
      2.59260205e-003 -4.88931801e-005 1.45299045e-005 2.58551538e-003
      9.47691500e-002 -1.34599986e-005 5.22063719e-003 7.79162254e-003
      5.22063719e-003 7.15796268e-005 7.84087181e-003 2.64220848e-003
      1.02366626e-001 7.89756514e-003 7.96134491e-003 2.81228777e-003
      2.90908676e-004 2.81228777e-003 1.05822943e-002 5.24261035e-003
      7.65595259e-003 2.59260205e-003 2.74850801e-003 2.73433467e-003
      1.77522525e-004 2.92567397e-003 3.83391598e-004 3.09575326e-003
      5.21711726e-003 2.35998770e-004 3.65595403e-003 4.83233575e-003
      4.44292696e-003 6.50367513e-003 5.97146386e-003 3.13154305e-003
      2.64156181e-002 -1.52605906e-001 -1.38777878e-017 -2.39796668e-001</_>
    <_>
      8.48578811e-002 -1.22105505e-003 2.44499650e-003 4.18691430e-003
      2.81428196e-003 -1.61346060e-003 1.98155642e-003 2.53802212e-003
      9.38300043e-002 2.57480470e-003 5.80096210e-004 1.18885865e-003
      7.97455548e-004 5.58290584e-003 8.52461555e-004 5.61927026e-003
      3.33338194e-002 2.97248218e-004 3.67993023e-003 4.70244931e-003
      6.61251787e-003 3.56585253e-003 3.36600002e-003 5.44648292e-003
      1.64312050e-002 -1.37519499e-003 5.24718547e-003 3.99082573e-003
      1.95594318e-003 3.81763652e-003 8.96870159e-003 5.65107912e-003
      2.45691109e-002 7.75477523e-003 6.34866301e-003 3.61749833e-003
      1.07124457e-002 1.01795373e-002 1.45153143e-002 1.52913788e-002
      -4.25651995e-003 2.25710007e-003 2.66471338e-002 3.10071316e-002
      5.92567287e-002 1.22407474e-001 6.81428909e-002 2.35259477e-002
      3.67187500e-001 -7.01658078e-004 7.85359740e-003 -5.66603965e-004
      -2.02890113e-003 -1.99687365e-003 -3.06734303e-003 1.64097361e-002
      4.20571417e-001 -4.66858939e-004 -3.63795133e-003 2.77501694e-003
      -1.75044150e-003 -4.28981241e-003 -6.36432599e-003 1.09326921e-003
      2.92147845e-001 -3.58430762e-003 -1.08348997e-002 -8.51210114e-003
      -3.39258532e-003 -4.69610933e-003 3.42188450e-003 1.43802597e-003
      1.88003033e-001 -1.59491338e-002 -5.64561877e-003 -9.40185972e-003
      -2.08005980e-002 -7.53860828e-003 -5.22667076e-003
      -1.00503536e-002 2.06843633e-002 -8.05395469e-002 -1.09957913e-002
      7.11177848e-003 -2.61747115e-003 5.19274268e-003 3.94832762e-003
      4.49598022e-003 -1.50905997e-001 4.07764837e-002 5.22476695e-002
      1.22597758e-002 1.86460409e-002 1.63769722e-002 3.14127393e-002
      4.16558124e-002 -7.78642520e-002 2.03393726e-003 -2.25525745e-003
      3.02952109e-003 -2.16535511e-004 3.17471684e-003 4.79831826e-004
      -4.88584768e-003 -1.42132625e-001 3.77013418e-003 -4.65712789e-003
      -6.41315477e-003 -3.17907805e-004 9.95899551e-003 7.45496596e-004
      8.64288886e-004 -7.78783560e-002 3.20007652e-003 4.44558496e-003
      -2.12473818e-003 1.39853393e-004 1.35094416e-003 -3.75499995e-003
      2.73178401e-003 -3.72185260e-001 1.79101410e-003 1.01685086e-002
      2.58853007e-003 8.26678239e-003 3.76290921e-003 4.96985298e-003
      1.26881972e-002 -3.54392797e-001 5.83041906e-002 4.66318615e-002
      6.19657449e-002 4.46451157e-002 4.83058766e-002 1.42799234e-002
      8.64108279e-003 -2.77555756e-017 0. 0. 0. 0. 0. 0. 0.
      -1.45800203e-001 -4.85238107e-003 -3.27108381e-003 3.20748123e-003
      -4.10685409e-003 -8.39165132e-003 -4.06453735e-004 1.07074082e-002
      -1.24332041e-001 -4.36850591e-003 -1.21315417e-003 1.92985137e-003
      -3.06881918e-003 -6.36424450e-003 -7.58497324e-003 6.21634652e-004
      -2.39109665e-001 -3.45449569e-003 -6.02813438e-003 5.32130420e-004
      -4.89985989e-003 -3.30684939e-003 -3.42040742e-003
      -6.76434627e-003 -3.17142248e-001 -4.81066247e-003
      -4.34590969e-003 5.25027420e-003 1.19759608e-003 9.58607253e-003
      3.57401557e-003 9.01645329e-003 2.10554972e-002 -1.32917762e-001
      -1.12654164e-001 -6.45847172e-002 -3.96461263e-002
      -1.71594322e-002 -2.48425687e-003 -4.66842949e-003
      -2.77555756e-017 0. 0. 0. 0. 0. 0. 0. -6.07686192e-002
      4.74327430e-003 1.20985252e-003 1.18640997e-003 -1.45011663e-003
      2.55326298e-003 -1.91168999e-003 3.83525109e-003 -1.12777978e-001
      -2.08033668e-003 2.35929084e-003 -7.13221787e-004 5.28381811e-003
      -1.03009527e-003 6.25474518e-003 4.86194761e-003 -2.90992204e-002
      6.48211176e-003 -1.03668973e-003 4.12463071e-003 1.62729970e-003
      1.58157700e-003 -9.11135750e-004 4.97743580e-003 1.61699783e-002
      -6.43796957e-005 -1.50307617e-003 2.21831957e-003 3.05823423e-003
      6.12019794e-003 1.21258094e-003 1.11545913e-003 2.44081188e-002
      -4.33632900e-004 -6.60561910e-003 4.81419777e-003 1.58916647e-003
      4.27376013e-003 -3.33553733e-004 8.83753598e-003 1.83999352e-002
      2.74666795e-003 6.49403082e-003 6.96303649e-003 1.32148499e-002
      2.04036683e-002 1.24674961e-002 2.50888932e-002 4.05079752e-001
      1.23295991e-003 -2.39843363e-003 -1.47137011e-003 -3.75534827e-003
      6.35142263e-004 4.19023527e-005 -1.04026322e-003 3.45847636e-001
      -1.13799050e-003 4.84589575e-004 -3.71891330e-003 -9.68019711e-004
      1.60561631e-005 4.20167169e-004 -2.68855458e-003 3.51180911e-001
      -1.76181071e-004 1.83347991e-004 1.27158337e-003 -3.90268839e-003
      1.52235711e-003 1.08171988e-003 -2.36648391e-003 3.70665610e-001
      -1.82497187e-003 5.85660280e-004 -1.08344620e-003 4.78244678e-004
      -7.13109458e-003 -5.01997210e-003 4.07556631e-003 8.11765864e-002
      1.48274619e-002 1.50662828e-002 8.42793193e-003 8.96051992e-003
      1.98418554e-002 1.94790699e-002 1.17052915e-002 3.41302752e-002
      8.61613918e-003 1.87293645e-002 3.21394689e-002 3.47864032e-002
      4.11068797e-002 5.31233810e-002 4.71446440e-002 1.59052968e-001
      -7.44946022e-003 -2.37490237e-003 -9.81771573e-003
      -3.18427407e-003 -3.92432744e-003 -8.30658770e-004
      -2.33304244e-003 2.30433285e-001 -2.64222920e-003 2.54858937e-003
      6.71548478e-004 -3.68545228e-003 -2.28631264e-003 -3.48394527e-003
      -4.49830433e-003 3.10502611e-002 -2.39502732e-003 -3.68108085e-005
      -6.24416582e-003 -6.13473728e-003 -3.07064923e-003
      -5.81550412e-003 -3.47487163e-003 -7.17079416e-002
      -1.67727564e-003 -1.19642245e-004 7.33461138e-003 -3.97710968e-003
      -4.00300123e-005 5.89780556e-003 -2.43705302e-003 9.64137726e-003
      -1.18132420e-001 -9.88223702e-002 -5.85311018e-002
      -4.21356745e-002 -2.18674373e-002 -5.96504938e-003 9.21253022e-003
      2.01612711e-003 -2.01612897e-003 0. 0. 0. 0. 0. 0. 2.40450755e-001
      -2.64190458e-004 3.70804424e-004 1.25087565e-003 1.53829157e-003
      2.79857370e-004 4.65824595e-003 -2.15332722e-003 1.66145399e-001
      -2.41579677e-004 3.21456022e-003 -1.62428082e-003 9.31916002e-004
      1.20832317e-003 -1.34614587e-003 -2.83165975e-003 1.07645907e-001
      1.52404595e-003 -2.76779616e-003 -7.78333191e-003 3.10905487e-003
      4.34379047e-003 2.42722942e-003 1.05616695e-003 1.14091754e-001
      7.20221456e-003 2.34438572e-003 3.54553689e-004 1.44721754e-002
      2.04765843e-003 7.34057184e-003 -2.10933504e-003 5.39676584e-002
      -2.00816221e-003 4.96202521e-003 2.50704214e-003 4.15453658e-004
      7.07102753e-003 3.27916723e-003 2.91010365e-003 4.42211181e-002
      1.06836646e-003 1.25352899e-002 2.05309819e-002 2.22164467e-002
      3.71775851e-002 1.20167993e-002 5.89142404e-002 -1.63774177e-001
      7.09217228e-003 -1.02873903e-003 7.46602484e-004 6.08302560e-003
      8.14871956e-003 -1.71484309e-003 -4.24715737e-003 -1.36221558e-001
      2.13746773e-003 -3.58756003e-003 6.13292912e-004 3.14642384e-004
      -3.42007983e-003 -1.47784001e-003 1.22613553e-003 -6.37353212e-002
      2.50472012e-003 4.21267701e-003 8.58393032e-003 2.24070740e-003
      -8.56792438e-004 6.43494725e-003 -8.60443615e-005 -2.49422565e-002
      1.09628793e-002 6.12690160e-003 -7.12276786e-004 -3.03187105e-003
      3.40921408e-003 1.03092771e-002 3.10902391e-003 -8.23081878e-004
      2.73335422e-003 9.77204065e-004 -1.78172335e-003 2.88955402e-003
      4.70524159e-004 2.24271812e-003 3.34789790e-003 1.45974103e-002
      -2.39527621e-003 -1.83534587e-003 2.99813692e-003 7.24250916e-003
      1.25900144e-002 1.33597385e-002 4.45288010e-002 -2.23079488e-001
      4.85064276e-002 -8.85905385e-001 -3.02908812e-002</_>
    <_>
      -1.35618411e-002 -6.01623848e-004 -2.13330204e-004
      -1.91833860e-005 -4.07477026e-004 -6.27201691e-004
      -6.14412769e-004 -6.20807230e-004 -6.08018320e-003
      -4.20265947e-004 -6.08018308e-004 0. -2.06935743e-004
      -2.00541283e-004 -2.19724665e-004 -1.91833860e-005 0. 0. 0. 0. 0.
      0. 0. 0. -4.39449330e-004 -1.91833860e-005 -4.33054869e-004
      -6.20807230e-004 -6.33596152e-004 -1.21603662e-003
      -2.23792624e-003 -8.96810670e-004 8.19274806e-004 -3.19723113e-005
      -1.12292974e-003 -7.90914986e-004 -3.00326361e-003
      -3.78112192e-003 -3.18589294e-003 -3.91899003e-003 0.
      -6.39446171e-006 -9.59169338e-005 -1.52297074e-003
      -8.25646799e-003 -1.41102644e-002 -1.18620917e-002
      -1.22690620e-002 -1.66823536e-001 -4.83856862e-003
      -1.64748298e-003 -6.87595364e-003 -9.66984592e-003
      -8.85294937e-003 -7.33230682e-003 -8.56546964e-003
      -1.42341375e-001 -1.01997145e-002 -9.68323555e-003
      -1.87979005e-002 -1.66617967e-002 -1.35094142e-002
      -7.92133436e-003 -3.94733716e-003 -1.55657619e-001
      -2.82976478e-002 -2.40344126e-002 -8.99692252e-003
      -6.99188467e-003 -3.57351918e-003 -5.91797940e-003
      -4.41998942e-003 -1.97245300e-001 -3.58911939e-002
      -1.15229758e-002 -1.01810284e-002 -8.57829582e-003
      -4.98228334e-003 -6.99850172e-003 -3.66995204e-003
      -2.74043530e-001 -2.53680926e-002 -1.37502719e-002
      -6.98245596e-003 -9.16756981e-004 3.13632685e-004 9.10547096e-003
      5.26597491e-003 -2.73877680e-001 1.62914898e-002 1.80902779e-002
      2.64285114e-002 2.82809995e-002 2.25526243e-002 1.82121303e-002
      1.81044824e-002 -8.57269317e-002 1.15283963e-003 1.59332657e-003
      3.24676326e-003 1.34620001e-003 3.18595744e-003 2.61166086e-003
      1.66878873e-003 -1.86385855e-001 1.59650026e-005 5.05105767e-004
      -2.62491987e-003 2.61518930e-004 6.69188623e-004 -1.55442904e-004
      1.58880802e-003 -3.25817359e-003 7.61781586e-004 0. 0.
      2.49639357e-004 0. 0. 0. -5.31541146e-002 2.30529346e-003
      4.56667366e-003 2.48534628e-003 3.47413565e-003 2.93055316e-003
      2.20463634e-003 5.10923844e-003 -5.34765236e-002 1.14479782e-002
      1.37450220e-002 8.43460578e-003 7.51295779e-003 4.43966035e-003
      2.41726264e-003 1.65548094e-003 -1.11022302e-016 0. 0. 0. 0. 0. 0.
      0. -2.26679176e-001 -1.52203313e-003 -2.93236575e-003
      -4.92648734e-003 -2.07497552e-003 -3.25698196e-003
      -5.97145315e-003 -7.04453280e-003 -2.61001974e-001
      -1.06998498e-003 -2.99586100e-003 -1.90790059e-004
      -7.51236978e-004 -3.49686039e-003 -3.44503392e-003
      -2.01402511e-003 -1.39060557e-001 1.59662566e-003 2.17028544e-003
      1.82289409e-003 -6.08018308e-004 3.78254382e-003 2.38369009e-003
      2.47885450e-003 -4.51693013e-002 1.19846163e-003 -1.64232129e-004
      2.22119328e-004 1.00431486e-003 1.66150578e-003 1.17804785e-003
      3.13525926e-003 -1.17036201e-001 -8.74821171e-002 -1.46299705e-001
      -1.31926350e-002 1.72394793e-002 2.95020528e-002 3.04902755e-002
      3.38805765e-002 -1.11022302e-016 0. 0. 0. 0. 0. 0. 0.
      -6.70877770e-002 -8.02165130e-004 -1.01549528e-003
      -6.27201691e-004 -6.20807230e-004 -6.01623848e-004
      -6.01623848e-004 -1.00270635e-003 -6.20637648e-002
      -5.52525802e-004 -4.20265947e-004 -3.77562304e-004
      -6.39446171e-006 -8.08559591e-004 -4.07477026e-004
      -1.21603662e-003 -5.79342954e-002 -6.14412769e-004
      -4.20265947e-004 -6.27201691e-004 -9.72791691e-004
      -2.21234839e-003 -1.22243108e-003 -6.08018308e-004
      -5.68014495e-002 -1.23522000e-003 -7.35866663e-004
      -8.14954052e-004 -8.02165130e-004 -2.26905366e-004 2.98812025e-004
      -5.65314724e-004 -1.15490966e-002 -1.09095743e-003
      -1.61711918e-003 -1.42297230e-003 -1.31707662e-003
      -1.85602717e-003 -8.60501488e-004 -1.09735189e-003
      -3.23072006e-003 -1.67979242e-003 -1.83684379e-003
      -2.90861796e-003 -2.90222350e-003 -2.47762050e-003
      -3.51305190e-003 -3.70615721e-003 -1.06710948e-001
      -4.13871487e-004 -8.53320817e-004 -1.83044933e-003
      -8.14954052e-004 -1.49204012e-003 -2.04377947e-003
      -1.04746758e-003 -9.17088762e-002 -8.14954052e-004
      -6.14412769e-004 -8.96810670e-004 -4.76544723e-004
      -6.39990612e-004 -1.28510431e-003 -4.20265947e-004
      -6.15692064e-002 -9.17224505e-004 -1.31707662e-003
      -1.85041898e-003 5.91177013e-005 -7.02663907e-004 -9.91975074e-004
      -7.91433791e-004 -5.40767051e-002 -2.72849062e-003 3.64249630e-004
      -5.35325380e-004 -4.03926417e-004 -9.78667289e-004
      -2.83315568e-003 -2.45765108e-003 -5.29679283e-003
      -8.66109738e-004 -1.05386204e-003 -8.40531895e-004
      -1.31707662e-003 -8.59715277e-004 -1.53167814e-003
      -6.52779534e-004 -5.88962343e-003 5.90431009e-005 7.06761909e-007
      -6.11460418e-004 -1.63892470e-003 -3.34500172e-003
      -2.93090870e-003 -2.84977094e-003 -3.61357212e-001
      -1.68618688e-003 1.01821352e-004 -1.13055483e-003 -7.62230833e-004
      -3.07206390e-003 -9.79336983e-005 -1.37155422e-003
      -2.64568359e-001 -1.86960236e-003 -1.80053466e-003
      -6.99557422e-004 -2.37093866e-003 -1.65548595e-003
      -7.91182392e-004 -3.23700742e-003 -3.63059431e-001
      -1.71265798e-003 -1.68506359e-003 -2.24192627e-003
      -2.23553181e-003 -1.89951702e-003 -1.55800139e-003
      -4.73438355e-004 -3.59357387e-001 1.93084741e-003 3.81112914e-004
      2.31196033e-003 2.81079486e-003 6.43615786e-004 1.81312580e-003
      5.25894226e-004 -2.23325431e-001 -7.62968287e-002 -8.58786777e-002
      -2.04828214e-002 -9.55984090e-003 -1.00564640e-002
      -7.40881590e-003 -3.63935926e-003 -1.11022302e-016 0. 0. 0. 0. 0.
      0. 0. -9.44103152e-002 -1.25440338e-003 -1.48052245e-003
      -1.26079784e-003 -1.27358676e-003 -1.05386204e-003
      -1.46133907e-003 -1.43576122e-003 -7.66588673e-002
      -1.63630256e-003 -1.95067283e-003 -1.52401242e-003
      -5.96768165e-004 -1.48691691e-003 -8.59715277e-004
      -1.70664163e-003 -7.71789625e-002 -1.25440338e-003
      -1.48691691e-003 -1.05386204e-003 -2.30699405e-003
      -2.74644326e-003 -2.06296286e-003 -1.66188041e-003
      -8.23649019e-002 -1.24161446e-003 -2.89710029e-003
      -8.98082100e-004 -1.46773353e-003 -8.46926356e-004
      -2.39524525e-003 -8.59715277e-004 -2.33157109e-002
      -1.46133907e-003 -6.33596152e-004 -1.04746758e-003
      -1.42936676e-003 -1.84323825e-003 -1.03467866e-003
      -1.00910082e-003 -1.45517597e-002 -3.29818297e-003
      -1.02828420e-003 -3.34294420e-003 -4.07477003e-003
      -3.40688881e-003 -2.97383382e-003 -3.28308111e-003
      -9.33122337e-002 -1.04107312e-003 -6.27201691e-004
      -8.21348513e-004 -1.03467866e-003 -1.22882554e-003
      -1.41657784e-003 -1.02188974e-003 -7.66056776e-002
      -1.23522000e-003 -1.42936676e-003 -1.45494461e-003
      -8.34137434e-004 -4.39449330e-004 -8.34137434e-004
      -4.20265947e-004 -7.72523284e-002 -1.02188974e-003
      -1.02828420e-003 -1.82405487e-003 -1.02188974e-003
      -1.01549528e-003 -1.23522000e-003 -6.20807230e-004
      -7.63934031e-002 2.79628643e-004 -2.41928431e-003 -1.02828420e-003
      -1.22243108e-003 -8.34137434e-004 -1.62990810e-003
      -2.05017393e-003 -1.61496960e-002 -2.45125662e-003
      -1.62351364e-003 -8.21348513e-004 -1.44215568e-003
      -2.01180717e-003 -8.40531895e-004 -2.41928431e-003
      -8.84708110e-003 -3.44756851e-003 -3.47954081e-003
      -2.46404554e-003 -4.30088956e-003 -2.54077907e-003
      -4.14919062e-003 -3.51559464e-003 -8.20173509e-003 1.55976012e-001
      -1.77847192e-001 -1.70846079e-002</_>
    <_>
      -2.70572454e-002 0. -1.27334661e-005 0. 0. -1.34649547e-003 0.
      -1.34649547e-003 -2.83655394e-002 -2.69299094e-003 0. 0. 0.
      -1.34649547e-003 0. -1.34649547e-003 -1.62470806e-002 0.
      -1.35922898e-003 0. -1.34649547e-003 0. -1.35922898e-003
      -2.69299094e-003 -2.42369194e-002 0. -1.35922898e-003
      -1.34649547e-003 -1.34649547e-003 -1.27334661e-005
      -2.70572444e-003 0. -2.28904225e-002 -1.35922898e-003
      -1.34649547e-003 -1.35922898e-003 0. 0. -1.27334661e-005
      -2.70572444e-003 -1.07719637e-002 -1.34649547e-003
      -1.34649547e-003 -1.34649547e-003 -4.05221991e-003
      -8.09170678e-003 -2.56459974e-002 -3.10203303e-002
      -1.93728000e-001 -3.58056873e-002 -2.81336475e-002
      -2.66178139e-002 -1.60601605e-002 -1.57656558e-002
      -1.52517082e-002 -1.27391526e-002 -1.86209098e-001
      -4.38004024e-002 -3.23164500e-002 -2.40071882e-002
      -2.21703146e-002 -1.82419065e-002 -1.33051183e-002
      -9.93264653e-003 -2.01890841e-001 -5.71477935e-002
      -4.01564762e-002 -2.88895220e-002 -1.23484954e-002
      -1.05351927e-002 -1.36302281e-002 -1.16765937e-002
      -2.68034577e-001 -7.47473314e-002 -3.21530961e-002
      -3.09276842e-002 -1.93491951e-002 -1.98130012e-002
      -1.58653539e-002 -1.01282671e-002 -4.12723243e-001
      -6.91256747e-002 -4.03448008e-002 -8.48890562e-003 8.54168367e-003
      -2.09588441e-003 1.69796105e-002 6.84054755e-003 -4.18823272e-001
      3.06783058e-002 1.08377263e-002 4.11690474e-002 5.00114709e-002
      4.22738828e-002 2.53302958e-002 3.28067243e-002 -1.26011044e-001
      1.36924966e-003 -4.03713166e-005 8.48127529e-003 1.30612415e-003
      4.15868312e-003 2.70192442e-003 1.38144125e-003 -3.10701758e-001
      3.91891459e-003 2.74743279e-003 1.07908924e-003 3.89453117e-003
      1.04088534e-003 2.54912279e-003 2.57404451e-003 2.42019771e-003
      1.38252496e-003 -3.76585413e-005 -2.49250752e-005 -2.49250752e-005
      -3.82003927e-005 -3.82003927e-005 0. -7.65246004e-002
      5.26486430e-003 1.11433733e-002 3.99260223e-003 3.98204010e-003
      8.24150722e-003 8.36613216e-003 9.67116933e-003 -5.19642457e-002
      1.51487095e-002 1.40016116e-002 8.27482715e-003 1.39959324e-002
      4.01481474e-003 -1.47763011e-003 -1.91005471e-004 -1.47104551e-015
      0. 0. 0. 0. 0. 0. 0. -2.68879116e-001 -3.67303714e-002
      -3.58265564e-002 -2.67075039e-002 -2.12521590e-002
      -1.49341943e-002 -1.80205666e-002 -1.15094325e-002
      -1.22005835e-001 -2.69573677e-004 -1.51094678e-003 1.26466912e-003
      1.31614483e-003 2.56077270e-003 -1.73852360e-003 1.23811851e-003
      -2.87292480e-001 1.00214663e-003 5.31200552e-003 3.96930659e-003
      -3.29444534e-004 6.65795524e-003 6.80858968e-003 6.64468016e-003
      -9.41139683e-002 2.56239832e-003 -2.76885083e-004 2.44996441e-003
      2.63825711e-003 4.12048260e-003 3.98149807e-003 8.28973111e-003
      3.80533934e-002 -2.63345719e-005 1.72028150e-002 1.01890946e-002
      -5.94230890e-002 -1.98002249e-001 -2.14785740e-001
      -1.70958042e-002 -1.47104551e-015 0. 0. 0. 0. 0. 0. 0.
      -3.24044861e-002 -1.27334661e-005 0. -1.35922898e-003 0. 0.
      -1.27334661e-005 -2.54669321e-005 -2.84026563e-002 0.
      -2.54669321e-005 -1.34649547e-003 0. -2.54669321e-005
      -1.37196248e-003 0. -3.14372852e-002 -2.69299094e-003
      -2.74338294e-003 -1.35922898e-003 -1.35922898e-003
      -1.35922898e-003 -1.37142057e-003 -2.54669321e-005
      -2.84682419e-002 -2.70572444e-003 1.39471656e-003 0.
      -2.69299094e-003 -1.35922898e-003 -3.95360682e-003
      -2.73064943e-003 -1.50512177e-002 0. -1.27334661e-005
      -2.54669321e-005 0. -2.69299094e-003 -4.03948640e-003
      -3.76585413e-005 -9.66577884e-003 -5.39871538e-003 0.
      -6.73247734e-003 -1.27334661e-005 -1.38415408e-003
      -2.71791616e-003 -2.71791616e-003 -5.81271723e-002
      -1.27334661e-005 0. -2.54669321e-005 -1.27334661e-005
      -1.27334661e-005 0. -1.34649547e-003 -6.12189546e-002 0.
      -1.34649547e-003 -2.54669321e-005 0. -1.27334661e-005 0. 0.
      -5.41248471e-002 -1.32374140e-003 -1.37142057e-003
      -2.49250752e-005 1.05625395e-005 0. -1.34649547e-003
      -1.35922898e-003 -5.99779226e-002 1.40745007e-003 8.58796193e-005
      1.40690815e-003 -3.82003927e-005 -1.39742938e-003 -1.34649547e-003
      -1.38415408e-003 -1.77591145e-002 -1.34649547e-003
      -1.37196248e-003 -6.25836110e-005 -1.35922898e-003
      -4.06495342e-003 -1.37196248e-003 -2.70572444e-003
      -5.56262489e-003 -1.35922898e-003 -5.48730791e-003
      -4.06441139e-003 -4.06441139e-003 -2.74338294e-003
      -1.21821268e-002 -9.48805176e-003 -2.97641158e-001
      -3.01915836e-002 -2.42821760e-002 -2.13057976e-002
      -1.71920769e-002 -1.82771254e-002 -1.25600751e-002
      -1.19729806e-002 2.46145688e-002 -1.66266470e-003 -2.02760031e-003
      -7.58050941e-004 -2.37980252e-003 -2.91542080e-003
      -3.86799173e-003 -9.85085964e-004 -5.47105610e-001 4.05681506e-003
      2.49873078e-003 2.62444001e-003 2.55020661e-003 -2.78510677e-004
      1.06635573e-003 9.67197353e-004 -5.13537109e-001 3.79320537e-003
      -4.30770393e-004 3.84251378e-003 5.21122152e-003 1.03872141e-003
      2.46107229e-003 -3.03435751e-004 -2.03507263e-002 -3.49141867e-003
      -8.23665876e-003 -7.76472734e-003 -4.59718890e-002
      -1.78794637e-001 -1.97360829e-001 -9.64903980e-002
      -1.47104551e-015 0. 0. 0. 0. 0. 0. 0. -6.60709366e-002 0.
      -2.49250752e-005 -4.98501504e-005 -1.27334661e-005
      -1.27334661e-005 -3.76585413e-005 -2.49250752e-005
      -6.48829266e-002 0. 0. -3.76585413e-005 0. -1.27334661e-005 0.
      -2.49250752e-005 -5.99166267e-002 -1.27334661e-005
      -1.38469588e-003 -1.34649547e-003 -4.98501504e-005 0.
      -1.35922898e-003 -1.27334661e-005 -8.11324790e-002
      -1.37142057e-003 -1.35922898e-003 -6.31254661e-005
      -1.34649547e-003 -2.54669321e-005 0. -1.27334661e-005
      -1.08976727e-002 -1.34649547e-003 -1.37142057e-003 0.
      -1.34649547e-003 -1.34649547e-003 -1.37142057e-003 0.
      -1.76290665e-002 -1.34649547e-003 -2.75557465e-003
      -3.82003927e-005 -2.71791616e-003 -1.07846977e-002
      -9.46312677e-003 -1.61961466e-002 -1.09729897e-002 0. 0. 0. 0. 0.
      -1.34649547e-003 0. -9.50078573e-003 -1.34649547e-003
      -1.34649547e-003 0. 0. 0. 0. 0. -4.19318229e-002 0.
      -1.27334661e-005 -1.34649547e-003 -1.34649547e-003
      -1.27334661e-005 -5.38598187e-003 -2.70572444e-003
      -5.82154766e-002 1.43237517e-003 0. -3.82003927e-005
      -2.69299094e-003 -1.34649547e-003 -2.69299094e-003
      -1.37142057e-003 -4.05072980e-002 -1.34649547e-003
      -1.27334661e-005 0. -1.35922898e-003 -1.34649547e-003
      -1.34649547e-003 0. -3.50963883e-002 -4.03948640e-003
      -2.69299094e-003 -1.34649547e-003 -4.10206988e-003
      -1.34649547e-003 0. -2.70572444e-003 2.84646600e-002
      -1.55309401e-002 -4.06589717e-001 -2.27524549e-001</_>
    <_>
      -2.68137082e-002 0. -5.44437906e-004 -9.37611680e-004
      -1.01324380e-003 -4.68805840e-004 -1.51264190e-004
      -7.56320951e-005 -1.55918300e-002 -7.56320951e-005
      -7.56320951e-005 -4.68805840e-004 -1.08887581e-003
      -7.56320951e-005 -9.37611680e-004 -4.68805840e-004
      -7.96969980e-003 -4.68805840e-004 -4.68805840e-004
      -4.68805840e-004 0. -7.56320951e-005 -7.56320951e-005
      -9.37611680e-004 -1.09187849e-002 -7.56320951e-005
      -1.48204959e-003 -1.16450794e-003 -1.08887581e-003
      -1.51264190e-004 -7.56320951e-005 -8.65397567e-004
      -5.84931765e-003 -6.20070030e-004 -1.01666176e-003 1.44428268e-004
      2.95692444e-004 -1.72737718e-003 -1.80300919e-003 -3.41789168e-003
      -9.37611680e-004 -4.68805840e-004 -1.48204959e-003
      -1.51264190e-004 -4.26978664e-003 -7.60179292e-003
      -5.16028190e-003 -6.84071239e-003 -1.80230454e-001
      -6.20070030e-004 -1.94672568e-004 -1.87522336e-003
      -9.44447587e-004 -4.40000033e-004 -5.33773389e-004
      -7.35692447e-004 -1.67433694e-001 -1.08887581e-003
      -8.86956637e-004 8.28787306e-005 -3.26662743e-003 -1.09229388e-003
      -5.69705095e-004 -2.42307922e-003 -1.71302721e-001
      -4.29830234e-003 -1.97583274e-003 -2.42307922e-003
      -1.41325337e-003 -2.57434347e-003 -2.31864140e-003
      -1.31577218e-003 -2.02199534e-001 -6.70131901e-003
      -1.83701946e-003 -4.10199817e-003 -2.63931090e-003
      -2.35770107e-003 4.90775681e-004 -1.70198921e-003 -2.63544261e-001
      -1.59875804e-003 2.09175632e-003 -1.07809075e-003 8.51036166e-004
      -4.04117076e-004 3.90160130e-003 2.95622298e-003 -2.19537973e-001
      1.10513614e-002 1.41836451e-002 1.89732425e-002 1.55444574e-002
      9.88696329e-003 2.00227704e-002 1.23459743e-002 -7.44349062e-002
      3.28112068e-003 1.44217978e-003 2.48866098e-004 3.70651809e-003
      2.78704776e-003 3.42184096e-003 1.21870148e-003 -1.66421220e-001
      7.75162829e-004 2.13224426e-004 -3.71203845e-004 -9.39427046e-005
      1.59031607e-003 -1.28013047e-003 2.36165035e-003 -6.80352375e-003
      2.77551240e-004 0. -4.68805840e-004 2.77551240e-004 0. 0. 0.
      -4.57311794e-002 5.62179659e-004 8.61579960e-004 3.23783280e-003
      8.48795101e-003 2.77992175e-003 2.67548393e-003 2.41961260e-003
      -6.51727021e-002 1.46609079e-002 1.56307425e-002 1.05754677e-002
      6.41439529e-003 5.37234591e-003 3.42896697e-003 2.68260995e-003
      7.63278329e-017 0. 0. 0. 0. 0. 0. 0. -2.66098946e-001
      -1.73113382e-004 1.40589743e-003 3.10800737e-003 3.45777255e-003
      3.25585366e-003 1.92165026e-003 4.89641400e-003 -3.05635422e-001
      9.52104805e-004 -2.80558830e-003 -1.76761605e-004 1.30870589e-003
      -5.37191343e-004 -1.11820176e-003 -4.13637375e-003
      -6.19775727e-002 1.68344844e-003 7.57021597e-004 5.73243713e-004
      0. 1.73752161e-003 -1.91254599e-004 -3.96591699e-004
      -1.67903583e-002 4.25397448e-004 6.70724956e-004 -9.37611680e-004
      8.94203316e-004 -7.89765443e-004 2.77551240e-004 -2.48745491e-004
      -5.70790842e-002 -4.67273518e-002 -1.08081669e-001
      -2.89940760e-002 1.40631907e-002 1.46019896e-002 2.99266391e-002
      2.17316542e-002 7.63278329e-017 0. 0. 0. 0. 0. 0. 0.
      -6.94622770e-002 -9.37611680e-004 -1.40641746e-003 0.
      -1.48204959e-003 -4.68805840e-004 -1.51264190e-004
      -1.08887581e-003 -7.06868321e-002 7.46357080e-004 -1.40641746e-003
      6.70724956e-004 -1.40641746e-003 0. -1.40641746e-003
      -2.34402926e-003 -7.16043711e-002 -4.68805840e-004
      -6.95702096e-004 -1.01324380e-003 2.77551240e-004 -1.01324380e-003
      -1.48204959e-003 -9.37611680e-004 -7.26096705e-002
      -9.37611680e-004 -6.20070030e-004 -9.37611680e-004
      -9.37611680e-004 -1.94672568e-004 -1.08887581e-003
      -2.76218005e-003 -3.36099304e-002 -7.89765443e-004
      -1.40641746e-003 -4.68805840e-004 1.47846222e-004 -1.87522336e-003
      -4.34083777e-005 -7.89765443e-004 -2.23333221e-002
      -3.20959603e-004 -1.40641746e-003 -2.19618296e-003
      -1.01666176e-003 -4.97200934e-004 -1.33762124e-003
      -1.09229388e-003 -1.32876605e-001 -4.68805840e-004
      -1.40641746e-003 -1.40641746e-003 -3.65980132e-003
      -2.81625288e-003 -1.16450794e-003 -1.70894584e-003
      -1.05492584e-001 -1.40641746e-003 -1.40641746e-003
      -2.19618296e-003 -1.72737718e-003 -9.37611680e-004
      -1.72737718e-003 -2.81283492e-003 -6.86264113e-002
      -1.78457797e-003 -1.87864131e-003 -1.82798645e-003
      -2.70304648e-004 -1.87864131e-003 -8.11324571e-004
      -2.36900616e-003 -6.99076280e-002 -1.95085548e-003 4.36061935e-004
      -1.70894584e-003 -1.32353872e-003 -3.06158047e-003
      -3.90171097e-003 -3.11536319e-003 2.03986075e-002 -2.81283492e-003
      -2.34402926e-003 -1.87522336e-003 -7.89765443e-004
      -1.87522336e-003 -3.75044672e-003 -5.15686395e-003 3.43129598e-003
      1.44930568e-003 1.87470333e-003 2.98490818e-003 -1.27723278e-003
      -3.94170126e-003 -2.17143586e-003 -2.44463840e-003
      -3.43130708e-001 -3.20959603e-004 1.64056034e-003 0.
      8.94203316e-004 -1.40641746e-003 6.70724956e-004 2.23907107e-003
      -3.14548969e-001 -9.81020043e-004 5.95092890e-004 -6.60060381e-004
      -1.33420329e-003 -1.87522336e-003 -6.67186338e-004 1.47846222e-004
      -3.19436014e-001 7.46357080e-004 -9.37611680e-004 -4.68805840e-004
      -4.68805840e-004 -9.41029633e-004 4.25397448e-004 2.77551240e-004
      -3.28701049e-001 -2.52671616e-005 8.18571192e-004 7.93304062e-004
      1.31960073e-003 1.47846222e-004 8.87077360e-004 -3.46226763e-004
      -2.48853192e-001 -5.73622398e-002 -5.16280718e-002
      -1.78994425e-002 -7.49871647e-003 -4.26188530e-003
      -6.86413434e-004 1.05996057e-003 7.63278329e-017 0. 0. 0. 0. 0. 0.
      0. -8.38006660e-002 -2.57092551e-003 -2.02648761e-003
      -1.40641746e-003 -1.87522336e-003 -4.29488439e-003
      -1.95085548e-003 -1.01324380e-003 -7.21808523e-002
      -1.87522336e-003 -1.87864131e-003 -8.65397567e-004
      -3.06158047e-003 -2.02648761e-003 -1.55768159e-003
      -1.48204959e-003 -1.02221459e-001 -1.24014006e-003
      -1.01324380e-003 -2.96409917e-003 -1.80300919e-003
      -1.56109966e-003 -2.10211962e-003 -2.57092551e-003
      -1.25523984e-001 -6.20070030e-004 -3.19099543e-003
      -1.87522336e-003 -1.87522336e-003 -2.64655752e-003
      -1.80642714e-003 -1.16450794e-003 -1.14187486e-002
      -2.94908602e-003 -1.63331372e-003 -1.55768159e-003
      -2.25338386e-003 -1.16450794e-003 -2.17775162e-003
      -1.48204959e-003 -1.15394201e-002 -4.43113549e-003
      -2.79782177e-003 -5.29311504e-003 -5.36874728e-003
      -5.53502468e-003 -4.82430914e-003 -7.78840808e-003
      -7.19448328e-002 0. -4.68805840e-004 -7.56320951e-005
      -1.01324380e-003 -7.71334220e-004 -1.87522336e-003
      -1.08887581e-003 -5.06961755e-002 -5.44437906e-004
      -9.37611680e-004 -1.51264190e-004 -1.01324380e-003
      -4.68805840e-004 -1.01324380e-003 -1.70894584e-003
      -4.84074391e-002 -2.02648761e-003 -5.44437906e-004
      -1.01324380e-003 -1.78457797e-003 -1.08887581e-003
      -5.44437906e-004 -6.20070030e-004 -5.21556884e-002
      -6.95702096e-004 -1.70894584e-003 -1.55768159e-003
      -1.87522336e-003 -2.10211962e-003 -1.87522336e-003
      -5.44437906e-004 -3.02528380e-003 -2.26896285e-004
      -3.02528380e-004 -3.78160476e-004 -4.53792571e-004
      -1.51264190e-004 -3.78160476e-004 -1.61830045e-003
      -2.49585905e-003 -3.78160476e-004 -4.53792571e-004
      -1.86020997e-003 -3.26662743e-003 -3.97734297e-003
      -2.87345378e-003 -3.73543333e-003 -3.36843245e-002
      -2.44094878e-002 -1.67698935e-001 -3.01616406e-003</_>
    <_>
      -1.81831270e-002 -2.11655730e-004 -2.25699638e-004
      -2.88227224e-004 -1.03074673e-003 -2.25699638e-004
      -3.62791296e-004 -1.11734727e-003 -3.54199857e-003
      -4.99882910e-004 -3.14307632e-004 -8.86079943e-005
      -4.21317527e-005 -2.07311226e-004 -5.46359166e-004
      -3.48747388e-004 -1.21040328e-004 0. 0. 0. 0. -6.05201640e-005 0.
      -1.21040328e-004 -4.28996049e-004 -2.23692230e-004
      -1.95604385e-004 -2.70168472e-004 -2.70168472e-004
      -2.98256316e-004 -3.74827796e-004 1.36276183e-004 4.11358010e-003
      -1.21040328e-004 6.20107807e-004 1.11917523e-003 9.98134958e-004
      3.17506987e-004 3.03463079e-004 -1.35084236e-004 0.
      -1.21040328e-004 -1.21040328e-004 -7.26241909e-004 3.08735739e-003
      -1.14570921e-005 -1.54124002e-003 1.04133028e-003 -3.35832566e-001
      -2.75497325e-003 4.70887026e-004 -3.69510474e-003 -2.72788410e-003
      -1.09171530e-003 -2.20203097e-003 -4.41767368e-003
      -2.83986270e-001 -3.97330290e-003 3.47267669e-005 1.69260963e-003
      -6.55763038e-003 -6.62889145e-003 -3.76837654e-003
      -2.80231494e-003 -2.32312441e-001 -2.82147224e-003
      -3.78347537e-003 -4.40750876e-003 -2.21891748e-003
      -4.11090674e-003 -3.14967940e-003 -3.36518511e-003
      -2.39514470e-001 -7.71689788e-003 -7.80684350e-004
      -8.77297018e-003 -7.79841607e-003 -5.00813546e-003
      -3.62123339e-003 1.60285132e-003 -2.62298256e-001 -1.58847813e-002
      -9.38022882e-003 -1.00123193e-002 -7.99784064e-003
      -1.46952141e-002 -3.36046028e-003 -5.83362859e-003
      -2.14923263e-001 -3.67094390e-002 -3.67801748e-002 1.62151607e-003
      2.95405462e-002 6.86258124e-003 7.60942511e-003 1.24137886e-002
      -1.24573737e-001 2.80714687e-003 4.01852652e-003 3.99716711e-003
      3.47295590e-003 5.70714753e-003 6.65836269e-003 3.98980267e-003
      -2.58934945e-001 -2.85437726e-003 -5.85259288e-004
      -4.75311559e-003 1.48354284e-003 7.83090887e-004 -3.65641294e-003
      2.48397677e-003 3.32302190e-002 -4.28442052e-003 -5.18360268e-003
      -2.26679724e-003 -6.66500491e-005 -4.91967471e-003
      -2.87423260e-003 -3.14440113e-003 2.20625996e-004 3.20707448e-003
      5.15486719e-003 6.53096102e-003 6.33639749e-003 5.95826516e-003
      5.92477992e-003 5.87952137e-003 -2.36643367e-002 1.71489026e-002
      1.87126603e-002 1.43303992e-002 7.81696197e-003 -3.16539104e-003
      -3.93804582e-003 -4.30112425e-003 -3.33066907e-016 0. 0. 0. 0. 0.
      0. 0. -3.37397456e-001 -2.84478563e-004 1.11552898e-003
      4.54680622e-003 -1.24499144e-003 3.42557393e-003 -4.48117877e-004
      -4.64331871e-003 -5.18361092e-001 -2.05200748e-003
      -1.23797485e-003 -1.55216735e-003 3.99447605e-003 -2.64977501e-003
      -3.14227003e-003 2.70981854e-003 -1.25262113e-002 -5.00704534e-003
      -4.47983015e-003 -4.73531662e-003 -7.48851663e-003 1.33520574e-003
      -2.07187841e-003 -6.97891053e-004 -6.82696374e-003
      -6.96602417e-003 -1.02657722e-002 -2.49326602e-003
      -1.19248976e-003 -5.10665774e-003 -2.06420128e-003 1.59780658e-003
      -4.08786654e-001 -1.26591558e-002 1.13807316e-003 3.44158933e-002
      3.17074582e-002 3.49257737e-002 4.10861075e-002 4.16434333e-002
      -3.33066907e-016 0. 0. 0. 0. 0. 0. 0. -5.60552552e-002
      -2.67831405e-004 -1.07087102e-003 -2.27114162e-003
      -2.93475273e-003 -1.24039501e-003 -1.96653348e-003
      -1.05883449e-003 -5.37425242e-002 -4.45214346e-006
      -1.95604385e-004 -8.41601868e-004 -1.45004329e-003
      -3.60783859e-004 -3.00263724e-004 -3.44098755e-003
      -4.23654839e-002 -2.31895805e-003 -4.13837098e-003
      -2.24640151e-003 -2.58812052e-003 -4.26609255e-003
      -8.28409009e-003 -3.84044414e-003 -5.49677946e-002
      -5.39949117e-003 -2.04438018e-003 -1.00185722e-002
      -3.20637249e-003 -4.35450999e-003 -4.78385808e-003
      -8.98090843e-003 1.20370137e-002 5.63932117e-004 -1.16695832e-004
      -2.80878339e-005 5.31499798e-004 -1.30739747e-004 9.92820482e-004
      3.94408155e-004 1.04294810e-002 5.77976054e-004 -1.77215989e-004
      4.47236293e-004 4.75324108e-004 7.55084329e-004 6.53732044e-004
      -3.41104041e-003 -2.12122589e-001 -2.31561065e-003
      -1.34739140e-003 -3.42493621e-003 -1.31696649e-003
      -2.70786113e-003 -3.40687740e-003 -4.87754261e-003
      -1.27220765e-001 -2.37580109e-003 -5.88490919e-004
      -2.18134187e-003 -1.10612623e-003 -1.68410235e-003
      -1.35222171e-003 -2.85996241e-003 -7.27306306e-002
      -2.94383103e-003 -5.14473813e-003 -5.61585650e-003
      -6.22022245e-003 -5.78806456e-003 -5.55541646e-003
      -5.29728457e-003 -1.54488564e-001 -3.79925780e-003
      -3.80284293e-003 -4.95538954e-003 -4.85755940e-004
      -3.40584153e-003 -6.56933710e-003 -4.34210850e-003
      -1.42098032e-003 -8.64014321e-004 -4.38479614e-003
      -3.30757303e-003 -5.02324523e-003 -5.05331717e-003
      -3.31470906e-003 -4.90006292e-003 1.73389129e-002 5.55930543e-004
      1.67312543e-003 2.80252518e-003 -8.66862945e-003 -1.96145996e-002
      -2.06202641e-002 -2.38483828e-002 -5.15067279e-001
      -5.28818183e-003 7.68529659e-004 1.35816517e-004 -2.71046720e-003
      -2.07152241e-003 -9.17997037e-004 1.16412342e-003 -4.57335889e-001
      -3.54570890e-004 -4.55331383e-003 -7.34429108e-004
      -3.38986050e-003 -6.96511660e-003 2.64680246e-003 -1.98756857e-003
      -4.87145275e-001 -7.32861168e-004 -2.90710432e-003
      -8.92416749e-004 -2.73991749e-003 -7.79114838e-004
      -7.49288476e-004 -2.85443524e-003 -4.25221115e-001 1.86975976e-003
      -4.45348443e-003 -1.27007836e-004 9.69324319e-005 3.41302803e-005
      1.08104420e-003 1.45257753e-003 -4.12236154e-001 -1.61909889e-002
      -1.80191621e-002 -1.85747165e-002 -5.29163191e-003
      -1.58264376e-002 -1.43792722e-002 -8.05494096e-003
      -3.33066907e-016 0. 0. 0. 0. 0. 0. 0. -1.35875195e-001
      -1.45205075e-003 -7.35282025e-004 -2.94879661e-003
      -1.34505436e-003 -2.13171309e-003 -3.39250383e-003
      -2.84212409e-004 -1.18477099e-001 -1.10096624e-003
      -5.56035759e-003 1.24239668e-004 7.87291210e-005 -4.03805589e-003
      -4.81267832e-003 -1.31696649e-003 -1.20436803e-001
      -4.88957949e-003 -5.10123512e-003 -4.40519163e-003
      -4.70594130e-003 -2.64500384e-003 -6.18915830e-004
      -6.79106335e-004 -1.69402912e-001 -6.14168122e-003
      -6.16006972e-003 -6.41820161e-003 -6.92666182e-003
      -7.62616424e-003 -6.06729649e-003 -6.85756421e-003
      -7.51191285e-003 -8.50967423e-004 -8.44285765e-004
      -4.04923048e-004 -1.10475486e-003 -5.88490919e-004
      -1.04624208e-003 -2.50887778e-003 -4.79706191e-003
      -2.68609379e-003 -2.36454862e-003 -7.01015117e-003
      -6.48898678e-003 -1.17022432e-002 -1.28363017e-002
      -1.92184038e-002 -9.17908326e-002 -2.11655730e-004
      -1.02651917e-004 -2.39743560e-004 -9.54175193e-004
      -1.07287848e-003 -1.79223396e-004 -1.92440173e-003
      -8.25052634e-002 -2.53787468e-004 -1.40439170e-005
      -8.86079943e-005 -2.04109750e-003 -9.49830748e-004
      -1.25210185e-003 -3.09023284e-003 -7.39691034e-002
      -2.39017466e-003 -1.33870239e-003 -2.19457014e-003
      -3.30688636e-004 -9.35230928e-004 -5.72439632e-004
      -2.42227735e-003 -8.49354565e-002 -2.53879675e-003
      -6.49276562e-003 -1.70383079e-003 -2.89206486e-003
      -5.53457532e-003 -1.74596254e-003 -1.00673856e-002
      -5.46702300e-004 -3.12300224e-004 -2.05303833e-004
      -2.56124564e-004 -2.70168472e-004 -2.84212409e-004
      -1.77215989e-004 -2.81875313e-004 -2.33391664e-004
      -3.26344161e-004 -4.14952141e-004 -1.33212423e-003
      -2.13917880e-003 -4.59388830e-003 -6.98406296e-003
      -1.01813953e-002 -2.77370699e-002 2.66237497e-001 0.
      -8.00427422e-003</_>
    <_>
      -1.29577087e-003 -7.00416640e-005 0. -1.05062500e-004 0.
      -7.00416640e-005 -3.50208320e-005 0. -7.00416684e-004
      -1.05062500e-004 0. -7.00416640e-005 -3.50208320e-005
      -7.00416640e-005 -3.50208320e-005 0. -2.80166656e-004 0.
      -3.50208320e-005 -7.00416640e-005 -3.50208320e-005
      -3.50208320e-005 0. 0. -4.55270841e-004 -3.50208320e-005
      -1.05062500e-004 -1.05062500e-004 -7.00416640e-005 0.
      -3.50208320e-005 3.90120811e-004 2.77075823e-003 -9.92513960e-004
      2.15016655e-004 6.40158309e-004 -2.23232107e-003 2.50037498e-004
      1.79995812e-004 -1.30770146e-003 -3.50208320e-005 -7.00416640e-005
      -9.92513960e-004 -2.23017391e-003 1.32512068e-003 -1.90031133e-003
      -4.52549756e-003 -4.19778237e-003 1.10354722e-002 -2.90750014e-003
      3.11432959e-004 -4.64738254e-003 -2.82313995e-004 -1.15856034e-004
      7.30075757e-004 -2.95116729e-003 -6.50815386e-003 -2.83745839e-003
      -4.36670307e-005 3.72828421e-004 -3.75993084e-003 -1.59490714e-003
      -2.72965175e-003 -1.59490714e-003 -4.17319313e-002
      -9.89715755e-003 -2.06371583e-003 -7.05969939e-003
      -3.01471003e-003 -4.39734478e-003 -3.59072839e-003
      -4.71742405e-003 -9.92813259e-002 -3.91080743e-003
      -5.06977970e-003 -1.46145821e-002 -7.96444342e-003
      -7.94440694e-003 -3.16558685e-003 -7.13564316e-003
      -1.54952645e-001 -1.56454351e-002 -2.09032595e-002
      -2.50322651e-002 -1.74476672e-002 -1.33375265e-002
      -1.13310730e-002 -5.14324382e-003 -1.55680850e-001
      -5.87299913e-002 2.03302130e-003 1.05993180e-002 2.37271208e-002
      2.36776322e-002 2.48115398e-002 1.62498355e-002 -1.29886284e-001
