<?xml version="1.0"?>
<opencv_storage>
<my_svm type_id="opencv-ml-svm">
  <svm_type>C_SVC</svm_type>
  <kernel><type>LINEAR</type></kernel>
  <C>1.</C>
  <term_criteria><epsilon>2.2204460492503131e-016</epsilon>
    <iterations>100</iterations></term_criteria>
  <var_all>437</var_all>
  <var_count>437</var_count>
  <class_count>10</class_count>
  <class_labels type_id="opencv-matrix">
    <rows>1</rows>
    <cols>10</cols>
    <dt>i</dt>
    <data>
      1 2 3 4 5 6 7 8 9 10</data></class_labels>
  <sv_total>45</sv_total>
  <support_vectors>
    <_>
      1.11659635e-002 1.42241581e-004 2.37069282e-004 1.65948499e-004
      1.42241581e-004 9.48277084e-005 1.42241581e-004 4.74138542e-005
      7.65733747e-003 1.65948499e-004 1.65948499e-004 1.42241581e-004
      3.55603901e-004 2.60776200e-004 9.48277084e-005 2.84483162e-004
      4.12500557e-003 2.60776200e-004 3.55603901e-004 2.60776200e-004
      4.50431631e-004 4.26724728e-004 1.89655417e-004 5.21552400e-004
      7.04095745e-003 5.68966323e-004 3.55603901e-004 4.50431631e-004
      8.06035532e-004 7.11207802e-004 7.11207802e-004 -6.50829228e-004
      -5.96525567e-003 8.53449455e-004 -5.81559871e-005 -1.15941686e-003
      -1.13570993e-003 7.95293425e-004 5.34517225e-004 2.44181347e-003
      4.50431631e-004 1.44612254e-003 3.65086691e-003 8.20259750e-003
      -2.17436953e-003 2.17251806e-003 2.07546749e-003 6.06026407e-003
      2.73066163e-001 5.11393137e-003 9.55147948e-003 5.48046501e-003
      2.96975346e-003 -5.39106899e-004 2.33813841e-003 1.79862734e-002
      3.06391835e-001 5.04281046e-003 2.33813841e-003 6.33803150e-003
      2.82320683e-003 4.18954901e-003 -1.39236869e-003 1.11834297e-003
      2.59891897e-001 3.52760241e-003 2.84691365e-003 1.53229048e-003
      2.96975346e-003 6.64622150e-003 9.79285315e-003 5.01910364e-003
      2.62862444e-001 2.37892754e-003 1.30790807e-002 1.21978074e-002
      -1.73950044e-003 -2.44621583e-003 3.47190327e-003 -2.86016334e-003
      1.80588916e-001 6.42974209e-003 7.85313372e-004 1.05982283e-002
      -9.71226953e-003 -1.07061137e-002 1.06530450e-003 4.50138375e-003
      1.46958455e-001 1.33902980e-002 1.31991301e-002 -8.62708874e-003
      -4.15422060e-002 -2.00279914e-002 -7.83799496e-003 6.07030094e-003
      -5.62516935e-002 2.87492573e-003 -8.38373695e-003 -4.97336296e-005
      -1.92485086e-003 -4.43556253e-003 -7.84694962e-003
      -6.74999412e-003 3.12263593e-002 6.79442845e-003 -3.12093948e-003
      -3.09723243e-003 -6.96998136e-003 5.01678418e-003 5.16134547e-003
      2.70235189e-003 -1.24561049e-001 5.18505229e-003 5.35100093e-003
      -3.19119805e-004 2.84483162e-004 2.09013955e-003 2.79949978e-003
      2.38555227e-003 -2.16911644e-001 -1.13733653e-002 2.21500013e-004
      -9.39679518e-003 -9.75472014e-003 -7.68762641e-003
      -6.34763623e-003 -4.77872556e-003 -2.39768535e-001 1.11166025e-002
      4.71175555e-003 4.12464552e-002 4.39360403e-002 4.23342884e-002
      1.65939070e-002 8.43247585e-003 0. 0. 0. 0. 0. 0. 0. 0.
      8.13808739e-002 -2.34476337e-003 -2.66388315e-003 1.16214869e-004
      -4.70726844e-003 -6.97428640e-003 -5.92706399e-003 2.06841785e-003
      1.66319519e-001 9.76289099e-004 6.95441151e-003 2.54151440e-004
      1.13112025e-003 -1.20701827e-003 1.72360579e-003 4.10749810e-003
      -2.09044248e-001 -2.59276223e-003 -1.12330785e-003 3.23052960e-003
      -4.48584149e-004 -1.63374294e-003 1.16741681e-003 -2.50905193e-003
      -2.54477233e-001 -1.71579351e-003 -3.90240573e-004 7.74748251e-003
      -1.19608850e-003 3.29053309e-003 1.90048409e-003 5.07082231e-003
      2.48069063e-001 -1.39108626e-002 -3.86465192e-002 -8.79905969e-002
      -6.23904616e-002 -3.30937952e-002 -2.54917145e-002
      -2.61583067e-002 -2.37069398e-004 7.11207904e-005 0.
      2.37069271e-005 0. 4.74138542e-005 7.11207904e-005 0.
      7.26461262e-002 2.87062069e-003 1.65948499e-004 2.48038000e-003
      2.13362364e-004 2.87062069e-003 1.42241581e-004 5.62270684e-003
      1.65977925e-002 1.89655417e-004 3.08398297e-003 1.89655417e-004
      8.27996433e-003 -2.24292075e-004 2.87062069e-003 2.87062069e-003
      2.47268993e-002 5.57529274e-003 1.42241581e-004 2.98915524e-003
      3.31896998e-004 2.84483162e-004 2.60776200e-004 3.03656911e-003
      5.06960675e-002 3.08190065e-004 4.26724728e-004 2.85969093e-003
      3.22622457e-003 4.15491220e-003 6.01910469e-005 3.06027615e-003
      -1.36139402e-002 -1.56262226e-003 2.13362364e-004 1.65948499e-004
      -1.03014009e-003 2.91803456e-003 -1.42038066e-003 4.42661811e-003
      -1.65620223e-002 1.93530833e-003 7.82328600e-004 -2.24104529e-004
      2.85779615e-003 2.73926160e-003 1.21127581e-003 8.12489912e-003
      7.86788575e-003 2.79949978e-003 7.11207904e-005 9.48277084e-005
      7.11207904e-005 -1.21979543e-003 2.77579296e-003 9.48277084e-005
      6.17857743e-003 1.42241581e-004 2.82320683e-003 -1.12496782e-003
      -1.14867475e-003 2.13362364e-004 -1.10126089e-003 7.11207904e-005
      6.81391358e-002 -3.46366833e-005 -1.12496782e-003 -1.00643316e-003
      -9.35312361e-004 1.67453208e-003 1.18534641e-004 2.64632865e-003
      8.93336684e-002 4.03017766e-004 1.79306674e-003 4.26724728e-004
      4.36827447e-003 -2.20252178e-003 3.01286229e-003 3.32105230e-003
      -1.18228663e-002 8.31644889e-003 5.51694911e-003 5.45259332e-004
      4.10749810e-003 5.46953548e-003 3.22622457e-003 6.16380130e-004
      -2.05424242e-002 -2.24104529e-004 1.80603156e-003 5.15079079e-003
      8.14860594e-003 1.08640194e-002 5.71545167e-003 6.11846987e-003
      2.99838960e-001 -1.68115681e-003 1.09463604e-003 1.18534641e-004
      1.04722229e-003 5.43305138e-003 2.70467205e-003 2.37069271e-005
      1.99376166e-001 6.09567796e-004 8.06660205e-003 2.68096523e-003
      1.41375593e-003 2.70467205e-003 -6.31233957e-003 1.43746287e-003
      2.70455629e-001 5.40934410e-003 4.99539683e-003 4.74138542e-005
      2.70467205e-003 6.09567796e-004 1.41375593e-003 2.70467205e-003
      3.45055372e-001 -1.39236869e-003 1.46116980e-003 8.47822987e-003
      -1.48866311e-004 1.11834297e-003 3.19172558e-003 -2.26933742e-003
      1.89499617e-001 3.94936185e-003 -4.98559931e-003 7.73423305e-003
      5.25385328e-003 -5.41662890e-003 -1.74182025e-003 8.66954494e-003
      0. 0. 0. 0. 0. 0. 0. 0. 5.94840460e-002 2.37069271e-005
      2.75208591e-003 2.75208591e-003 2.75208591e-003 2.79949978e-003
      2.72837910e-003 2.37069271e-005 3.37842628e-002 1.65948499e-004
      -1.05384702e-003 -1.07755396e-003 3.36201978e-004 2.37069271e-005
      2.13362364e-004 1.18534641e-004 3.09250504e-002 3.31896998e-004
      1.89655417e-004 2.60776200e-004 -1.42038066e-003 4.28437674e-003
      3.06027615e-003 2.94174138e-003 6.53208420e-002 1.31311856e-004
      2.67003546e-003 5.45259332e-004 5.56436321e-003 3.15510388e-003
      6.68098975e-004 5.45259332e-004 1.67925991e-002 7.11207802e-004
      3.29734548e-003 5.21552400e-004 6.63793995e-004 3.27363843e-003
      3.44674161e-004 9.95690934e-004 1.75751634e-002 1.92026107e-003
      2.06250278e-003 7.68520962e-003 6.45036669e-003 5.75193623e-003
      5.04072802e-003 5.28872712e-003 3.56875956e-002 7.60524068e-003
      9.48277084e-005 2.75208591e-003 8.06660205e-003 8.11401568e-003
      1.42241581e-004 2.37069271e-005 4.92455959e-002 1.18534641e-004
      2.37069271e-005 7.11207904e-005 2.75208591e-003 -3.42826737e-004
      2.37069271e-005 2.79949978e-003 1.00522168e-001 2.84483162e-004
      5.67012047e-003 7.91343115e-003 5.71753457e-003 2.60776200e-004
      8.32737796e-003 2.45667319e-003 1.08696565e-001 8.39849934e-003
      8.56444798e-003 2.50408705e-003 3.55603901e-004 2.74115638e-003
      1.03226909e-002 5.81236230e-003 1.20967794e-002 2.91803456e-003
      2.89432751e-003 2.96544842e-003 5.21552400e-004 2.91803456e-003
      3.55603901e-004 3.13139684e-003 8.56236555e-003 9.48277127e-004
      3.77148390e-003 4.41157073e-003 6.11846987e-003 9.17874556e-003
      8.84684920e-003 6.73484989e-003 4.35633026e-002 -1.31199494e-001
      0. -2.31379922e-003 -2.29768589e-001</_>
    <_>
      2.86458403e-001 -1.34305032e-002 -1.98415178e-003 -6.04815874e-003
      7.99097866e-003 8.46775074e-004 4.91657527e-004 -8.11570883e-003
      3.47137958e-001 8.05358868e-003 2.50055222e-003 7.67581724e-003
      -5.72261913e-003 1.41427293e-002 -1.64038991e-003 6.43744972e-003
      1.90071255e-001 7.62764225e-003 7.64874928e-003 -2.69455020e-003
      9.48721077e-003 3.99281876e-003 1.01673296e-002 4.25480306e-003
      2.45142028e-001 1.70888808e-002 1.07805310e-002 1.51942009e-002
      2.17854604e-002 2.59541273e-002 1.91726685e-002 4.26393608e-003
      1.57613128e-001 2.27196533e-002 3.75941806e-002 2.97408551e-002
      3.16973925e-002 3.32058184e-002 2.58692764e-002 1.66499354e-002
      1.56629104e-002 4.52734195e-002 6.55711293e-002 5.37684895e-002
      1.56776428e-001 2.76843876e-001 1.22468710e-001 4.14172327e-003
      3.63421410e-001 -1.25237778e-002 -1.64528633e-003 -5.05961338e-003
      -6.29903330e-003 -1.10868262e-002 -1.77735556e-002 5.31915808e-003
      4.64079231e-001 -1.97373424e-002 -1.55091854e-002 -8.84917099e-003
      -1.65234599e-002 -2.03287434e-002 -3.78999040e-002
      -2.18929742e-002 2.67018646e-001 -3.63480821e-002 -4.31792773e-002
      -3.50998119e-002 -2.66165193e-002 -1.13352528e-002
      -9.61348414e-003 -5.57263382e-004 5.44442274e-002 -5.71793541e-002
      -2.63009258e-002 -5.73548814e-003 -2.28718705e-002
      -5.31649450e-003 -1.37495780e-002 -9.87248216e-003
      -2.95856953e-001 -9.52784717e-002 -5.04507078e-003 2.13298318e-003
      1.16447983e-002 2.74349004e-002 6.39680540e-003 1.39371892e-002
      -5.97564280e-001 1.56233311e-001 9.01455954e-002 5.04275747e-002
      4.16155569e-002 3.72977145e-002 5.74836023e-002 5.19525260e-002
      -3.70719314e-001 7.24639278e-003 4.06900281e-003 9.73362289e-003
      6.22967398e-003 9.24947858e-003 4.27067373e-003 4.73569613e-003
      -4.98539239e-001 -5.20002749e-003 -1.77670363e-003
      -5.87545335e-004 3.29241552e-003 1.02454843e-002 6.88336091e-003
      8.33043735e-003 -2.31598228e-001 1.17981499e-002 1.46125685e-002
      -1.26308901e-003 6.01359271e-003 9.73058678e-003 4.39719111e-003
      7.63420248e-003 -6.25271857e-001 3.63707449e-003 1.93849821e-002
      -1.67936413e-003 4.74671088e-003 2.03289110e-002 2.77797226e-002
      3.10212392e-002 -5.68385541e-001 1.06517859e-001 7.91514218e-002
      8.72794688e-002 6.60476014e-002 6.21463545e-002 2.95094494e-002
      2.34362837e-002 4.44089210e-016 0. 0. 0. 0. 0. 0. 0.
      -6.46871269e-001 -1.05786743e-002 -1.12121645e-002
      -3.59756569e-003 -4.51061688e-003 -6.86142920e-003
      -1.01732807e-002 6.14181906e-003 -4.41904873e-001 3.39186226e-004
      1.28609212e-002 -8.95941909e-003 -2.78099999e-002 -1.68456230e-002
      -3.21785733e-002 -2.88567618e-002 -5.10094762e-001
      -1.55424317e-002 -4.44281468e-004 5.66097395e-003 -1.08476942e-002
      -1.88126578e-003 2.67079030e-003 2.26732274e-003 -4.58160371e-001
      -1.37033314e-003 1.09516829e-003 7.05343112e-003 2.50229612e-003
      1.33624971e-002 -1.38482521e-003 7.46264355e-003 2.69013941e-001
      -4.33461398e-001 -2.84985811e-001 -8.10219273e-002
      -5.60627058e-002 -7.22669661e-002 1.90618765e-002 8.06781929e-003
      -3.02582467e-003 8.15342879e-004 3.08008719e-004 2.71780940e-004
      0. 5.43561880e-004 8.15342879e-004 0. 7.47487471e-002
      2.49590189e-003 8.44173692e-003 3.27036344e-003 3.92991072e-003
      1.13861845e-003 -1.12040387e-003 2.83365464e-003 7.13604763e-002
      8.04566836e-004 9.15433280e-003 2.74034427e-003 5.79029508e-003
      2.78404308e-003 9.83341690e-003 1.02300011e-003 2.04448789e-001
      -9.09995101e-003 1.38785718e-002 -4.67316620e-003 5.78921614e-003
      2.96481606e-003 1.13498839e-002 6.74066553e-003 1.97814688e-001
      7.41194654e-003 8.74288287e-003 1.31915812e-003 2.11356338e-002
      2.01363768e-002 3.31998151e-003 9.78345517e-003 1.44827291e-001
      3.54320044e-003 4.29353118e-003 9.63089243e-003 1.51984878e-002
      1.62305180e-002 1.02620563e-002 1.07169496e-002 9.58909616e-002
      1.69794876e-002 1.80223417e-002 2.53088307e-002 8.10979828e-002
      8.02160427e-002 1.00278497e-001 1.08427301e-001 8.63628387e-002
      3.68049578e-003 -2.57988949e-003 -7.77967367e-003 -1.08402995e-002
      -8.22674856e-003 9.92770889e-004 -1.81925781e-002 1.28620625e-001
      -2.03578454e-003 -1.71379913e-002 -2.25174497e-003
      -1.36811631e-002 -1.09840771e-002 -4.86089848e-003
      -2.04875041e-002 4.88215804e-001 -1.84190385e-002 -1.79779790e-002
      -6.72133081e-003 -8.10807943e-003 -6.27650507e-003
      -6.79590926e-003 -1.45950681e-002 4.42380548e-001 -2.49237027e-002
      -1.38841078e-005 -1.09436791e-002 -1.47074088e-003
      -4.09715623e-003 -7.19300285e-003 -6.44314860e-004 4.51798588e-001
      2.50094384e-002 3.73187251e-002 -2.83971103e-003 1.49655212e-002
      3.07624247e-002 3.75384814e-003 1.92539189e-002 2.38316312e-001
      1.55088902e-002 3.39721851e-002 9.37926844e-002 1.03759833e-001
      7.08346590e-002 4.02774028e-002 4.12823334e-002 -2.44111210e-001
      -1.11555895e-002 -2.30112090e-003 -8.67581402e-004
      -2.99939630e-003 3.87949846e-003 -1.45536498e-003 -2.16432521e-003
      -2.55654693e-001 -3.71211371e-003 5.68938674e-003 1.70689484e-003
      -4.78813672e-005 -4.06900188e-003 -1.02233943e-002 3.23249190e-003
      -3.88051599e-001 2.77486484e-004 -7.12745183e-004 -1.00341961e-002
      -7.81822670e-003 -4.19061072e-003 -3.50704882e-004 1.32898474e-003
      -3.81213784e-001 5.66342147e-003 6.79966388e-003 9.71580110e-003
      5.15614683e-003 -9.68743581e-004 1.23962443e-002 5.99463517e-003
      -1.71267077e-001 -3.01773131e-001 -1.27274945e-001
      -9.14703757e-002 -5.83296902e-002 1.25659844e-002 1.53345596e-002
      2.37848554e-002 4.44089210e-016 0. 0. 0. 0. 0. 0. 0.
      2.79621214e-001 -1.23300748e-002 -8.20563640e-003 -6.73229340e-003
      -6.00238610e-003 -4.33397293e-003 1.73044659e-003 -6.83727581e-003
      2.86416233e-001 -9.47303697e-003 -4.09312034e-003 -8.39408766e-003
      -1.54632023e-002 -8.75322055e-003 -9.93457809e-003
      -4.71863896e-003 3.56478482e-001 -9.27617867e-003 -5.77918533e-003
      -2.27934048e-002 -1.04429331e-002 -8.04185774e-003
      -6.10492378e-003 -1.00844884e-002 2.45772302e-001 -3.19980495e-002
      -3.59995626e-002 -2.75346693e-002 8.78206454e-003 -2.85841227e-002
      -5.92317292e-003 2.92517710e-003 2.91575938e-001 1.99577771e-002
      2.03476883e-002 2.06356328e-002 6.03022473e-003 2.32232753e-002
      1.37000326e-002 1.22561380e-002 1.70365915e-001 2.87815835e-002
      4.88907583e-002 6.31560013e-002 7.96550885e-002 9.48818997e-002
      5.44268899e-002 1.02464698e-001 -2.11112857e-001 -4.00994293e-004
      -4.84741898e-003 -1.49578173e-002 2.10262579e-003 -1.48269942e-003
      -2.14883368e-002 -9.77373123e-003 -1.78563833e-001
      -1.13796105e-003 -8.87437630e-003 -2.12944802e-002
      -4.63260245e-003 -1.12317586e-002 -8.56084004e-003
      -7.47650489e-003 -7.57343546e-002 -2.02232250e-003 1.04818074e-002
      9.06274840e-003 -1.32887985e-003 -3.05850408e-003 7.11310562e-003
      -3.94030591e-004 -2.73086727e-002 1.14728631e-002 7.70927500e-003
      2.06460734e-003 -3.36373015e-003 -1.25915336e-003 4.77213413e-003
      5.05055208e-003 7.00969324e-002 6.84712781e-003 6.90023368e-003
      -5.66307222e-003 5.54204313e-003 -2.50215386e-003 -7.25987041e-003
      6.98578823e-003 8.45273882e-002 -3.12921382e-003 9.85974167e-003
      1.13881519e-002 4.85856719e-002 2.88503412e-002 6.90862238e-002
      1.09302320e-001 1.31079659e-001 4.70069468e-001 0. 1.78692918e-002
      0.</_>
    <_>
      -1.33718587e-002 5.65511873e-004 1.62925664e-003 4.00873506e-003
      5.10969991e-003 -4.96303570e-003 5.88718452e-004 -4.52149659e-003
      -4.64222766e-003 -9.09625832e-003 8.59871099e-004 1.71974220e-003
      6.82632846e-004 -3.54450452e-003 1.45544170e-003 -3.66473920e-003
      7.67298229e-003 5.58814965e-003 -2.25975877e-003 3.50334030e-003
      2.26914235e-005 3.38621926e-003 2.66589457e-004 -9.90286469e-003
      -5.29275984e-002 1.05668632e-002 -1.81510625e-003 6.66476833e-003
      8.18717945e-003 1.58203188e-002 -2.50136782e-003 1.36456434e-002
      -8.16719159e-002 4.97092959e-004 -7.74573593e-004 7.47355307e-003
      1.93602555e-002 1.51630668e-002 1.57784205e-002 7.50298379e-003
      -4.74735573e-002 -2.61206157e-003 2.61003221e-003 9.51054599e-003
      6.42044619e-002 1.07636422e-001 -5.05397795e-003 -6.46947473e-002
      2.23111838e-001 -2.87722126e-002 -2.24845465e-002 -3.23471129e-002
      -2.30536051e-002 -2.06182152e-002 -1.73792876e-002 6.35485305e-003
      2.22418398e-001 -4.40781489e-002 -3.74831557e-002 -1.86041649e-002
      -1.70876607e-002 -1.18811168e-002 -1.12439916e-002
      -1.39990207e-002 9.20986831e-002 -4.45110202e-002 -3.60409021e-002
      -3.31729129e-002 -1.15974881e-002 -4.42805747e-003 3.31769261e-004
      -1.07489517e-002 1.49428817e-002 -5.97916394e-002 -1.33411242e-002
      -2.06025373e-002 -1.70317777e-002 -1.48418043e-002
      -2.53855833e-003 -5.41653810e-003 -1.28125295e-001
      -3.47043611e-002 -8.86204466e-003 8.77302140e-003 1.04005355e-002
      -5.94464783e-003 5.86706540e-003 6.57356810e-004 -1.43491820e-001
      5.69404401e-002 3.44994222e-003 2.83017345e-002 2.09105052e-002
      2.73024868e-002 3.33161429e-002 5.15285209e-002 -2.15981722e-001
      6.38785167e-003 -6.22014375e-003 6.64145919e-003 4.32222523e-003
      4.13165987e-003 3.26482812e-003 1.21184590e-003 -2.95797050e-001
      1.17453495e-002 -9.65621229e-003 2.85782805e-003 4.28782124e-003
      5.66573581e-003 5.72235230e-003 2.01401999e-003 -1.40404984e-001
      6.49387809e-003 5.63051645e-003 -2.53777253e-005 7.52669759e-004
      3.13250395e-003 2.61225505e-003 3.36093572e-003 -4.01834488e-001
      1.04463054e-002 1.69681683e-002 7.33561523e-004 1.26290759e-002
      7.04178587e-003 8.03087000e-003 1.20291375e-002 -3.17844808e-001
      5.32432348e-002 3.03656980e-002 5.83746769e-002 5.22008874e-002
      3.62810679e-002 3.06978915e-003 7.72410957e-003 0. 0. 0. 0. 0. 0.
      0. 0. -1.78201571e-001 -2.43721344e-002 -2.32619438e-002
      -2.64823250e-002 -1.92454495e-002 -1.89992562e-002
      -4.13077921e-002 -1.22559536e-002 1.28665060e-001 9.88857821e-004
      4.84960247e-003 -7.06814288e-004 -5.67950134e-004 4.55045421e-003
      -1.02882704e-003 2.50786147e-003 -5.06325781e-001 2.19761929e-003
      4.74263262e-003 8.81562289e-003 2.60570319e-003 1.30892685e-003
      4.31898236e-003 8.05601478e-004 -3.96544158e-001 2.62824295e-004
      2.10357131e-003 1.07282018e-002 6.64652907e-005 5.90201141e-003
      5.22218551e-003 9.08042584e-003 2.96905607e-001 -1.49090746e-002
      1.54537782e-002 -5.11243716e-002 -1.22863933e-001 -1.60284251e-001
      -1.87360600e-001 -8.35480168e-002 -3.00591601e-005 0.
      3.00586489e-005 0. 0. 0. 0. 0. 5.28686941e-002 4.36767703e-003
      2.65182136e-003 -1.84165291e-003 3.80766508e-003 4.04356886e-003
      2.32185517e-003 7.64809269e-003 6.01596339e-003 6.55687822e-004
      6.78344676e-003 -3.68171837e-003 1.20235505e-002 3.03423707e-003
      -4.18429903e-004 4.17739432e-003 4.97817062e-002 -4.47093695e-003
      -7.07274349e-003 -5.99053164e-005 -4.44809813e-003
      -2.02240306e-003 -2.56583211e-003 7.16636842e-003 5.42210527e-002
      -7.32009672e-003 4.23560757e-003 7.10872049e-003 -2.28926074e-003
      7.12913880e-003 -1.85355283e-002 -3.57767241e-003 -3.11338268e-002
      9.46933462e-004 1.31941831e-003 2.43642833e-003 3.58977774e-003
      -7.06280209e-003 -1.51788518e-002 7.98400305e-003 -2.47557405e-002
      -1.73684787e-002 6.50128582e-003 -2.63388380e-002 5.75012434e-003
      5.12839993e-003 1.05995731e-002 4.90690954e-002 2.05086127e-001
      3.22179892e-003 1.81365665e-003 2.50402256e-003 6.82323240e-004
      1.48207706e-003 3.42105306e-003 -6.09405944e-003 1.83543742e-001
      2.08630948e-003 -3.32034170e-003 1.24752545e-003 1.26484933e-003
      3.06149176e-003 2.64346902e-003 1.30826200e-003 2.08599731e-001
      -1.17325876e-002 -3.48432013e-003 2.98280828e-003 -4.03241627e-003
      4.19910066e-003 -3.65638686e-003 -1.24793279e-003 1.91680446e-001
      1.62089313e-003 3.91908892e-004 4.78616310e-003 7.80331530e-003
      -3.13891447e-003 1.32846981e-004 1.01316018e-005 6.21079020e-002
      1.53485127e-002 1.50487591e-002 1.29069816e-002 1.06154997e-002
      1.09402183e-003 5.74035710e-003 -2.74931407e-003 2.57401373e-002
      4.15757857e-003 -3.48943658e-003 2.28867717e-002 1.78796127e-002
      3.01444568e-002 -9.68374219e-003 3.77068631e-002 7.73351360e-003
      -2.52010375e-002 -1.63625758e-002 -1.91025604e-002
      -1.53048197e-002 -2.11086050e-002 -2.04673391e-002
      -2.90797669e-002 2.83665955e-001 -3.81526910e-003 7.05546641e-004
      -4.34286147e-003 -3.12928390e-003 -4.77999402e-003
      -1.34228719e-002 -3.43691651e-003 -2.93497860e-001 4.68702614e-003
      6.68878853e-003 2.11681727e-005 2.85235420e-003 2.18979712e-003
      2.79239961e-003 2.63063353e-003 -2.30788708e-001 2.19121785e-003
      2.42227293e-003 1.29916463e-002 2.80398759e-003 2.71216175e-003
      1.06630307e-002 2.10430194e-003 1.62405103e-001 -2.52265623e-003
      2.23942054e-003 -1.73019972e-002 -5.74876145e-002 -1.41458750e-001
      -1.43499821e-001 -8.47064033e-002 0. 0. 0. 0. 0. 0. 0. 0.
      1.54812217e-001 1.30826200e-003 3.40902945e-003 4.91630333e-003
      2.88529019e-003 4.55176737e-003 4.53289133e-003 1.91875396e-003
      8.19757879e-002 1.99089502e-003 1.32835493e-003 3.22670629e-003
      3.95650649e-003 2.84734275e-003 1.24814478e-003 2.28008255e-003
      7.61215314e-002 1.98061951e-003 -4.12579952e-003 -3.91907385e-003
      2.72969063e-003 6.71501970e-003 -1.81344466e-003 4.66888817e-003
      5.58732252e-004 4.49092971e-004 -1.46967635e-004 4.64150449e-003
      9.05364845e-003 7.48928590e-003 9.20342002e-003 4.41990560e-003
      6.54582605e-002 4.08452982e-003 4.09052242e-003 9.92130209e-003
      3.95432953e-003 3.29967844e-003 4.32684133e-003 9.39518958e-003
      -1.47410752e-002 1.74590219e-002 6.98004337e-003 3.49848606e-002
      1.32003399e-002 -4.74351225e-003 2.67857723e-002 1.09144282e-002
      2.49597547e-003 8.15202948e-003 3.00586489e-005 3.24381492e-003
      9.16593242e-003 8.89477972e-003 -6.03394210e-003 6.90985180e-004
      3.41608897e-002 -5.17718447e-003 -5.38136763e-003 3.81421560e-004
      3.39099439e-003 1.47179613e-004 7.99753820e-004 3.53817409e-003
      -1.99327134e-002 1.86380825e-003 6.86874148e-003 2.77066161e-003
      4.23629099e-004 1.51213573e-003 -1.43705271e-002 -7.13095674e-003
      -5.92228808e-002 1.02884909e-002 1.03938710e-002 3.03185056e-003
      -1.00500444e-002 -1.15220854e-003 -3.13824276e-004 1.18130061e-003
      -1.35787219e-001 -1.60895172e-003 4.84612631e-003 5.17770601e-003
      -3.96314636e-003 -1.96031458e-003 -3.80880525e-003 3.80247459e-003
      -1.21003114e-001 -1.73020717e-002 -4.66192747e-003
      -4.18435520e-004 -4.75065503e-003 1.87361836e-002 6.11103177e-002
      6.30660728e-002 -1.06358767e-001 -5.55934906e-001 0.
      -1.83688626e-001 -1.87478870e-001</_>
    <_>
      1.12411166e-002 -3.84125533e-003 2.37378594e-003 6.22395845e-003
      5.09645417e-003 -1.08249998e-003 9.45220888e-003 4.30135662e-003
      1.01463884e-001 6.60157390e-003 5.24320733e-003 3.64028779e-003
      -9.78750293e-004 9.27873608e-003 -1.32447714e-003 1.42942593e-002
      7.01017752e-002 2.56887474e-003 1.49161015e-002 1.53604299e-002
      1.85961388e-002 1.24102430e-002 1.06568271e-002 2.45622192e-002
      1.87729716e-001 6.95685996e-003 1.85770020e-002 2.03882400e-002
      1.33848544e-002 2.71841604e-002 2.04376522e-002 2.25880351e-002
      8.80736411e-002 4.06235009e-002 5.03766164e-002 4.43705991e-002
      6.29432797e-002 8.73140171e-002 4.08118926e-002 2.12465636e-002
      -9.61997826e-003 2.82737892e-002 7.23097920e-002 1.35998756e-001
      3.57447833e-001 4.73267078e-001 2.65218675e-001 5.49057536e-002
      7.58073568e-001 -1.43420976e-003 8.66504479e-003 -3.73714790e-003
      4.67479927e-004 -2.60497723e-003 -1.62665965e-003 1.09673310e-002
      7.47360229e-001 -1.10907229e-002 -1.53353987e-002 -1.29022775e-002
      -3.53430188e-003 -1.27737690e-003 -6.60613459e-003
      -6.01046486e-003 5.30429125e-001 -2.12458912e-002 -1.46856122e-002
      -2.07028091e-002 -2.19787331e-003 2.60584609e-004 6.33285008e-003
      -5.91832306e-003 2.68341780e-001 -3.17506082e-002 -3.82432714e-003
      1.40936533e-002 -4.51654056e-003 1.00213997e-002 4.34520748e-003
      5.27785858e-003 -9.14889723e-002 -5.37398644e-002 -4.39304560e-002
      1.16060851e-002 1.14198439e-002 2.16738656e-002 2.99596116e-002
      2.95370854e-002 -4.63570625e-001 2.04266429e-001 1.62209541e-001
      5.68604097e-002 3.40514258e-002 5.36572784e-002 5.60971051e-002
      5.39019406e-002 -2.33291522e-001 -2.60725938e-004 -1.40451733e-003
      5.49989613e-003 -1.29409006e-003 -1.64428508e-004 -2.55801133e-003
      -4.01007198e-003 -3.19475234e-001 6.96558878e-003 -1.13676926e-002
      -6.19026879e-003 -8.84808367e-004 -2.27171648e-003
      -9.65455722e-004 -8.44822824e-003 -2.52388746e-001 1.46838119e-002
      1.77735966e-002 2.27130367e-003 2.58730305e-003 8.71016458e-003
      -3.79455206e-003 5.76153304e-003 -6.57432079e-001 2.49941330e-002
      2.24300940e-002 1.41730784e-002 6.78556599e-003 1.96389966e-002
      1.64273605e-002 2.29574386e-002 -6.49278283e-001 1.24845743e-001
      9.29237381e-002 1.02159083e-001 7.47400671e-002 6.19932525e-002
      3.45002152e-002 2.64692456e-002 6.10622664e-016 0. 0. 0. 0. 0. 0.
      0. -6.71030581e-001 -1.95734343e-003 3.53446673e-003
      8.61290842e-003 -1.30868563e-003 -1.17142107e-002 5.76484157e-003
      1.50849642e-002 -6.31168425e-001 1.15153976e-002 9.38493479e-003
      -3.11237178e-003 -8.35522916e-003 -8.65827594e-003
      -1.35240080e-002 4.17242205e-004 -7.23426998e-001 -3.12962271e-002
      -1.86164752e-002 -9.46707278e-003 8.10301583e-003 1.39438407e-002
      2.32747756e-002 1.32446392e-002 -6.97543204e-001 2.13781390e-002
      6.54982869e-003 1.91511884e-002 1.18100708e-002 2.23442130e-002
      1.38273304e-002 1.79716647e-002 -1.41900377e-002 -5.17867386e-001
      -2.87682384e-001 -1.64575711e-001 -1.44513696e-002 5.11776991e-002
      4.92425896e-002 4.80015948e-002 -2.81354063e-003 7.68329483e-004
      -3.38186219e-004 -2.97776627e-004 -2.58582644e-004 9.79911769e-004
      1.46986777e-003 0. -4.53293085e-001 7.48510519e-003
      -1.83976511e-003 9.35872085e-005 1.33298687e-003 -4.04329585e-005
      1.28421257e-003 5.78803476e-003 -3.67464125e-001 -2.77936505e-003
      9.45944060e-003 -9.07653011e-003 3.09395278e-003 -4.91583720e-004
      7.35508325e-003 9.31207743e-003 -9.85971466e-002 1.03401393e-002
      8.15240014e-003 1.35750202e-002 1.37756933e-002 1.93863735e-002
      9.90919583e-003 2.14967299e-002 1.14375986e-001 2.15184018e-002
      5.36997756e-003 1.58257838e-002 3.50477174e-002 2.98248082e-002
      2.31080875e-002 2.41752621e-002 1.97786912e-002 3.10060661e-003
      3.42391385e-003 2.17221994e-002 1.95430070e-002 3.10636293e-002
      2.71512382e-002 3.26116048e-002 2.15040762e-002 1.69471242e-002
      3.86574678e-002 4.03681621e-002 5.43205328e-002 1.32916868e-001
      2.35995039e-001 2.36458153e-001 2.98380524e-001 8.46808543e-004
      -4.10564244e-003 -1.11199345e-003 -5.67402644e-003
      -3.38497688e-003 -2.21365783e-003 -1.14619115e-003 3.93775791e-001
      -1.23410998e-002 -4.75092465e-003 -5.53005515e-003
      -2.26520468e-003 -9.01323836e-003 -6.05751807e-003
      -5.29063400e-003 6.28651559e-001 -5.15159452e-003 -1.31670758e-002
      -7.62703770e-004 3.86653491e-003 6.59775361e-003 -4.46591666e-003
      -4.63761203e-003 6.96083307e-001 8.90722778e-003 -7.11167639e-004
      6.77677291e-003 1.07945278e-002 2.54319352e-003 5.11268107e-003
      1.06256856e-002 3.27346325e-001 2.77333017e-002 4.10215780e-002
      2.09225379e-002 2.41002794e-002 3.48181799e-002 3.04656606e-002
      4.61240076e-002 2.18635708e-001 2.91242916e-002 7.52981007e-002
      8.74945223e-002 2.88011655e-002 5.48981838e-002 1.90617189e-001
      1.72540799e-001 1.45184249e-001 -3.99510004e-003 4.68094973e-003
      -3.01702786e-003 1.64701126e-003 5.81945851e-003 -2.02988158e-003
      -3.08667170e-003 -7.76545852e-002 -3.50528536e-003 2.13507353e-003
      -5.64671261e-003 -3.09422123e-003 -1.57245272e-003 1.97894801e-003
      1.18955493e-003 -2.55695850e-001 3.71848978e-003 2.60685501e-003
      2.67597148e-003 5.75200902e-005 5.00750635e-003 3.83790932e-004
      6.04999997e-003 -3.73766690e-001 8.55129492e-003 5.68932993e-003
      8.54309462e-003 5.70414634e-003 4.37288126e-003 1.05313901e-002
      4.60758526e-003 -2.42836758e-001 -2.35934168e-001 -1.87848255e-001
      -1.68257788e-001 -3.68950516e-002 -1.45761948e-002 1.65372286e-002
      3.41798738e-002 2.92723835e-003 -2.92723975e-003 0. 0. 0. 0. 0. 0.
      -8.57950188e-003 -1.48966452e-002 -9.35513899e-003
      -4.11384553e-003 -3.95755284e-003 4.01869323e-003 2.16342229e-003
      -4.75115888e-003 -3.84271182e-002 -6.14547543e-003 7.07947928e-003
      -8.43480695e-003 -2.16957345e-003 -5.73979691e-003
      -1.88508187e-004 -1.05224364e-002 3.84300947e-002 4.24665306e-003
      -6.93011144e-003 -1.90649857e-003 -3.11839557e-003
      -3.78119270e-003 1.02214506e-002 -8.41625500e-003 1.34283677e-001
      1.38538620e-002 2.72093667e-003 1.39495553e-002 1.05786575e-002
      1.87571766e-003 8.85595381e-003 1.19214309e-002 2.09930211e-001
      1.86924096e-002 2.87067592e-002 9.47075337e-003 8.52425862e-003
      2.39914767e-002 1.23085221e-002 1.88173261e-002 1.36694551e-001
      4.10842225e-002 7.69481212e-002 9.71246418e-003 2.46297549e-002
      1.57314494e-001 1.66379362e-001 2.17666626e-001 -6.93404198e-001
      1.51090848e-003 -1.62932766e-003 -1.39029510e-003 -3.86529719e-003
      6.01777853e-003 -3.70594626e-003 -8.20181239e-003 -5.27284205e-001
      -1.83906546e-003 -8.09958298e-003 -4.77711158e-003
      -2.17522072e-004 -1.23139126e-002 -2.34782882e-003
      -6.23601628e-003 -3.37629586e-001 4.98552341e-003 1.12018306e-002
      1.63890216e-002 6.13551540e-003 1.24990777e-003 -3.07195284e-003
      -7.94548483e-004 -1.89819202e-001 1.67212542e-002 1.74409188e-002
      -2.03325041e-003 -2.50067119e-003 4.36488260e-003 1.77971367e-002
      1.32625829e-003 3.59068997e-002 1.93842233e-003 7.66090490e-003
      1.57091737e-004 1.53427832e-002 8.08955170e-003 1.88726501e-003
      1.19637873e-003 7.38558918e-002 3.70102399e-003 2.21654605e-002
      -6.34475276e-002 -8.74183327e-003 1.28428057e-001 1.85249984e-001
      2.41250753e-001 -2.48951748e-001 -1.69010699e-001 0.
      1.33649409e-002 0.</_>
    <_>
      5.42186677e-001 1.30075542e-003 8.32334813e-003 7.88947102e-003
      7.27255922e-003 4.97897016e-003 1.26544554e-002 -1.72884506e-003
      4.42014754e-001 6.86519407e-003 8.23003706e-003 1.40690692e-002
      9.39289480e-003 1.67260468e-002 1.03696331e-003 1.42959245e-002
      2.21466810e-001 1.15404958e-002 1.37373954e-002 1.04680983e-002
      1.99765582e-002 1.13770682e-002 1.09565593e-002 1.35668349e-002
      2.87845880e-001 1.42787741e-002 2.10323930e-002 2.14589573e-002
      1.83261577e-002 1.72812883e-002 1.88925769e-002 2.11609639e-002
      1.77154526e-001 3.96090187e-002 5.08075431e-002 4.88347001e-002
      5.69288209e-002 8.39857012e-002 7.98626319e-002 9.33213159e-002
      1.55864460e-002 5.19246757e-002 1.15980342e-001 2.29727253e-001
      3.15179288e-001 4.96922404e-001 3.31226617e-001 2.08550453e-001
      -7.29481056e-002 6.36737328e-003 9.66807362e-003 -1.62447919e-003
      5.11713140e-003 2.57292320e-003 -2.06779153e-003 1.70097500e-002
      1.15716755e-001 2.70279008e-003 -4.70187236e-003 1.62541447e-003
      -2.69258471e-005 -2.79107550e-003 -3.18631786e-003 2.79199239e-003
      2.14384943e-001 -1.81565083e-005 -1.32918998e-003 1.38872652e-003
      5.10660186e-003 -1.78819511e-003 -9.13188048e-003 2.35943095e-004
      1.91122055e-001 5.88131370e-003 1.31767616e-002 6.49863435e-003
      -2.22119782e-003 -1.53189981e-002 3.37912212e-003 -6.06304733e-003
      2.71025538e-001 -1.52138462e-002 -2.08414551e-002 1.99682098e-002
      -1.91852991e-002 -3.20278779e-002 -1.13469688e-002
      -3.48660089e-002 3.95185262e-001 -3.91623341e-002 -4.39233966e-002
      -1.18680164e-001 -9.66356844e-002 -4.72648814e-002
      -1.14529012e-002 -2.18671430e-002 -1.29848391e-001 2.44182139e-003
      -1.57713832e-003 6.30475162e-003 5.18894158e-005 5.64904418e-003
      1.24739527e-004 -2.67204712e-003 -2.22231954e-001 1.75420586e-002
      2.50620791e-003 2.17549107e-003 4.08021268e-004 1.32877128e-002
      3.88756068e-003 2.78332690e-003 -1.22370556e-001 6.65696524e-003
      1.33999791e-002 -1.17215177e-003 1.47986412e-003 7.52439909e-003
      1.86795648e-003 1.38722046e-003 -3.59788984e-001 1.66065041e-002
      3.11224069e-002 9.84791783e-004 1.22616794e-002 6.22155238e-003
      1.40999602e-002 9.55771469e-003 -2.00425372e-001 3.88319641e-002
      2.64907535e-002 4.05549742e-002 2.63084117e-002 2.85310093e-002
      9.19328630e-003 -1.56322654e-004 4.44089210e-016 0. 0. 0. 0. 0. 0.
      0. -2.69662231e-001 -3.70181026e-003 -4.12380742e-003
      1.11662820e-002 9.78926290e-003 -7.56823318e-003 2.97746621e-003
      1.26696201e-002 -1.75418064e-001 1.40040293e-002 1.64916329e-002
      1.31165916e-002 7.57054705e-003 1.18190311e-002 -2.62108981e-003
      4.52360604e-003 1.21575445e-002 -1.35985613e-002 -5.84005564e-003
      6.98974123e-003 -1.35940062e-002 -1.07642207e-002 -1.61331818e-002
      -9.55775380e-003 -1.25373900e-001 -7.75290141e-003
      -1.40709784e-002 -1.09270103e-002 -9.60067194e-003
      -9.53667052e-003 -1.91586670e-002 -4.57209814e-003 3.77946370e-003
      1.02543876e-001 7.73396343e-002 3.10718603e-002 -3.43788695e-003
      1.73615422e-002 -7.05163088e-003 -2.55984329e-002 -4.82222950e-003
      1.39641552e-003 1.67506194e-004 4.65471792e-004 0. 9.30943585e-004
      1.39641552e-003 0. 5.05328834e-001 4.98482538e-003 4.92388848e-003
      6.85998378e-003 2.38373643e-003 5.49423043e-003 2.37640482e-003
      1.14836143e-002 3.12504202e-001 -8.82741343e-003 3.75296618e-003
      -3.29490309e-003 2.78071896e-003 -3.91920010e-004 8.93634744e-003
      5.28043509e-003 7.76315928e-002 5.56462025e-003 1.73851941e-003
      1.16454093e-002 4.42207232e-003 1.40835987e-002 3.30349925e-004
      1.54452417e-002 1.03689805e-001 3.87086649e-003 4.01622802e-003
      3.78522580e-003 7.28035113e-003 1.01514533e-002 7.21826870e-003
      1.43797006e-002 1.07818887e-001 9.43739247e-003 2.48258840e-003
      1.89406574e-002 1.79365855e-002 1.97891928e-002 1.75858550e-002
      1.46165062e-002 1.06364802e-001 2.13970114e-002 3.89180444e-002
      5.31802475e-002 1.41111121e-001 1.60180852e-001 1.63843453e-001
      1.85523540e-001 1.83660179e-001 -7.51176849e-003 -5.23756351e-003
      -1.58570634e-004 -6.48782216e-003 -7.10193953e-003
      -3.34253372e-003 -2.55169277e-003 3.74020040e-001 2.55291379e-004
      -7.44080683e-003 -5.79754356e-003 -1.98317645e-003 1.76443066e-003
      -1.15300519e-002 -9.40447208e-003 4.38789278e-001 -2.53768684e-003
      -4.38111508e-003 3.89735238e-003 -1.52237387e-003 -1.45780307e-003
      3.15737771e-003 -1.02843996e-002 4.36790198e-001 -1.09514091e-002
      -2.76351999e-003 -3.40050878e-003 -1.54102105e-003
      -2.11765547e-003 2.05463334e-003 3.99982510e-003 3.92057955e-001
      3.72095853e-002 3.50762457e-002 2.18343399e-002 2.19850112e-002
      2.16693301e-002 2.70984303e-002 1.50142247e-002 2.26132408e-001
      3.89252156e-002 5.12250327e-002 9.79833454e-002 1.24908566e-001
      1.22204207e-001 1.51662648e-001 1.58368111e-001 -1.07088357e-001
      -2.95045623e-003 -3.68517038e-004 4.83056938e-004 -2.90060113e-003
      1.02016865e-003 1.51912624e-003 5.86563721e-004 -7.56396502e-002
      -2.75236741e-003 5.15678665e-003 3.74417449e-003 -2.43794546e-003
      -4.49915044e-003 -1.03690254e-003 -1.78393186e-003 1.51538223e-001
      -8.90635606e-003 1.20256306e-003 -6.58567587e-004 -1.24378756e-004
      -4.42266092e-003 -3.27827944e-003 4.40659141e-003 1.91416785e-001
      5.19041962e-004 2.75859074e-003 1.20546948e-002 -3.32898606e-004
      -3.13947676e-003 8.86728801e-003 -1.51994254e-003 7.28349015e-002
      1.39013985e-002 -1.79151855e-002 2.36466844e-002 1.49950050e-002
      -7.28472543e-004 3.19966511e-003 8.96847714e-003 4.44089210e-016
      0. 0. 0. 0. 0. 0. 0. 4.86961067e-001 -8.77126865e-003
      -2.31370726e-003 -4.10123309e-003 2.20514950e-003 6.10430725e-003
      4.64307144e-003 -3.21725011e-003 3.76679569e-001 -5.24507929e-003
      -3.61101906e-004 -1.68538338e-003 -3.90016939e-003 1.11949409e-003
      -1.15590775e-003 1.72101823e-003 3.74457002e-001 2.73212674e-003
      -3.06928530e-003 -7.00052215e-006 -6.97200652e-003 6.91067846e-003
      6.55661803e-003 -1.16999901e-003 2.76905000e-001 1.23116244e-002
      -2.43110047e-003 6.90960512e-003 2.31151357e-002 2.30054092e-003
      1.58619434e-002 2.38097776e-002 2.10763246e-001 1.62593462e-002
      1.44466376e-002 1.17568905e-002 2.02162117e-002 2.17694063e-002
      2.01238468e-002 1.19705843e-002 1.70118377e-001 4.08036672e-002
      4.32672352e-002 5.81499599e-002 1.07859358e-001 1.49321303e-001
      1.45140275e-001 1.75650567e-001 2.42703333e-001 9.06213094e-003
      2.27370905e-003 3.25673376e-003 8.83290451e-003 1.23794358e-002
      3.05908569e-003 3.30684823e-003 2.38000810e-001 5.96317044e-003
      9.73477669e-004 2.92365695e-003 4.65141982e-003 3.87565233e-003
      1.29113338e-004 8.29601660e-003 3.16068113e-001 5.32654999e-003
      1.09773912e-002 9.29593202e-003 1.05928164e-002 -7.93127343e-003
      1.05471220e-002 5.89073356e-003 2.32398525e-001 9.70138237e-003
      5.44111896e-003 -1.67611905e-003 -9.27135069e-003 4.82918555e-003
      1.40029760e-002 4.82719019e-003 1.65377885e-001 1.35034369e-002
      9.29504074e-003 1.09294988e-002 1.77131016e-002 1.17529267e-002
      1.32213579e-002 1.38773043e-002 1.35715395e-001 2.47131232e-002
      3.44772302e-002 5.27936295e-002 1.08558327e-001 1.26802817e-001
      1.60877377e-001 1.99845836e-001 3.82919461e-001 2.77802914e-001 0.
      2.91638076e-002 0.</_>
    <_>
      1.26871914e-001 -1.21460506e-003 1.72816461e-003 -2.78659118e-003
      5.01360418e-003 -4.61105257e-004 2.83794710e-003 3.35626910e-003
      1.26181364e-001 1.04537176e-003 4.66090254e-003 2.76362733e-003
      1.21216255e-003 5.57569275e-003 1.07083202e-003 5.72433276e-003
      5.16801700e-002 3.78168793e-003 2.52326555e-003 2.10789754e-003
      5.90033410e-003 3.88161774e-004 3.99384834e-003 3.69557133e-003
      6.62249178e-002 8.31731420e-004 2.51421006e-003 5.40281413e-003
      1.51977467e-003 7.48705259e-003 8.02929699e-003 8.38627852e-003
      3.67050134e-002 8.01854860e-003 -1.36619166e-003 4.06742096e-003
      6.90684794e-003 1.40864132e-002 1.58870295e-002 3.94410128e-003
      5.85804577e-004 8.96826386e-003 2.10810155e-002 1.99687816e-002
      7.12005198e-002 1.67501524e-001 9.43377167e-002 6.05049450e-003
      3.13122243e-001 -7.98165798e-003 2.94389133e-003 1.47300935e-003
      -8.95028561e-003 -1.64120900e-003 -1.33353686e-002 7.68028246e-003
      3.31210643e-001 -1.87910825e-003 -5.58747165e-003 6.44527026e-004
      -6.66976767e-003 -1.40798772e-002 -7.87835661e-003
      -6.13308884e-003 2.26409987e-001 -4.92710248e-003 -1.06904749e-002
      -1.11714384e-004 -1.75065605e-003 -3.57713574e-003 4.16814489e-003
      3.43948959e-005 1.73009187e-001 4.33366466e-003 -1.68219628e-003
      4.89639910e-003 -3.42913903e-003 -3.33285169e-003 2.67201615e-003
      -1.39334574e-002 1.67743400e-001 -5.13549671e-002 -4.78945971e-002
      -1.48725649e-002 -2.24320758e-002 2.27597984e-003 -9.97792743e-003
      1.75022904e-003 4.49983776e-002 -3.86785343e-002 2.14410219e-002
      1.67482998e-002 2.69898847e-002 1.72796305e-002 1.42323468e-002
      6.06218679e-003 -2.88668752e-001 6.55503757e-003 3.17332131e-004
      4.80348757e-003 3.27751879e-003 5.73895779e-003 2.99829734e-003
      2.18131277e-003 -3.92072231e-001 8.52391403e-003 2.95747886e-004
      1.33747386e-003 -7.56604481e-004 8.36787187e-003 4.03923867e-003
      8.36022757e-003 -1.60561129e-001 8.73635057e-003 9.22137778e-003
      -5.07573073e-004 5.74007921e-004 6.03723433e-003 1.27856177e-003
      3.75815132e-003 -4.62389410e-001 -4.75006877e-003 1.43039348e-002
      5.35414787e-003 1.09532448e-002 1.07885338e-002 1.16602732e-002
      1.16613992e-002 -4.12272424e-001 6.45560399e-002 5.52854724e-002
      7.40419924e-002 5.44623397e-002 4.97598723e-002 2.39047650e-002
      1.83458533e-002 4.71844785e-016 0. 0. 0. 0. 0. 0. 0.
      -4.62369472e-001 2.35000509e-003 1.68204610e-003 6.23960700e-003
      4.06182045e-003 -4.42577526e-003 2.84965755e-003 1.03115644e-002
      -4.78212535e-001 5.72206965e-003 1.14938030e-002 1.16594024e-002
      2.90455460e-003 8.21132399e-003 4.47893236e-003 1.00647649e-002
      -2.12303460e-001 -9.49424691e-003 1.50436524e-003 8.15452263e-003
      -5.14751859e-003 -5.36491349e-003 3.15901381e-003 -3.02330568e-003
      -2.20900238e-001 -9.38040111e-003 -4.97982185e-003
      -6.12624828e-003 -4.28989297e-003 4.70752828e-003 -6.04048325e-003
      7.46190688e-003 -1.23841777e-001 -3.69767360e-002 -1.50895370e-002
      -1.96079127e-002 2.22450146e-003 -8.67125858e-003 -4.55327705e-003
      -8.89852736e-003 4.71844785e-016 0. 0. 0. 0. 0. 0. 0.
      -2.82711424e-002 -5.56407217e-003 7.91610626e-004 2.53524003e-003
      -4.20525810e-003 1.81641115e-003 -6.51493436e-003 9.48450397e-005
      -7.15254173e-002 -9.48621519e-003 1.08832086e-003 -5.09373425e-003
      -3.00333463e-003 -6.88222470e-003 3.66431777e-003 -5.69878425e-003
      -7.62124434e-002 5.67059033e-003 -1.96925458e-003 5.75452438e-003
      6.57581957e-003 2.58064689e-003 -1.45894033e-003 3.52637633e-003
      -5.99838160e-002 -6.02796266e-004 -1.59403700e-002 5.28071821e-003
      7.81000732e-003 -3.38126629e-005 8.89803807e-004 1.00184735e-002
      3.20596434e-002 -6.60375273e-003 -7.55866338e-003 8.09287000e-003
      -6.43747067e-003 -1.00937588e-002 -6.05637499e-004 1.51466904e-003
      2.07600538e-002 8.42191093e-003 -3.28918919e-004 6.39912440e-003
      1.06609659e-002 3.33536528e-002 3.28003354e-002 5.52944466e-002
      3.07352781e-001 -2.08638143e-003 -2.94613745e-003 -3.08312196e-003
      -2.24959571e-003 -2.59783049e-003 -1.23723713e-003
      -1.00226374e-002 3.55729669e-001 -2.89902184e-003 -4.80822608e-004
      -2.78051099e-004 -8.73720087e-003 -3.48721840e-003
      -1.28498150e-003 -8.83748988e-004 4.73110527e-001 -8.64223344e-004
      -5.47313690e-003 -6.73861150e-003 -9.26684774e-003 6.28071357e-005
      -7.36433722e-004 -8.03127047e-003 3.58930171e-001 -3.07259918e-003
      -7.71820871e-003 1.39706535e-003 2.61493679e-003 -8.52086488e-003
      -6.71937689e-003 -7.19856587e-004 7.99138397e-002 1.20860245e-002
      1.35774948e-002 9.63136833e-003 5.99888479e-003 1.99760497e-002
      1.93439983e-002 1.05053466e-002 3.54370549e-002 -9.87349777e-004
      -7.36532747e-005 1.44515401e-002 2.95809899e-002 5.00942618e-002
      6.09695390e-002 5.99706024e-002 -1.32251725e-001 -4.47024032e-003
      -1.78027037e-003 -6.07302529e-004 -9.58015677e-004 5.73278312e-003
      8.90730589e-004 -4.87543317e-003 -2.89820790e-001 4.66357742e-004
      9.18804761e-003 1.16010767e-003 2.47431942e-003 -1.76121492e-003
      -2.78051099e-004 3.65498243e-003 -2.38678783e-001 -4.31590946e-003
      -3.62306577e-003 -6.33887993e-003 -1.67272761e-002
      -1.12324096e-002 -8.66230857e-003 -3.99409654e-003
      -2.67559350e-001 -4.53342544e-003 -1.81473535e-003 1.01838633e-002
      -9.58015677e-004 -5.21847920e-004 4.25174925e-003 2.60664523e-003
      1.22071102e-001 -5.89971915e-002 -8.51561949e-002 -9.04112458e-002
      -5.13831042e-002 -5.65090440e-002 -6.10076077e-002
      -2.29394063e-002 4.71844785e-016 0. 0. 0. 0. 0. 0. 0.
      4.19088721e-001 4.44474106e-004 4.10359446e-003 -1.62914759e-004
      -1.28414459e-003 2.98754848e-003 2.58261245e-003 -3.92630091e-003
      4.17463303e-001 1.27054960e-003 3.38971894e-003 2.49346113e-003
      5.99589839e-004 3.80974798e-003 1.04102772e-003 -8.52757366e-004
      2.68326044e-001 3.40268645e-003 8.77676532e-004 -5.15360711e-003
      -2.30517727e-003 6.83506019e-004 1.59091805e-003 -4.21910489e-004
      1.85050413e-001 1.87716773e-003 1.84986333e-003 5.26726199e-003
      7.69983605e-003 2.98030791e-004 1.25903841e-002 -3.98211239e-004
      7.50718787e-002 2.21942365e-003 2.54244078e-003 8.17502290e-003
      1.02477823e-003 2.97129853e-003 -1.82306441e-003 -5.19427704e-004
      2.63661407e-002 6.52859407e-003 1.03717921e-002 2.22223960e-002
      2.22923905e-002 5.45905381e-002 7.02840611e-002 9.55706239e-002
      1.12584926e-001 7.40430260e-004 -2.34414125e-003 -1.27444149e-003
      1.77833531e-003 9.84817185e-003 -3.79846036e-003 -9.50094953e-004
      1.04775205e-001 -9.06419125e-004 -3.57794319e-003 -2.93635065e-003
      -7.64652155e-004 1.51043932e-003 -2.09556404e-003 2.76741246e-003
      4.12666472e-003 1.67555071e-003 5.00368769e-004 7.85129145e-003
      9.39069665e-004 -5.52460086e-003 4.67276806e-003 -1.02145867e-002
      -1.16885558e-001 4.20881854e-003 -3.25467298e-003 4.81924595e-004
      -5.61563717e-003 7.73969921e-004 4.10874560e-003 3.39415623e-003
      2.67830696e-002 3.24221421e-003 7.03015830e-004 1.55973539e-003
      -7.36122159e-003 -1.72756705e-002 -6.86874194e-003 1.14768562e-004
      1.25277229e-002 -8.87844805e-003 -1.30566582e-002 -3.55335418e-003
      1.17778089e-002 1.54389418e-003 5.07724993e-002 6.18816949e-002
      -3.65699440e-001 -5.19665539e-001 0. 7.23351259e-003 0.</_>
    <_>
      2.11277783e-001 -2.50530127e-003 1.78247236e-003 9.47331486e-004
      3.08750989e-003 -3.07636755e-003 2.32478720e-003 -2.44213734e-003
      2.59272218e-001 3.32970126e-003 -1.62697735e-003 2.08510063e-003
      8.99496372e-004 4.68243565e-003 -4.87727532e-003 6.87690778e-003
      1.21185534e-001 8.87035951e-003 1.03616193e-002 8.53062980e-003
      1.73106622e-002 1.20400488e-002 8.06222111e-003 1.35044036e-002
      1.95583418e-001 9.08882078e-003 1.04826698e-002 1.48076331e-002
      1.83526073e-002 1.97121948e-002 2.23351195e-002 1.68685131e-002
      1.15631558e-001 2.92601958e-002 3.41210440e-002 3.22883464e-002
      3.92898545e-002 5.49569279e-002 5.25751151e-002 6.45593926e-002
      8.79712123e-003 3.61539200e-002 8.86433050e-002 1.59777552e-001
      1.31102055e-001 2.02270731e-001 6.14998341e-002 -4.14221734e-002
      2.20117047e-001 2.87528324e-004 5.19549148e-003 -1.70531799e-003
      -1.11226074e-003 -4.85711778e-003 -3.96182993e-003 1.11391367e-002
      3.24049890e-001 -5.26742777e-003 -6.62975665e-003 -2.28939345e-003
      -4.19923197e-003 -6.99147582e-003 -1.03144245e-002
      -4.00067773e-003 3.69163513e-001 -6.91498537e-003 -1.25791067e-002
      -1.04256365e-002 -8.82845465e-003 -3.43500520e-003
      -1.30383752e-003 -6.39921008e-003 2.86848575e-001 -5.37687261e-003
      7.27141509e-003 -1.29233580e-003 -1.37562677e-002 -1.05513157e-002
      -3.55465151e-003 -1.77600700e-002 1.71830490e-001 -2.65760776e-002
      -2.54891720e-002 -1.26015740e-002 -2.97445972e-002
      -4.47821319e-002 -4.19788659e-002 -5.64597324e-002
      -4.76344414e-002 -1.67564824e-001 -6.61335289e-002
      -2.78373528e-002 2.47218478e-002 4.12193201e-002 5.01985624e-002
      5.11668921e-002 -1.02852210e-001 -6.87096315e-003 -8.85447487e-003
      -6.58078538e-003 -6.82554720e-003 -1.30282599e-003
      -1.95140846e-003 -6.09712768e-003 2.78136004e-002 -8.64138920e-003
      -2.55673416e-002 -2.34080963e-002 -2.08627675e-002
      -7.93018285e-003 -1.30490605e-002 -1.20075112e-002
      -1.40714779e-001 -7.37668481e-003 -1.34974928e-003
      -1.25477929e-002 -5.39871212e-003 4.30411287e-003 1.15731428e-003
      2.88691884e-003 -2.85809696e-001 -6.05396293e-002 -3.57353128e-002
      -3.81020419e-002 -2.52656564e-002 -7.58490758e-003 2.09609210e-003
      1.50793046e-002 -4.72442150e-001 6.29542544e-002 6.12577759e-002
      7.77064189e-002 5.66458665e-002 5.74964955e-002 2.72561647e-002
      2.00080890e-002 -5.55111512e-017 0. 0. 0. 0. 0. 0. 0.
      2.23294958e-001 -2.23217197e-002 -1.47785973e-002 -8.85238778e-003
      -9.51324403e-003 -1.97634194e-002 -1.41223986e-002
      -2.87100277e-003 2.41846144e-001 -1.38105843e-002 -1.83975063e-002
      -1.04656378e-002 -2.08547693e-002 -2.71965191e-002
      -2.45249700e-002 -1.77178644e-002 -1.46911219e-001
      -1.40234903e-002 -8.46274756e-003 3.44870728e-003 -1.13233887e-002
      -1.25255100e-002 -9.87108331e-003 -1.38829919e-002
      -3.35659206e-001 1.67146896e-003 -7.28661846e-003 2.86886818e-003
      -3.51994019e-003 4.77020023e-003 -1.01328816e-003 -3.37303296e-004
      1.25635415e-001 -1.88799366e-001 -8.60724971e-002 -7.84212798e-002
      -3.85161787e-002 -9.80284624e-003 -2.16211379e-002
      -1.91793665e-002 -4.89956141e-003 1.46986777e-003 0.
      4.89955884e-004 0. 9.79911769e-004 1.46986777e-003 0.
      7.70548955e-002 8.03813245e-003 3.24787386e-003 1.75816717e-003
      1.48331083e-003 1.42344960e-003 -2.11934419e-003 5.24898758e-003
      1.87971983e-002 -1.30451145e-003 8.54921155e-003 -9.92942951e-004
      7.45236920e-003 -1.44905283e-003 7.58582354e-003 2.66931090e-003
      1.43682480e-001 2.35259882e-003 -5.08397818e-003 6.78729499e-003
      3.31904786e-003 4.61618695e-003 1.91430433e-003 1.06101101e-002
      2.48310313e-001 -6.15436875e-004 1.88415509e-003 1.09941643e-002
      8.26043356e-003 8.76050163e-003 5.26056858e-003 5.80830965e-003
      1.30718708e-001 7.05824886e-003 3.65233049e-003 1.37372315e-002
      1.20776938e-002 1.32160308e-002 1.12371752e-002 1.90818552e-002
      8.00669938e-002 1.98942404e-002 2.84227766e-002 3.73566635e-002
      1.00680314e-001 9.65510905e-002 9.21988636e-002 9.96156633e-002
      3.36585492e-001 -1.20745521e-004 -6.28970889e-003 3.43647756e-004
      -2.80546490e-003 -2.01784680e-003 -3.54915595e-004
      -3.06312321e-003 4.57014233e-001 1.51977630e-003 1.12398225e-003
      -3.77650606e-003 -2.94910953e-003 -2.34549819e-003 3.03644541e-004
      -4.16345289e-003 6.68850183e-001 3.24530178e-003 -4.20940667e-003
      1.81792676e-003 4.82610230e-005 9.25536733e-004 4.11314657e-004
      7.75220059e-003 6.76799238e-001 -2.46903975e-003 -4.32867324e-003
      5.15652634e-003 4.20444505e-003 -9.31177754e-003 -3.40902037e-003
      4.46322281e-003 2.89905816e-001 2.99921110e-002 2.51805335e-002
      2.05245260e-002 1.03536351e-002 2.30899472e-002 2.19593551e-002
      1.58296824e-002 1.58757508e-001 3.27472277e-002 4.26463149e-002
      6.96806386e-002 9.39286798e-002 5.68487011e-002 7.32210726e-002
      8.10068250e-002 2.08142981e-001 -6.27895305e-003 -1.16764463e-003
      -2.11648783e-003 9.42727434e-004 1.90296234e-003 -2.75696348e-003
      -2.69477698e-003 2.31328413e-001 -4.52798186e-003 1.71957223e-003
      -6.36517396e-003 -5.90145681e-003 -4.97210911e-003
      -6.86002057e-003 -2.09360477e-003 3.26936811e-001 -1.01565868e-002
      -1.05636399e-002 -1.20541668e-002 -8.99737142e-003
      -6.42682798e-003 -8.76978319e-003 -8.65945965e-003 2.85408765e-001
      -8.39071069e-003 -8.18419829e-003 7.89467478e-004 -1.55744506e-002
      -7.07654934e-003 -2.43962090e-003 -6.66184491e-003 2.83737957e-001
      -1.07749149e-001 -6.79053068e-002 -1.40076755e-002
      -1.32541312e-002 -2.39155050e-002 -2.47323494e-002
      -1.17826303e-002 -5.55111512e-017 0. 0. 0. 0. 0. 0. 0.
      -4.63125948e-003 -4.56453301e-003 -2.83898623e-003
      -2.93218833e-003 -1.81492732e-003 7.37203169e-004 2.54352693e-003
      -4.07357467e-003 1.13624819e-001 -4.54450399e-003 4.00300557e-003
      2.18535028e-003 -8.86125548e-004 -2.20949249e-003 -2.62942328e-003
      -1.44150341e-003 2.07874805e-001 8.06409866e-003 2.40584556e-003
      1.61259188e-004 7.11559877e-003 9.54790879e-003 6.57512620e-003
      2.30557658e-003 2.54427433e-001 1.43740326e-002 9.09874856e-004
      8.72504618e-003 2.45183557e-002 2.41623120e-003 7.48472940e-003
      2.40468187e-003 1.76276773e-001 1.26837585e-002 1.68895032e-002
      1.60122197e-002 1.18561964e-002 1.30012548e-002 1.69226509e-002
      1.67522058e-002 1.33589953e-001 4.50488552e-002 5.16051762e-002
      6.11610338e-002 6.86740503e-002 6.92158788e-002 4.12495211e-002
      7.74972215e-002 -2.06776336e-001 5.32486849e-003 -3.77623015e-004
      -1.23672490e-003 2.05178908e-003 7.92675372e-003 -1.11920075e-004
      -8.46634386e-004 -1.15281016e-001 1.69080938e-003 -8.73120094e-004
      3.17988190e-004 8.51061370e-004 -1.57095585e-003 -1.78915286e-003
      4.02184064e-003 6.36112988e-002 6.07636245e-003 1.00771757e-002
      1.26557760e-002 8.60891212e-003 2.66898470e-003 7.20910309e-003
      5.20559913e-003 1.63154170e-001 1.47599932e-002 1.88827105e-002
      2.21863366e-003 2.58846488e-003 7.96400383e-003 1.39813228e-002
      9.87026934e-003 7.91642517e-002 1.07687674e-002 3.82272503e-003
      4.03892389e-003 1.59886330e-002 5.75844618e-003 8.92042276e-003
      1.02318758e-002 7.85605088e-002 1.73132624e-002 2.57532261e-002
      4.08788994e-002 7.65580907e-002 8.13207328e-002 4.86062467e-002
      6.90631047e-002 6.69646263e-003 -4.68612537e-002 0.
      -1.16905272e-001 0.</_>
    <_>
      3.06575443e-003 3.16564838e-005 8.23068476e-005 3.79877747e-005
      3.16564838e-005 5.06503711e-005 7.59755494e-005 5.06503711e-005
      3.04183620e-003 6.33129675e-005 2.53251856e-005 5.69816693e-005
      1.01300742e-004 6.33129675e-005 5.69816693e-005 6.33129675e-005
      1.64402672e-003 1.32957226e-004 1.39288517e-004 7.73825814e-005
      1.89938888e-004 1.02707760e-004 8.86381458e-005 1.26625935e-004
      1.86984322e-003 2.10339786e-004 2.21595372e-004 2.34257954e-004
      1.59689414e-004 2.40589259e-004 2.34257954e-004 2.40589259e-004
      3.36263096e-004 4.82585543e-004 6.07804395e-004 6.64786145e-004
      6.78855751e-004 9.08189395e-004 1.03200134e-003 7.92819075e-004
      1.51951099e-004 8.09702731e-004 2.40800343e-003 2.35946337e-003
      1.72351964e-003 6.67600136e-004 1.44916601e-004 9.85374767e-003
      2.01357812e-001 -9.97071154e-003 -8.02798104e-003 -1.24182701e-002
      -1.09765138e-002 -1.49219036e-002 -1.31995389e-002 3.71322036e-003
      2.24172443e-001 -1.76968705e-002 -2.00206898e-002 -1.34568159e-002
      -1.67641193e-002 -1.53848082e-002 -1.42620895e-002
      -1.34773599e-002 1.38643846e-001 -3.36471088e-002 -3.48879583e-002
      -3.23231667e-002 -2.78639160e-002 -2.16271020e-002
      -1.24785928e-002 -1.75477713e-002 7.33945295e-002 -5.43890223e-002
      -3.61769646e-002 -3.20763290e-002 -4.11665551e-002
      -3.09535004e-002 -2.28058398e-002 -2.23686881e-002
      -6.25084192e-002 -1.17579907e-001 -6.25565052e-002
      -3.07952445e-002 -1.61048025e-002 -7.17081549e-003
      -3.38923978e-003 2.84101116e-003 -2.80031443e-001 6.68433355e-003
      3.14153023e-002 2.40234323e-002 1.16160512e-002 2.37724502e-002
      3.46838348e-002 4.08910140e-002 -2.28985965e-001 4.86215390e-003
      -1.75868663e-005 4.78899246e-003 2.30550650e-003 2.44690524e-003
      2.38499930e-003 -2.39885441e-004 -3.36103708e-001 8.86325259e-003
      2.14810623e-003 1.75732328e-003 1.56764884e-003 8.97141267e-003
      4.23702737e-003 6.74522389e-003 -1.24500595e-001 4.81291069e-003
      4.85722953e-003 -7.31615146e-005 2.53251856e-005 2.45323638e-003
      2.27525691e-003 2.45323638e-003 -3.78714144e-001 2.13174801e-003
      9.74356569e-003 2.34630820e-003 6.88864384e-003 4.49493900e-003
      4.29893332e-003 1.40750334e-002 -3.29392821e-001 4.57553603e-002
      4.03740406e-002 5.47986999e-002 4.26781401e-002 4.05710153e-002
      1.86656453e-002 1.18211452e-002 1.11022302e-016 0. 0. 0. 0. 0. 0.
      0. -7.56981894e-002 -1.95952151e-002 -1.98330898e-002
      -1.35767283e-002 -1.49209220e-002 -2.10044682e-002
      -1.67129077e-002 -1.05412705e-002 2.54425943e-001 1.21601427e-003
      5.52066788e-003 7.51109386e-004 8.60498170e-004 -2.12508766e-003
      2.46988027e-004 1.81876856e-003 -4.17921901e-001 -5.11948485e-004
      -3.10839998e-004 4.17257566e-003 -3.54369899e-004 -6.45084248e-004
      2.06246064e-003 -3.54195014e-004 -3.42001855e-001 8.97042537e-006
      -1.03585873e-004 7.11428514e-003 -1.27504041e-004 4.78978502e-003
      2.22205697e-003 7.23923929e-003 3.50650638e-001 -2.67395494e-003
      -2.37006713e-002 -1.00669794e-001 -1.61083132e-001
      -1.94136471e-001 -1.32645637e-001 -6.51116073e-002 1.11022302e-016
      0. 0. 0. 0. 0. 0. 0. 5.77190481e-002 2.40399316e-003
      1.89938874e-005 2.40399316e-003 6.33129675e-005 2.38007493e-003
      7.73831925e-006 4.84456681e-003 9.20373760e-003 -1.58985626e-004
      2.40399316e-003 3.16564838e-005 7.28514045e-003 3.79877747e-005
      2.43424252e-003 2.43564951e-003 5.17133065e-002 4.90014162e-003
      -4.78363254e-005 2.44831224e-003 5.69816693e-005 6.96442585e-005
      8.37138723e-005 2.54187454e-003 7.57673085e-002 -1.38051637e-005
      5.34644059e-005 2.56227539e-003 2.67623877e-003 5.10274293e-003
      2.16671091e-004 2.65583792e-003 6.56478060e-003 2.53251856e-005
      6.33129675e-005 3.30635012e-005 1.51951099e-004 2.74447608e-003
      2.94053665e-004 5.26102539e-003 1.99527340e-003 2.58619362e-003
      5.78961975e-004 1.59056240e-003 1.35771150e-003 1.24726538e-003
      8.54021811e-004 5.62472362e-003 4.38956171e-002 2.44690524e-003
      -3.65807573e-005 1.89938874e-005 1.26625928e-005 3.16564838e-005
      2.32942449e-003 1.89938874e-005 5.34305125e-002 5.06503711e-005
      2.47223023e-003 7.59755494e-005 2.53251856e-005 6.56876437e-005
      4.43190729e-005 -1.12555726e-005 1.29716367e-001 6.96442585e-005
      3.30635012e-005 1.83607583e-004 7.73825814e-005 2.47996859e-003
      5.20573958e-005 2.49122432e-003 1.38848424e-001 1.73319684e-004
      2.58223712e-003 1.45619808e-004 4.88396175e-003 1.78513183e-005
      2.56086839e-003 2.54820590e-003 1.40560931e-002 7.51799112e-003
      5.09641180e-003 3.03902198e-004 5.26973139e-003 5.09034470e-003
      2.67623877e-003 3.44264699e-004 1.00808381e-003 5.26904652e-004
      3.41066928e-003 6.19594706e-003 6.20579580e-003 8.20810255e-003
      3.21044237e-003 2.91427854e-003 2.27951333e-001 -6.41784072e-003
      -5.82222175e-003 -8.58436618e-003 -5.22338785e-003
      -2.51012249e-003 -4.86505078e-003 -7.40033295e-003 3.12215447e-001
      -2.86644299e-005 4.10810485e-003 -4.43979661e-004 -2.74092017e-004
      -8.59291526e-004 -3.28342826e-003 -8.92890501e-004
      -2.54947543e-001 2.74839997e-003 2.40113959e-003 -2.22191797e-003
      -1.24465514e-004 3.21888423e-004 5.24582458e-004 2.66313902e-004
      -2.55548507e-001 1.25952985e-003 1.34948909e-003 1.15296450e-002
      1.35326711e-003 1.56923442e-003 8.87451135e-003 1.76559354e-003
      3.01417500e-001 -2.02796012e-002 -3.23905461e-002 -4.62890640e-002
      -8.03606510e-002 -1.09431274e-001 -1.06435686e-001
      -7.70151690e-002 -6.33132322e-006 0. 6.33129639e-006 0. 0. 0. 0.
      0. 3.61497849e-002 2.53251856e-005 2.45956774e-003 2.38499930e-003
      2.24993168e-003 2.44294852e-003 2.37471121e-003 2.53251856e-005
      1.71388220e-002 -2.39181627e-005 -1.75868663e-005 5.69816693e-005
      2.42791115e-003 3.79877747e-005 1.26625928e-005 4.03624617e-005
      3.04551534e-002 8.86381458e-005 9.14533666e-006 5.83886867e-005
      -5.27606098e-005 4.91280435e-003 2.34982558e-003 2.52921204e-003
      6.10599518e-002 1.15370349e-004 2.48770695e-003 -6.06684762e-006
      4.81809909e-003 2.50274432e-003 2.48137559e-003 6.61270024e-005
      1.01806531e-002 2.34257954e-004 2.80778902e-003 3.17971804e-004
      4.05202969e-004 2.78387079e-003 3.92540387e-004 4.05202969e-004
      1.17397709e-002 6.21874060e-004 1.38162961e-003 6.39573438e-003
      3.64774116e-003 3.36239347e-003 2.91049667e-003 2.71915086e-003
      2.94374302e-002 7.28373323e-003 1.89938874e-005 2.42791115e-003
      7.29639595e-003 7.24082114e-003 4.43190729e-005 4.43190729e-005
      4.14355882e-002 2.53251856e-005 1.40702286e-006 1.26625928e-005
      2.45323638e-003 1.89938874e-005 -4.92427625e-006 2.39766180e-003
      8.80304128e-002 5.06503711e-005 4.83964244e-003 7.19298515e-003
      4.83964244e-003 1.26625935e-004 7.35337753e-003 2.39906879e-003
      9.54259932e-002 7.30554108e-003 7.46100955e-003 2.64950655e-003
      2.41996284e-004 2.55101989e-003 9.74259805e-003 4.97119268e-003
      7.60451937e-003 2.45323638e-003 2.59252498e-003 2.57986248e-003
      1.89938888e-004 2.70156399e-003 4.05202969e-004 2.90275854e-003
      4.95290291e-003 3.49628303e-004 3.43458750e-003 4.38709604e-003
      4.16901754e-003 6.01726398e-003 5.52834710e-003 2.86758482e-003
      -3.43867056e-002 -1.53260931e-001 0. -2.01052994e-001
      -8.38287175e-002</_>
    <_>
      1.32182673e-001 3.93047194e-005 3.80902668e-003 3.55570391e-003
      1.97672867e-003 -1.59935630e-003 8.07073840e-004 -1.78978633e-004
      9.20189396e-002 1.92024407e-003 1.97251604e-004 2.23062554e-004
      6.36438280e-003 5.72248874e-003 5.97621198e-004 5.85008832e-003
      3.64989676e-002 1.33917190e-003 6.11342816e-003 4.50718543e-003
      7.86787085e-003 6.11600513e-003 1.04225741e-003 8.38915072e-003
      5.88823445e-002 7.17332261e-003 5.58980042e-003 5.49823698e-003
      1.11981742e-002 8.63790791e-003 1.27244107e-002 7.19551090e-003
      4.50845473e-002 8.84564687e-003 1.94939524e-002 1.90228000e-002
      2.32046209e-002 3.50814611e-002 2.87703387e-002 4.22345065e-002
      -4.16833861e-003 1.64388474e-002 6.84783161e-002 1.48165822e-001
      1.08163923e-001 1.18839473e-001 3.15339416e-002 -1.95584130e-002
      4.14537370e-001 9.36165859e-004 7.84838386e-003 1.15197210e-003
      -4.26886778e-004 -4.82461270e-004 -2.80646561e-003 1.72272138e-002
      4.76954073e-001 4.99604968e-004 -3.27752368e-003 6.68152294e-004
      -3.89013730e-004 -3.46249226e-003 -4.50786809e-003 1.47659142e-004
      3.57873976e-001 -1.21298793e-003 -1.13130109e-002 -9.30226035e-003
      -6.73604570e-003 -3.66380927e-003 2.95100035e-003 -1.89382967e-003
      2.24867046e-001 -1.58540197e-002 -1.20541537e-002 -8.55354499e-003
      -1.68010648e-002 -6.87624421e-003 -3.49807582e-004
      -6.71978341e-003 1.20213442e-002 -8.31131935e-002 -4.99943830e-003
      1.74589884e-002 -4.99914968e-005 8.10737628e-003 4.36942419e-003
      6.35604607e-003 -1.67354196e-001 6.13359846e-002 6.13212883e-002
      1.51914544e-002 5.54022333e-003 1.66940149e-002 2.90994737e-002
      4.02200446e-002 -7.71249235e-002 1.23464921e-003 -1.91435951e-003
      3.00989556e-003 -3.81023892e-006 1.87144370e-003 6.26241323e-004
      -5.50174853e-003 -1.62982136e-001 7.51744490e-003 -3.32674896e-003
      -4.47377702e-003 -5.35625615e-004 1.17235379e-002 3.23660998e-003
      2.84941099e-003 -1.14087403e-001 7.04142684e-003 1.01484526e-002
      -3.10273899e-004 3.76066682e-003 3.45306075e-003 -1.63476635e-003
      4.36553918e-003 -4.29803073e-001 6.32214081e-003 2.02040169e-002
      4.27983189e-003 1.19037582e-002 7.67059438e-003 1.04583399e-002
      1.47815729e-002 -3.98430884e-001 7.03315139e-002 6.33121952e-002
      6.94042966e-002 4.46891189e-002 4.63668890e-002 1.71617102e-002
      8.19398183e-003 -2.77555756e-016 0. 0. 0. 0. 0. 0. 0.
      -1.72813490e-001 -3.83713236e-003 -9.74894385e-004 4.72403178e-003
      -1.85805303e-003 -6.55438425e-003 2.01055990e-003 1.04664965e-002
      -2.22715676e-001 6.63707964e-003 7.30451476e-003 5.83127374e-003
      2.70745903e-003 -1.09539530e-003 -2.49896501e-003 4.83900355e-003
      -2.56527960e-001 -7.07623665e-004 -7.96271767e-003 1.89216447e-003
      -6.19187718e-004 -5.31739369e-003 -2.97518796e-003
      -9.70315188e-003 -3.25460613e-001 2.27485457e-003 -4.04169131e-003
      7.28219189e-003 7.55960238e-004 7.42467307e-003 2.44166655e-003
      6.30555116e-003 -3.19177844e-002 -1.24668717e-001 -1.16589122e-001
      -5.38443886e-002 -2.78425775e-002 -1.40986836e-003 6.50470238e-003
      -3.02627217e-004 -4.45292052e-003 1.33587548e-003 0.
      4.45291807e-004 0. 8.90583615e-004 1.33587548e-003 0.
      -6.55045779e-003 4.48358105e-003 1.66235433e-003 5.30001847e-003
      -4.65307821e-005 3.79785080e-003 -6.18548540e-004 7.72430608e-003
      -6.00931905e-002 -3.52268486e-004 7.76980538e-003 1.72549463e-003
      8.06154124e-003 1.30721345e-003 5.24324737e-003 5.82305714e-003
      8.41690786e-003 7.12473225e-003 -2.32251571e-003 5.40591497e-003
      2.62254034e-003 1.86334259e-003 1.43045362e-003 4.83430410e-003
      6.50390098e-003 1.05750072e-003 2.79104616e-003 9.02818050e-003
      8.63497145e-003 9.79381613e-003 5.69400424e-003 3.76763847e-003
      3.26439738e-002 7.89176047e-005 -2.14275112e-003 2.40133144e-003
      -1.87588666e-004 3.18973977e-003 -1.73486408e-003 6.76985737e-003
      2.46170126e-002 7.57723721e-003 1.29707800e-002 1.55252134e-002
      6.58800751e-002 6.31350577e-002 5.46104647e-002 6.87651262e-002
      4.67175603e-001 2.76203221e-003 -1.90508296e-003 -1.06709788e-003
      -2.87223351e-003 -4.01782047e-004 5.60598390e-004 -1.93401618e-004
      4.45388556e-001 -7.48606864e-004 1.39588956e-003 -1.90717145e-003
      1.38117379e-004 2.54395767e-003 1.15129573e-003 -2.69998237e-003
      4.44672406e-001 2.39343266e-003 -6.36498180e-006 2.06463039e-003
      -8.83406959e-004 4.39079385e-003 -1.27001305e-003 1.87532953e-003
      3.79182667e-001 2.39166548e-003 5.24148345e-003 7.95365428e-004
      1.21417502e-002 -4.40592226e-003 -3.97691590e-004 1.07681043e-002
      1.79485098e-001 1.97904669e-002 1.69293899e-002 7.36491662e-003
      1.13127176e-002 1.60969980e-002 1.50260115e-002 8.39284714e-003
      9.94114131e-002 1.79383345e-002 3.40976641e-002 4.99175712e-002
      7.86895826e-002 5.86294979e-002 5.91938160e-002 6.39320314e-002
      1.59800768e-001 -8.56084749e-003 -1.81441859e-003 -9.42537002e-003
      -3.80557775e-003 -5.76794939e-003 -1.17862085e-003
      -3.68399895e-003 2.45374754e-001 -3.06228898e-003 1.04884501e-003
      -4.07541636e-003 -7.90151022e-003 -4.54531517e-003
      -6.04848098e-003 -6.17152639e-003 4.71572429e-002 -3.34759150e-003
      -1.42141781e-003 -6.65643485e-003 -6.44603232e-003
      -2.41091265e-003 -7.29711168e-003 -5.85472072e-003
      -5.84588498e-002 -8.17161985e-004 -1.29420927e-003 8.41381028e-003
      -2.54423660e-003 2.08701030e-003 5.70340734e-003 -7.83245196e-004
      -3.81106365e-004 -1.29877865e-001 -1.07429802e-001
      -5.85884713e-002 -3.50465961e-002 -2.52875127e-002
      -5.07312687e-003 9.49496590e-003 2.01612711e-003 -2.01612897e-003
      0. 0. 0. 0. 0. 0. 2.42568240e-001 -9.99765005e-004 4.62757889e-004
      2.19482183e-003 1.95436482e-003 1.59581366e-003 2.24026782e-003
      -3.66243045e-003 2.10689947e-001 -7.83282594e-005 2.49729236e-003
      -1.82274991e-004 3.08138574e-003 -1.45112816e-003 1.75133767e-003
      -1.09192543e-003 1.58290222e-001 2.13420903e-003 -1.45052106e-003
      -4.77648014e-003 2.53345468e-003 4.17962903e-003 5.83791640e-003
      3.94916488e-003 1.26874372e-001 9.05991532e-003 6.98482199e-003
      4.76437854e-003 1.50272427e-002 5.56652294e-003 1.00952787e-002
      6.31076749e-004 1.12823203e-001 6.66358694e-003 8.31845030e-003
      3.44969728e-003 5.52494638e-003 1.08251320e-002 1.13235749e-002
      1.53172957e-002 1.00858748e-001 2.38198228e-002 2.86782123e-002
      3.79493609e-002 6.40964061e-002 6.09545112e-002 2.78567150e-002
      3.88813354e-002 -2.15710729e-001 5.66774933e-003 -8.33832310e-005
      1.91149663e-003 6.18128479e-003 7.50258518e-003 6.09235321e-005
      -5.45039074e-003 -1.92724973e-001 2.07756995e-003 -4.44634957e-003
      -8.15040665e-004 -8.67432740e-004 -3.39247799e-003
      -3.06660589e-003 1.73302600e-003 -9.82490927e-002 3.65430932e-003
      7.90153630e-003 1.11535285e-002 7.00934045e-003 4.37095499e-004
      1.00570284e-002 4.17487114e-004 -5.53682111e-002 1.18367523e-002
      1.17447637e-002 1.63041649e-003 -1.37300420e-004 9.04010050e-003
      1.55801205e-002 8.82508699e-003 -5.65070333e-003 1.91095914e-003
      1.20236131e-003 1.23822840e-003 5.33878617e-003 -4.84646123e-004
      3.74180987e-003 7.13670254e-003 2.03347728e-002 6.43356470e-003
      9.30788461e-003 2.38820538e-002 5.26579469e-002 6.13164008e-002
      4.83115241e-002 6.65322989e-002 -2.07345903e-001 6.16674721e-002
      0. -2.07797512e-002 0.</_>
    <_>
      -1.36337187e-002 -5.06428187e-004 -2.66546587e-004
      -1.46605787e-004 -3.86487431e-004 -7.01902609e-004
      -6.04165369e-004 -6.53034018e-004 -5.55296801e-003
      -4.84224613e-004 -5.55296778e-004 0. -2.17678011e-004
      -1.68809420e-004 -3.15415207e-004 -1.46605787e-004 0. 0. 0. 0. 0.
      0. 0. 0. -6.30830415e-004 -1.46605787e-004 -5.81961824e-004
      -6.53034018e-004 -7.50771200e-004 -1.11059356e-003
      -2.10124650e-003 -3.53802752e-004 5.07259695e-003 -2.44342984e-004
      -7.18086492e-004 1.36441537e-004 -1.76933059e-003 -3.30355740e-003
      -2.84599815e-003 -4.03814483e-003 0. -4.88685910e-005
      -7.33028923e-004 -3.45628615e-003 -6.36981986e-003
      -1.33269103e-002 -1.32368533e-002 -1.24871107e-002
      -1.74959898e-001 -4.24689986e-003 -1.97500549e-003
      -6.17933692e-003 -8.54391046e-003 -7.07767531e-003
      -7.60042667e-003 -8.51136539e-003 -1.54920980e-001
      -9.75992251e-003 -1.00573152e-002 -1.76296961e-002
      -1.55039039e-002 -1.21883061e-002 -6.76544337e-003
      -4.39640880e-003 -1.80330619e-001 -2.78432779e-002
      -2.40908023e-002 -1.02559719e-002 -9.72132105e-003
      -6.63990295e-003 -5.42361056e-003 -6.14831410e-003
      -2.24012434e-001 -3.50559391e-002 -1.57097485e-002
      -1.12999557e-002 -1.10994587e-002 -3.71639314e-003
      -4.63123154e-003 -3.03195254e-003 -2.62959927e-001
      -2.95463577e-002 -1.37437657e-002 -4.92066331e-003 3.62614007e-003
      6.68691285e-003 4.39416105e-003 4.37407708e-003 -2.75850683e-001
      2.05702335e-002 2.20187139e-002 2.34366190e-002 3.01587619e-002
      2.29017828e-002 2.45486293e-002 2.06569750e-002 -9.59489942e-002
      1.57239207e-003 4.32362827e-003 2.44994368e-003 2.40053562e-003
      4.23371326e-003 5.85969398e-003 3.85558768e-003 -1.95782796e-001
      -6.44894899e-004 5.66094590e-004 -1.03290437e-003 2.69460329e-003
      1.83741644e-003 -1.16364297e-003 2.22390401e-003 -2.34846934e-003
      2.13497173e-004 0. 0. 2.13497173e-004 0. 0. 0. -9.13086683e-002
      5.63213229e-003 4.83847596e-003 5.30233607e-003 9.04998649e-003
      5.64077450e-003 3.78929358e-003 9.43755265e-003 -7.63086304e-002
      2.11867075e-002 2.32675895e-002 1.33199673e-002 3.76513344e-003
      2.18019891e-003 2.91114463e-003 2.69764755e-003 -1.11022302e-016
      0. 0. 0. 0. 0. 0. 0. -2.08261430e-001 -3.37753282e-003
      -3.55860405e-003 -4.25728690e-003 -1.02140440e-003
      -1.54139404e-003 -3.51221859e-003 -4.19135671e-003
      -1.97682679e-001 -1.77723437e-003 -3.41857900e-003
      -2.03021942e-003 -1.90291426e-003 -5.52874804e-003
      -5.49900299e-003 -5.10677602e-003 -7.57354721e-002 1.90582999e-003
      -6.14110686e-005 1.22065074e-003 -5.55296778e-004 1.58021424e-003
      -3.19596031e-004 4.19172051e-004 -2.86511723e-002 6.81537844e-004
      -2.21858834e-004 -6.75237679e-004 5.61597000e-004 6.36850076e-004
      -3.41799634e-004 1.20262790e-003 -1.15379117e-001 -9.02591720e-002
      -1.14142954e-001 1.70306694e-002 3.95269580e-002 3.35397087e-002
      2.85140835e-002 2.08823811e-002 -1.11022302e-016 0. 0. 0. 0. 0. 0.
      0. -6.76548257e-002 -6.75237679e-004 -9.41784238e-004
      -7.01902609e-004 -6.53034018e-004 -5.06428187e-004
      -5.06428187e-004 -8.44047056e-004 -6.19907379e-002
      -4.61740477e-004 -4.84224613e-004 -4.88405407e-004
      -4.88685910e-005 -7.24106270e-004 -3.86487431e-004
      -1.11059356e-003 -4.09346297e-002 -6.04165369e-004
      -4.84224613e-004 -7.01902609e-004 -9.45965003e-004
      -1.90577202e-003 -1.15946226e-003 -5.55296778e-004
      -4.13670242e-002 -1.25719944e-003 -1.35493663e-003
      -7.72974861e-004 -6.75237679e-004 3.43919033e-004 -2.66546587e-004
      -5.59477659e-004 8.22605507e-004 -4.73743537e-004 -1.44821254e-003
      -1.32827158e-003 -8.38027277e-004 -1.91023340e-003
      -4.06852167e-004 -5.22612128e-004 6.70841476e-003 -8.82434600e-004
      -1.76362763e-003 -2.09076540e-003 -2.04189681e-003
      -1.85506453e-003 -2.93771550e-003 -5.45823714e-003
      -8.89112130e-002 -4.35356022e-004 -1.06618635e-003
      -1.71475904e-003 -7.72974861e-004 -8.11362406e-004
      -1.98130566e-003 -1.18612719e-003 -6.64522797e-002
      -7.72974861e-004 -6.04165369e-004 -3.53802752e-004 1.30421846e-004
      -7.99639791e-004 -5.93684323e-004 -4.84224613e-004
      -3.76128778e-002 -1.37714017e-003 -8.38027277e-004
      -1.15316198e-003 -2.03647978e-005 -2.33861967e-004
      -1.09257083e-003 -9.23761399e-004 -3.93913351e-002
      -2.94529367e-003 2.86688766e-004 -1.18612719e-003 2.43229933e-005
      6.53693278e-005 -2.55880598e-003 -2.41666147e-003 9.82390530e-003
      -1.16392365e-003 -1.23499578e-003 -9.68449225e-004
      -8.38027277e-004 -1.11505494e-003 -2.15903763e-003
      -8.97376973e-004 6.72711479e-003 5.04366704e-004 7.72752275e-004
      2.27397148e-004 -2.22279085e-003 -4.07345174e-003 -4.62801056e-003
      -5.74390683e-003 -3.26266021e-001 -9.31303191e-004
      -2.45455940e-005 -1.64368690e-003 -8.42208217e-004
      -3.02082696e-003 -9.01557796e-004 -1.74950517e-003
      -2.46068597e-001 -1.29976775e-003 -1.81667705e-003
      -1.40798592e-003 -2.07302324e-003 -1.74142409e-003 1.90484733e-003
      -3.05921445e-003 -3.74975294e-001 -3.34042311e-003
      -2.97641987e-003 -3.14076804e-003 -3.09189945e-003
      -1.19784975e-003 -1.46857719e-003 -1.04370224e-003
      -3.94153178e-001 2.05715606e-003 8.99215811e-004 2.95637175e-003
      1.79843162e-003 6.85718667e-004 4.11431212e-003 2.74287467e-003
      -2.02006757e-001 -7.71824270e-002 -7.66904652e-002
      -2.06993558e-002 -9.96968430e-003 -6.32212544e-003
      -3.77558172e-003 -2.61487789e-003 -1.11022302e-016 0. 0. 0. 0. 0.
      0. 0. -9.41699073e-002 -1.40380522e-003 -1.76808890e-003
      -1.45267369e-003 -1.55041099e-003 -1.23499578e-003
      -1.62148313e-003 -1.42600876e-003 -7.40232766e-002
      -1.59481831e-003 -1.58879859e-003 -1.05570536e-003 2.56382336e-004
      -1.81695749e-003 -1.11505494e-003 -2.13237270e-003
      -7.10738152e-002 -1.40380522e-003 -1.81695749e-003
      -1.23499578e-003 -1.58433721e-003 -2.21516751e-003
      -2.12791143e-003 -1.79029268e-003 -8.09482932e-002
      -1.30606804e-003 -3.04749189e-003 -1.40826660e-003
      -1.67035172e-003 -1.01731776e-003 -1.21403381e-003
      -1.11505494e-003 -2.27139425e-002 -1.62148313e-003
      -7.50771200e-004 -1.18612719e-003 -1.37714017e-003
      -1.81249622e-003 -1.08839001e-003 -8.92915647e-004
      -1.43800294e-002 -3.38511099e-003 -1.03952142e-003
      -3.72719113e-003 -3.86487413e-003 -4.21587704e-003
      -3.63391498e-003 -4.63349093e-003 -8.85056108e-002
      -1.13725860e-003 -7.01902609e-004 -8.21843452e-004
      -1.08839001e-003 -1.20833074e-003 -1.27940299e-003
      -9.90652828e-004 -7.26596341e-002 -1.25719944e-003
      -1.37714017e-003 -1.57261454e-003 -9.19580634e-004
      -6.30830415e-004 -9.19580634e-004 -4.84224613e-004
      -7.17397332e-002 -9.90652828e-004 -1.03952142e-003
      -1.66589045e-003 -9.90652828e-004 -9.41784238e-004
      -1.25719944e-003 -6.53034018e-004 -6.99164793e-002
      -4.13152389e-004 -2.12344993e-003 -1.03952142e-003
      -1.15946226e-003 -9.19580634e-004 -1.54594972e-003
      -2.03017425e-003 -1.56816356e-002 -2.36779288e-003
      -1.49708113e-003 -8.21843452e-004 -1.47487735e-003
      -1.73696270e-003 -9.68449225e-004 -2.12344993e-003
      -8.96920543e-003 -3.16297146e-003 -3.40731442e-003
      -2.46553007e-003 -4.22915816e-003 -3.05195339e-003
      -5.79741411e-003 -5.04664332e-003 -1.63618013e-001 1.66533068e-001
      0. -1.56584363e-002 1.32581741e-001</_>
    <_>
      -2.24782508e-002 0. 0. 0. 0. -1.12391252e-003 0. -1.12391252e-003
      -2.36021634e-002 -2.24782503e-003 0. 0. 0. -1.12391252e-003 0.
      -1.12391252e-003 -1.37630096e-002 0. -1.12445559e-003 0.
      -1.12391252e-003 0. -1.18337839e-003 -2.24836799e-003
      -2.07503214e-002 0. -1.14355353e-003 -1.14355353e-003
      -1.14355353e-003 0. -2.24782503e-003 9.44521962e-005
      -1.89826638e-002 -1.14355353e-003 -1.02891738e-003
      -9.92845045e-004 1.50708482e-004 3.60723316e-005 1.48023701e-005
      -2.28765002e-003 -9.11023188e-003 -1.12391252e-003
      -1.18446443e-003 -1.22266030e-003 -2.92232726e-003
      -6.49831444e-003 -2.13867836e-002 -2.53400262e-002
      -2.07863495e-001 -2.93379966e-002 -2.54497062e-002
      -2.63724346e-002 -1.70706380e-002 -1.88138876e-002
      -1.95441358e-002 -1.59559455e-002 -1.92686260e-001
      -3.77551839e-002 -2.99576931e-002 -2.70021893e-002
      -2.70317551e-002 -2.30583679e-002 -2.13210378e-002
      -1.62874889e-002 -1.94575638e-001 -6.11689277e-002
      -5.03246598e-002 -4.02489826e-002 -2.89504305e-002
      -1.90651417e-002 -2.17850544e-002 -1.92171279e-002
      -2.65208185e-001 -9.30194631e-002 -5.77452853e-002
      -4.61671837e-002 -3.04651894e-002 -3.16353552e-002
      -2.63572857e-002 -1.26703037e-002 -4.49316204e-001
      -1.15078077e-001 -4.27860767e-002 -4.63406416e-003 8.08566343e-003
      -5.76229242e-004 1.70883350e-002 8.22107866e-003 -4.88711566e-001
      3.60825472e-002 1.84533168e-002 4.56608795e-002 5.39999455e-002
      4.59179580e-002 3.04801576e-002 3.62612754e-002 -1.43903136e-001
      2.07318738e-003 1.04042853e-003 8.51736683e-003 2.27715983e-003
      4.98953555e-003 3.77337774e-003 2.09749630e-003 -3.49075049e-001
      4.04209085e-003 3.09655420e-003 1.50395918e-003 4.39722603e-003
      1.80135609e-003 2.54854560e-003 3.29208747e-003 1.13263354e-003
      1.44321343e-003 -8.41760047e-005 -4.38080897e-005 6.75234405e-005
      -4.03679151e-005 -1.08600466e-006 -7.91068233e-005
      -9.06488448e-002 6.40031276e-003 1.18376343e-002 5.62781328e-003
      6.06231485e-003 9.11458395e-003 8.69677775e-003 1.08166924e-002
      -6.63770139e-002 1.92230474e-002 1.84529703e-002 1.08914310e-002
      1.44165354e-002 4.94250143e-003 -4.38817340e-004 4.36752685e-004
      3.33066907e-016 0. 0. 0. 0. 0. 0. 0. -2.51089722e-001
      -4.04272638e-002 -3.59506495e-002 -3.19541246e-002
      -3.13998237e-002 -2.40981113e-002 -2.14203447e-002
      -1.42023163e-002 -9.32692140e-002 2.11067148e-004 -1.52391719e-003
      1.86462945e-003 1.72754808e-003 2.52398197e-003 -1.52821839e-003
      1.51293888e-003 -2.79643446e-001 1.90619472e-003 5.43180713e-003
      3.71489092e-003 -4.57082613e-004 7.30020413e-003 6.24659378e-003
      6.33398164e-003 -8.55660439e-002 2.67883949e-003 -2.12068888e-004
      2.37312936e-003 2.70300661e-003 3.96130281e-003 3.96750076e-003
      8.07873998e-003 7.39112422e-002 9.45718959e-003 2.76200939e-002
      1.95334014e-002 -3.12735774e-002 -1.45329773e-001 -3.32450390e-001
      -4.80968691e-002 3.33066907e-016 0. 0. 0. 0. 0. 0. 0.
      -2.54412461e-002 0. 0. -1.12391252e-003 0. 0. 0. 0.
      -2.21918803e-002 1.52242457e-004 0. -1.01095205e-003 0. 0.
      -1.12391252e-003 0. -2.08929814e-002 -2.26746616e-003
      -2.27253512e-003 -1.12391252e-003 -9.92397079e-004
      -1.16482342e-003 -1.18790462e-003 -5.43002329e-007
      -1.75410025e-002 -2.28765002e-003 1.31513807e-003 -1.96409565e-005
      -2.26746616e-003 -9.17585799e-004 -3.17652896e-003
      -2.15903157e-003 -1.10415015e-002 5.57132880e-005 -2.01839575e-005
      -1.96409565e-005 7.53542408e-005 -2.26800912e-003 -3.18342284e-003
      1.19051965e-005 -6.68176590e-003 -4.44102287e-003 -4.03679151e-005
      -5.56439254e-003 1.58883740e-005 -9.80491866e-004 -2.14092480e-003
      -2.21790792e-003 -4.34410200e-002 0. 0. -5.43002329e-007 0.
      9.49952009e-005 0. -1.12391252e-003 -4.54065464e-002
      -3.92819129e-005 -1.12391252e-003 9.49952009e-005 9.49952009e-005
      0. 9.49952009e-005 -5.43002329e-007 -3.00446376e-002
      -9.51784954e-004 -1.07326848e-003 2.21984519e-004 3.94655130e-004
      -2.28505396e-005 -1.01149501e-003 -9.91311041e-004
      -3.38035934e-002 1.21747633e-003 6.86379441e-004 1.18163461e-003
      2.99646315e-004 -9.93388006e-004 -1.20301940e-003 -1.16826361e-003
      -7.82967545e-003 -1.16319442e-003 -1.16319442e-003
      -8.81591841e-005 -1.12712209e-003 -3.39137856e-003
      -1.14409649e-003 -2.28710705e-003 -1.68249803e-003
      -6.71480782e-004 -3.85942985e-003 -2.12709047e-003
      -2.63953116e-003 -2.33580032e-003 -9.68409795e-003
      -7.86331296e-003 -2.94068575e-001 -2.29806155e-002
      -2.04480123e-002 -2.10954025e-002 -1.68678556e-002
      -1.83078833e-002 -1.53390346e-002 -1.34616606e-002 3.61288711e-002
      -1.38625363e-003 -1.65494496e-003 -4.07510495e-004
      -2.05541216e-003 -2.78038206e-003 -2.64348439e-003
      -6.38904108e-004 -6.13630652e-001 3.75833060e-003 2.11680355e-003
      2.12821015e-003 2.13028933e-003 -2.63339636e-004 1.15516363e-003
      8.45472037e-004 -5.87513149e-001 3.77919781e-003 -1.13451344e-004
      4.09242092e-003 5.24608139e-003 1.04609691e-003 2.79900827e-003
      -2.15313674e-004 1.24838306e-002 -2.73603015e-003 -6.25260873e-003
      -1.30796777e-002 -3.72852273e-002 -1.25527665e-001
      -2.38918662e-001 -1.62904352e-001 3.33066907e-016 0. 0. 0. 0. 0.
      0. 0. -5.56475259e-002 0. -4.38080897e-005 -4.83342665e-005
      -5.43002329e-007 -1.96409565e-005 -2.41671332e-005
      -2.41671332e-005 -5.40385172e-002 0. 5.57132880e-005
      5.11871112e-005 1.89990402e-004 0. -1.96409565e-005
      -2.41671332e-005 -4.98517454e-002 -3.98249140e-005
      -1.18283543e-003 -1.12445559e-003 4.66609308e-005 7.53542408e-005
      -1.16319442e-003 -3.92819129e-005 -6.83928877e-002
      -1.14970864e-003 -1.12391252e-003 -8.36330073e-005
      -1.16428046e-003 -4.03679151e-005 1.30524524e-004 -2.12699633e-005
      -1.04288021e-002 -1.16319442e-003 -1.16826361e-003
      -7.91068233e-005 -1.12391252e-003 -1.16428046e-003
      -1.18736154e-003 -1.96409565e-005 -1.57011636e-002
      -1.20301940e-003 -2.39599310e-003 -1.38029704e-004
      -2.33200099e-003 -9.05022305e-003 -7.98975956e-003
      -1.36047965e-002 -9.54803824e-003 0. 0. 0. 0. 0. -1.12391252e-003
      0. -8.27088859e-003 -1.12445559e-003 -1.12391252e-003 0. 0. 0. 0.
      0. -3.56645249e-002 -1.96409565e-005 -3.98249140e-005
      -1.12445559e-003 -1.12445559e-003 -5.43002329e-007
      -4.51529119e-003 -2.24782503e-003 -4.96264249e-002 1.31966430e-003
      0. -1.96409565e-005 -2.26963800e-003 -1.12445559e-003
      -2.26746616e-003 -1.16772065e-003 -3.42924856e-002
      -1.14355353e-003 -1.08600466e-006 -2.01839575e-005
      -1.12445559e-003 -1.12391252e-003 -1.14355353e-003
      -1.96409565e-005 -2.97121163e-002 -3.39137856e-003
      -2.26800912e-003 -1.16482342e-003 -3.51936277e-003
      -1.14355353e-003 -9.92907808e-005 -2.34657293e-003
      -5.41146696e-002 -4.65260595e-002 0. -2.57786870e-001
      1.19583018e-001</_>
    <_>
      -2.49708164e-002 0. -5.12305938e-004 -9.40138241e-004
      -9.82375117e-004 -4.70069121e-004 -8.44736714e-005
      -4.22368357e-005 -1.51634580e-002 -4.22368357e-005
      -4.22368357e-005 -4.70069121e-004 -1.02461188e-003
      -4.22368357e-005 -9.40138241e-004 -4.70069121e-004
      -7.99117517e-003 -4.70069121e-004 -4.70069121e-004
      -4.70069121e-004 0. -4.22368357e-005 -4.22368357e-005
      -9.40138241e-004 -1.06794154e-002 -4.22368357e-005
      -1.45244412e-003 -1.06684875e-003 -1.02461188e-003
      -8.44736714e-005 -4.22368357e-005 -3.99231969e-004
      -2.38589151e-003 -5.54542814e-004 -4.83705633e-004 1.08181254e-003
      1.16628618e-003 -1.29713339e-003 -1.33937015e-003 -3.15830926e-003
      -9.40138241e-004 -4.70069121e-004 -1.45244412e-003
      -8.44736714e-005 -1.67190155e-003 -6.28398266e-003
      -4.67209099e-003 -4.14895779e-003 -1.66490927e-001
      -5.54542814e-004 -1.85544559e-004 -1.88027648e-003 5.72006356e-005
      -3.02336684e-005 -1.45290163e-003 -1.19651994e-003
      -1.61045969e-001 -1.02461188e-003 -1.28099357e-003
      -3.99689365e-004 -3.07383551e-003 -5.25942480e-004 7.67054269e-004
      -1.89391302e-003 -1.79888517e-001 -3.77418916e-003
      -2.30560568e-003 -1.89391302e-003 -4.12868423e-004
      -1.97838666e-003 -1.41184067e-003 -1.15132239e-003
      -2.16927052e-001 -5.40124997e-003 -2.32993290e-004
      -3.03977123e-003 -2.96121929e-003 -3.55667900e-004 1.90724339e-003
      -3.58628429e-004 -2.34556466e-001 -2.15391838e-003 2.95790727e-003
      2.52657395e-004 5.17372647e-003 3.84799298e-003 3.29993851e-003
      1.70122599e-003 -2.06045821e-001 1.77266933e-002 1.10343508e-002
      1.78162828e-002 2.39042938e-002 1.72049329e-002 2.15595216e-002
      1.68788899e-002 -8.23611841e-002 2.18998315e-003 3.07056890e-003
      1.56388478e-003 2.55898130e-003 2.99927429e-003 5.43291774e-003
      2.44518905e-003 -1.70960471e-001 6.95759605e-004 2.12138821e-003
      1.00934203e-003 2.45764945e-003 1.99125963e-003 -1.70882593e-003
      2.63027591e-003 -1.40497193e-003 -2.14144879e-004 0.
      -4.70069121e-004 -2.14144879e-004 0. 0. 0. -7.85209537e-002
      3.01010138e-003 2.01526564e-003 4.30677738e-003 9.79970489e-003
      5.65906567e-003 5.17699355e-003 8.49076547e-003 -7.18488470e-002
      2.04518531e-002 2.13331580e-002 1.21454569e-002 3.79682332e-003
      2.37461273e-003 2.77312635e-003 2.51720194e-003 -2.22044605e-016
      0. 0. 0. 0. 0. 0. 0. -2.64091849e-001 6.96217117e-004
      3.09706724e-004 2.88620032e-003 3.21296160e-003 3.46934330e-003
      2.60004238e-003 4.56433510e-003 -2.78133333e-001 5.62856912e-005
      -3.26234079e-003 -1.56806654e-003 -6.14291872e-004
      -9.54232237e-004 -2.56494782e-003 -4.63031139e-003
      -6.16860352e-002 9.55617215e-005 -6.84671453e-004 9.52141359e-004
      0. -7.43962883e-004 -6.84213999e-004 7.08371590e-005
      -2.79132463e-002 3.68998240e-004 2.13687410e-004 -9.40138241e-004
      8.39067332e-004 -3.56995122e-004 -2.14144879e-004 6.53980242e-004
      -6.28605708e-002 -4.53015864e-002 -1.01495408e-001
      -1.03373546e-002 2.02649571e-002 1.13105122e-002 1.63412951e-002
      1.64954066e-002 -2.22044605e-016 0. 0. 0. 0. 0. 0. 0.
      -7.20088258e-002 -9.40138241e-004 -1.41020725e-003 0.
      -1.45244412e-003 -4.70069121e-004 -8.44736714e-005
      -1.02461188e-003 -7.39422590e-002 2.55924242e-004 -1.41020725e-003
      2.13687410e-004 -1.41020725e-003 0. -1.41020725e-003
      -2.35034572e-003 -6.89860880e-002 -4.70069121e-004
      -5.96779631e-004 -9.82375117e-004 -2.14144879e-004
      -9.82375117e-004 -1.45244412e-003 -9.40138241e-004
      -7.15174302e-002 -9.40138241e-004 -5.54542814e-004
      -9.40138241e-004 -9.40138241e-004 -1.85544559e-004
      -1.02461188e-003 -3.16126994e-003 -2.50025298e-002
      -3.56995122e-004 -1.41020725e-003 -4.70069121e-004 5.83143090e-004
      -1.88027648e-003 -1.01070880e-004 -3.56995122e-004
      -1.50002288e-002 1.13073991e-004 -1.41020725e-003 -1.76720251e-003
      -4.83705633e-004 -3.54491902e-004 -3.70631577e-004
      -5.25942480e-004 -1.12324044e-001 -4.70069121e-004
      -1.41020725e-003 -1.41020725e-003 -3.50166787e-003
      -2.32174504e-003 -1.06684875e-003 -1.57915463e-003
      -8.09876323e-002 -1.41020725e-003 -1.41020725e-003
      -1.76720251e-003 -1.29713339e-003 -9.40138241e-004
      -1.29713339e-003 -2.82041449e-003 -7.00931922e-002
      -1.62139151e-003 -1.38160703e-003 -1.72246248e-003
      -2.27781391e-004 -1.38160703e-003 -1.23875670e-003
      -2.73343758e-003 -8.29301924e-002 -1.92251336e-003
      -5.71597484e-004 -1.57915463e-003 -1.80989667e-003
      -2.16643442e-003 -3.84502672e-003 -2.98936199e-003 1.29329721e-002
      -2.82041449e-003 -2.35034572e-003 -1.88027648e-003
      -3.56995122e-004 -1.88027648e-003 -3.76055297e-003
      -5.17076021e-003 6.17163815e-003 4.10777575e-004 7.79775903e-004
      -7.68036116e-005 -3.30799585e-003 -4.44476726e-003
      -4.14706348e-003 -2.77567445e-003 -3.03751528e-001 1.13073991e-004
      1.09499157e-003 0. 8.39067332e-004 -1.41020725e-003
      2.13687410e-004 7.67772726e-004 -2.94641167e-001 -1.04120909e-003
      1.71450563e-004 -1.15428306e-003 -8.69301031e-004 -1.88027648e-003
      1.50550820e-003 5.83143090e-004 -3.14458132e-001 2.55924242e-004
      -9.40138241e-004 -4.70069121e-004 -4.70069121e-004
      -4.41468786e-004 3.68998240e-004 -2.14144879e-004 -3.36533606e-001
      1.27936027e-003 7.96830514e-004 2.07619066e-003 1.20806554e-003
      5.83143090e-004 3.49885854e-003 1.39243423e-003 -2.29729801e-001
      -5.66680431e-002 -4.77254465e-002 -1.48189776e-002
      -6.48285635e-003 -1.07936352e-003 6.55801923e-005 3.96885443e-005
      -2.22044605e-016 0. 0. 0. 0. 0. 0. 0. -7.40811601e-002
      -2.47705611e-003 -1.96475023e-003 -1.41020725e-003
      -1.88027648e-003 -4.27285861e-003 -1.92251336e-003
      -9.82375117e-004 -6.21333085e-002 -1.88027648e-003
      -1.38160703e-003 -3.99231969e-004 -2.16643442e-003
      -1.96475023e-003 -1.49468100e-003 -1.45244412e-003
      -8.77733752e-002 -1.10908563e-003 -9.82375117e-004
      -2.90488824e-003 -1.33937015e-003 -9.96011542e-004
      -2.00698688e-003 -2.47705611e-003 -1.13077991e-001
      -5.54542814e-004 -3.03159887e-003 -1.88027648e-003
      -1.88027648e-003 -2.51929299e-003 -8.40700755e-004
      -1.06684875e-003 -9.50077269e-003 -2.68824026e-003
      -1.53691776e-003 -1.49468100e-003 -2.09146063e-003
      -1.06684875e-003 -2.04922375e-003 -1.45244412e-003
      -1.01929540e-002 -4.14068438e-003 -2.60376674e-003
      -5.03858598e-003 -5.08082286e-003 -5.38194459e-003
      -4.56851674e-003 -7.47340498e-003 -6.14206009e-002 0.
      -4.70069121e-004 -4.22368357e-005 -9.82375117e-004
      -6.39016449e-004 -1.88027648e-003 -1.02461188e-003
      -4.22650240e-002 -5.12305938e-004 -9.40138241e-004
      -8.44736714e-005 -9.82375117e-004 -4.70069121e-004
      -9.82375117e-004 -1.57915463e-003 -3.90686132e-002
      -1.96475023e-003 -5.12305938e-004 -9.82375117e-004
      -1.62139151e-003 -1.02461188e-003 -5.12305938e-004
      -5.54542814e-004 -4.33212966e-002 -5.96779631e-004
      -1.57915463e-003 -1.49468100e-003 -1.88027648e-003
      -2.00698688e-003 -1.88027648e-003 -5.12305938e-004
      -1.68947352e-003 -1.26710511e-004 -1.68947343e-004
      -2.11184190e-004 -2.53421022e-004 -8.44736714e-005
      -2.11184190e-004 -1.32026977e-003 -1.39381562e-003
      -2.11184190e-004 -2.53421022e-004 -1.66362827e-003
      -3.07383551e-003 -3.88726336e-003 -2.64600338e-003
      -3.54390475e-003 -2.27139011e-001 -1.24056973e-002 0.
      -2.89431284e-003 1.58928946e-001</_>
    <_>
      -2.35303640e-002 -1.07875247e-004 -2.15750493e-004
      -1.07875247e-004 -8.93655058e-004 -2.15750493e-004
      -2.15750493e-004 -1.21728086e-003 -7.22764200e-003
      -2.15750493e-004 -4.31500986e-004 -2.15750493e-004
      -3.23625776e-004 -5.39376284e-004 -1.07875247e-004
      -1.07875247e-004 0. 0. 0. 0. 0. 0. 0. 0. -9.70877300e-004
      -3.23625776e-004 -1.07875247e-004 -2.15750493e-004
      -2.15750493e-004 -4.31500986e-004 -4.31500986e-004 1.26798346e-003
      1.18698711e-002 0. 1.48373388e-003 2.96746776e-003 2.96746776e-003
      1.48373388e-003 1.37585867e-003 -1.07875247e-004 0. 0. 0. 0.
      8.68665334e-003 4.01970092e-003 -2.42270093e-004 1.24326011e-003
      -2.96661824e-001 -2.19774549e-003 -7.21472170e-005
      -3.00459098e-003 -3.14958952e-003 5.60062937e-004 -2.19704164e-003
      -3.73256090e-003 -2.66731977e-001 -2.76777474e-003
      -1.79006340e-004 1.64403184e-003 -5.68555621e-003 -5.74272871e-003
      -1.96841569e-003 -2.50132172e-003 -2.43721485e-001
      -3.48178623e-003 -4.77622263e-003 -3.73966806e-003
      -3.04171420e-003 -4.96653607e-003 -4.32896079e-004
      -4.09293082e-003 -2.62612641e-001 -6.20424561e-003
      -1.10439735e-003 -8.04834906e-003 -1.02760438e-002
      -2.48774211e-003 -5.97944192e-004 2.77240411e-003 -2.26352662e-001
      -2.06276570e-002 -8.57604202e-003 -8.63956567e-003
      -1.60018122e-003 -3.48388799e-003 -8.52198806e-003
      -6.54219557e-003 -2.08031371e-001 -2.72297617e-002
      -2.76633240e-002 -1.11298414e-003 3.37044224e-002 1.03142234e-002
      1.75526068e-002 1.59911215e-002 -1.42990038e-001 2.99952878e-003
      8.29798728e-003 2.07343372e-003 5.08044846e-003 7.60073727e-003
      1.13679431e-002 7.47109205e-003 -2.70405263e-001 -3.38824815e-003
      8.61540262e-004 -1.48012070e-003 5.43629564e-003 2.77310796e-003
      -5.07878279e-003 3.32207163e-003 3.60312089e-002 -4.43153130e-003
      -3.76930507e-003 -2.41349591e-003 -3.07947310e-004
      -4.85764490e-003 -3.11246631e-003 -3.30715114e-003
      -6.63565025e-002 8.85767117e-003 6.51100231e-003 1.10150054e-002
      1.46607039e-002 1.00267297e-002 7.89256021e-003 1.25774639e-002
      -6.21675067e-002 3.36748026e-002 3.44752483e-002 2.10269690e-002
      1.58351683e-003 -5.91258239e-003 -2.35637720e-003 -2.69568153e-003
      2.22044605e-016 0. 0. 0. 0. 0. 0. 0. -3.25621545e-001
      -1.79378025e-003 5.86032693e-004 4.66290629e-003 -5.11353101e-005
      5.38192596e-003 2.66485405e-003 -2.55784392e-003 -4.28894162e-001
      -1.90024776e-003 -1.00628030e-003 -1.32412743e-003 2.46725953e-003
      -4.36515035e-003 -3.57226306e-003 1.32040610e-003 5.67603149e-002
      -3.54293850e-003 -5.71385166e-003 -5.02909627e-003
      -6.72217738e-003 -2.76152953e-003 -5.80136525e-003
      -3.32219223e-003 8.49355105e-003 -6.71710214e-003 -9.00768116e-003
      -3.95440264e-003 -1.61305384e-003 -5.59272198e-003
      -4.48768772e-003 -1.01758773e-003 -3.78160387e-001
      -9.53998882e-003 2.25808583e-002 6.95553645e-002 6.02257587e-002
      3.84298712e-002 3.50489467e-002 2.12296937e-002 2.22044605e-016 0.
      0. 0. 0. 0. 0. 0. -5.38327098e-002 -5.39376284e-004
      -1.32515607e-003 -1.98199484e-003 -3.11246631e-003
      -1.10940554e-003 -2.11093598e-003 -1.10940554e-003
      -5.36571965e-002 -2.00072041e-004 -1.07875247e-004
      -8.77976592e-004 -1.32515607e-003 -3.02560074e-004
      -3.23625776e-004 -2.78884056e-003 -1.84605885e-002
      -3.08181322e-003 -4.86912346e-003 -2.86606257e-003
      -3.52828880e-003 -4.11399640e-003 -7.68861687e-003
      -4.22187196e-003 -3.89934331e-002 -5.33127738e-003
      -2.32668640e-003 -1.01021128e-002 -2.65031215e-003
      -3.27142305e-003 -5.09446114e-003 -7.91934133e-003 2.68909875e-002
      1.07329863e-003 -4.31500986e-004 -2.15750493e-004 1.26798346e-003
      -5.39376284e-004 1.41260284e-003 1.26798346e-003 2.43604761e-002
      1.16010814e-003 -4.31500986e-004 6.20731909e-004 8.36482388e-004
      9.60036123e-004 2.42809160e-003 -2.70748488e-003 -1.42860591e-001
      -2.00306065e-003 -1.00153033e-003 -2.78884056e-003
      -1.10940554e-003 -1.73660764e-003 -2.89671565e-003
      -4.57615033e-003 -6.58172369e-002 -2.21881107e-003
      -4.31500986e-004 -6.27201982e-004 2.66453077e-004 -8.93655058e-004
      4.82203614e-004 -2.21881107e-003 -2.74052452e-002 -2.08987016e-003
      -4.52544820e-003 -4.54042247e-003 -5.86557854e-003
      -4.20182245e-003 -4.56047198e-003 -4.53940639e-003
      -1.24137618e-001 -4.32974705e-003 -3.50753544e-003
      -4.79190098e-003 3.18875740e-004 -9.00125247e-004 -6.11705706e-003
      -3.54396715e-003 1.64618548e-002 -1.59706315e-003 -4.41655656e-003
      -3.65184247e-003 -2.93282256e-003 -4.06227773e-003
      -3.72906472e-003 -5.94787579e-003 3.28724869e-002 1.42289407e-003
      9.80551937e-004 1.58264185e-003 -1.01019591e-002 -2.02306788e-002
      -2.05379203e-002 -2.10936796e-002 -4.43070740e-001
      -3.96500621e-003 8.58251995e-004 -2.15750493e-004 -1.83839165e-003
      -2.11093598e-003 -1.77163165e-003 1.63823679e-005 -4.17659611e-001
      4.32138215e-004 -4.45259688e-003 -1.87950686e-003 -2.52238731e-003
      -6.68708608e-003 7.31079420e-003 -1.30510656e-003 -4.80039150e-001
      -3.52828880e-003 -4.41655656e-003 -2.32668640e-003
      -4.32974705e-003 -3.38667043e-004 -7.19398784e-004
      -3.77469230e-003 -4.65964079e-001 2.57708202e-003 -2.75311223e-003
      1.59021420e-003 -1.44838484e-003 -1.43982266e-004 5.21990797e-003
      5.28768403e-003 -3.56248915e-001 -1.49788447e-002 -1.10793430e-002
      -1.92401968e-002 -5.94722619e-003 -1.12429950e-002
      -1.10373162e-002 -7.77985109e-003 2.22044605e-016 0. 0. 0. 0. 0.
      0. 0. -1.32406548e-001 -1.21728086e-003 -9.70877300e-004
      -3.22034140e-003 -1.32515607e-003 -2.32668640e-003
      -3.00459098e-003 -3.23625776e-004 -1.10774890e-001
      -1.43303128e-003 -4.09394689e-003 1.05223292e-003 1.53443648e-003
      -4.22187196e-003 -5.00765163e-003 -1.10940554e-003
      -1.01891533e-001 -4.79190098e-003 -4.89977608e-003
      -4.00612131e-003 -3.25644854e-003 -2.06023338e-003
      -3.23625776e-004 -5.39376284e-004 -1.58024535e-001
      -6.31174212e-003 -5.98811638e-003 -6.00918196e-003
      -7.20539689e-003 -7.33433757e-003 -4.36687004e-003
      -6.22493261e-003 -4.05712845e-003 0. -7.55126821e-004
      -5.39376284e-004 -4.31500986e-004 -4.31500986e-004
      -3.02560074e-004 -2.43456173e-003 -3.05116014e-003
      -2.86606257e-003 -2.61965906e-003 -5.65490313e-003
      -5.51637495e-003 -1.14738373e-002 -1.22596174e-002
      -1.60403997e-002 -1.11485310e-001 -8.68095594e-005
      -3.23625776e-004 -3.23625776e-004 -8.93655058e-004
      -1.21728086e-003 -3.23625776e-004 -1.78731012e-003
      -9.83161181e-002 -4.31500986e-004 -1.07875247e-004
      -2.15750493e-004 -2.21881107e-003 -1.30409037e-003
      -1.54090661e-003 -2.78884056e-003 -8.22558105e-002
      -2.11093598e-003 -1.86453236e-003 -1.98199484e-003
      -2.15750493e-004 -6.47251552e-004 -4.31500986e-004
      -2.08987016e-003 -8.37598071e-002 -3.43609205e-003
      -6.11705706e-003 -1.73559133e-003 -2.21881107e-003
      -5.41808689e-003 -2.03815149e-003 -9.69167706e-003
      -2.80475663e-003 -5.39376284e-004 -6.47251552e-004
      -1.07875247e-004 -2.15750493e-004 -3.23625776e-004
      -4.31500986e-004 -6.47251552e-004 -8.63001973e-004
      -6.47251552e-004 -8.63001973e-004 -1.61812885e-003
      -2.18815822e-003 -4.08334332e-003 -6.19427906e-003
      -7.87371397e-003 -2.80954659e-001 3.29061985e-001 0.
      -8.65067635e-003 2.21767411e-001</_>
    <_>
      0. 0. 0. 0. 0. 0. 0. 0. 0. 0. 0. 0. 0. 0. 0. 0. 0. 0. 0. 0. 0. 0.
      0. 0. 0. 0. 0. 0. 0. 0. 0. 1.05717801e-003 8.45742412e-003
      -1.03400857e-003 1.05717801e-003 2.11435603e-003 -9.87669569e-004
      1.05717801e-003 1.05717801e-003 -1.03400857e-003 0. 0.
      -1.03400857e-003 -2.06801714e-003 6.34306809e-003 1.10351690e-003
      -3.07885627e-003 1.17302511e-003 3.37441601e-002 -3.10202548e-003
      3.92023765e-004 -5.17004309e-003 1.08034746e-003 4.15193208e-004
      -2.96299957e-004 -3.76718002e-003 3.76283331e-003 -3.10202548e-003
      -6.65154250e-004 -2.73130485e-004 -4.13603429e-003
      -1.01083913e-003 -9.64500185e-004 -1.01083913e-003
      -5.74290268e-002 -1.03169158e-002 -2.73317122e-003
      -7.21489033e-003 -2.02167826e-003 -4.11286484e-003
      -2.66366289e-003 -5.17004309e-003 -1.30333394e-001
      -3.72084090e-003 -4.08969494e-003 -1.54869584e-002
      -9.57920775e-003 -6.11137366e-003 -1.60648476e-003
      -5.74251963e-003 -1.36169091e-001 -1.87895596e-002
      -2.13837139e-002 -2.56386437e-002 -1.26763312e-002
      -8.54029506e-003 -1.31811555e-002 -7.25023448e-003
      -1.59560248e-001 -5.38061596e-002 -1.38205127e-003 9.94265731e-003
      3.83132845e-002 3.69256400e-002 2.99777966e-002 2.51625665e-002
      -1.57575041e-001 3.58977332e-003 7.08077662e-003 4.59756656e-003
      5.01580536e-003 6.76130736e-003 9.56398714e-003 6.02359883e-003
      -3.44297498e-001 1.81805610e-003 3.19470349e-003 2.52954918e-003
      6.73509203e-003 5.33527508e-003 3.68854293e-004 4.30126628e-003
