<?xml version="1.0"?>
<opencv_storage>
<my_svm type_id="opencv-ml-svm">
  <svm_type>C_SVC</svm_type>
  <kernel><type>LINEAR</type></kernel>
  <C>1.</C>
  <term_criteria><epsilon>2.2204460492503131e-016</epsilon>
    <iterations>100</iterations></term_criteria>
  <var_all>436</var_all>
  <var_count>436</var_count>
  <class_count>10</class_count>
  <class_labels type_id="opencv-matrix">
    <rows>1</rows>
    <cols>10</cols>
    <dt>i</dt>
    <data>
      1 2 3 4 5 6 7 8 9 10</data></class_labels>
  <sv_total>45</sv_total>
  <support_vectors>
    <_>
      1.46210482e-002 1.86255405e-004 3.10425647e-004 2.17297958e-004
      1.86255405e-004 1.24170256e-004 1.86255405e-004 6.20851279e-005
      1.00267483e-002 2.17297958e-004 2.17297958e-004 1.86255405e-004
      4.65638470e-004 3.41468200e-004 1.24170256e-004 3.72510811e-004
      5.40140644e-003 3.41468200e-004 4.65638470e-004 3.41468200e-004
      5.89808740e-004 5.58766187e-004 2.48340511e-004 6.82936399e-004
      9.21964180e-003 7.45021622e-004 4.65638470e-004 5.89808740e-004
      1.05544715e-003 9.31276940e-004 9.31276940e-004 5.19934019e-006
      -9.51767550e-004 1.11753237e-003 7.81263516e-004 1.96654015e-004
      2.27696582e-004 1.89879583e-003 1.55732769e-003 3.19738407e-003
      5.89808740e-004 1.89359637e-003 4.78055468e-003 1.07407281e-002
      2.29730317e-003 5.41700469e-003 3.57509428e-003 9.76169482e-003
      2.87659973e-001 4.57155518e-003 1.00461235e-002 5.51714329e-003
      3.94437090e-003 -7.51940184e-004 1.76641985e-003 1.68134943e-002
      3.12690556e-001 4.47842758e-003 1.76641985e-003 6.20227214e-003
      2.86722067e-003 4.68419353e-003 -5.46174531e-004 1.02659769e-003
      2.39364550e-001 2.88614514e-003 2.89826328e-003 2.03427067e-003
      3.94437090e-003 6.60582539e-003 1.12474440e-002 4.44738520e-003
      2.24702522e-001 2.23945081e-003 1.29322680e-002 1.22160967e-002
      -2.35161511e-003 -1.06869882e-003 5.48715983e-003 -2.07637181e-003
      1.71006411e-001 3.55637772e-003 1.46721641e-005 1.13525772e-002
      -7.75711983e-003 -9.98976454e-003 -1.82700949e-003 5.02832793e-003
      1.64893180e-001 1.78090520e-002 1.49949938e-002 -1.14751747e-002
      -3.84513997e-002 -2.22463347e-002 -7.74012087e-003 9.10812058e-003
      -3.74546610e-002 3.82020092e-003 -6.76470529e-003 1.23975566e-003
      -1.70906039e-003 -3.28183267e-003 -4.71092435e-003
      -5.01720980e-003 5.29101342e-002 5.43082226e-003 -2.41784006e-003
      -2.38679745e-003 -4.88564745e-003 5.74922608e-003 4.63364040e-003
      4.01384803e-003 -1.00409493e-001 4.66468325e-003 4.88198083e-003
      -8.83502769e-004 3.72510811e-004 9.76044801e-004 2.83617806e-003
      1.82850508e-003 -2.16687471e-001 -9.47623979e-003 2.43415777e-003
      -6.81419857e-003 -5.97799709e-003 -4.08268068e-003
      -5.43980021e-003 -7.01802957e-004 -2.56969959e-001 1.90032087e-002
      1.35987038e-002 4.77165692e-002 4.42398600e-002 3.98603044e-002
      1.62673220e-002 8.06921255e-003 1.77635684e-015 0. 0. 0. 0. 0. 0.
      0. 1.12499677e-001 -1.35547423e-003 -2.23897700e-003
      1.45705359e-003 -4.10325034e-003 -5.77654224e-003 -4.84307250e-003
      3.13773821e-003 1.74027085e-001 2.16364022e-003 7.00937910e-003
      7.52413878e-004 5.77690778e-004 -1.18872907e-003 3.04568730e-005
      4.11111629e-003 -7.95280859e-002 -2.14584940e-003 -2.86780624e-003
      4.28583939e-003 -1.51866500e-003 -1.74749526e-003 -1.16347161e-003
      -3.82492645e-003 -1.92816734e-001 -2.32057250e-003
      -9.76630487e-004 7.19043519e-003 -7.08779669e-004 2.57571950e-003
      7.27704260e-004 5.40036475e-003 2.53300548e-001 -7.70894811e-003
      -2.74492521e-002 -5.93335629e-002 -4.16735634e-002
      -2.12616492e-002 -2.31687091e-002 -2.17048693e-002
      -3.10425792e-004 9.31277027e-005 0. 3.10425639e-005 0.
      6.20851279e-005 9.31277027e-005 0. 7.24214911e-002 2.92930566e-003
      2.17297958e-004 1.95267529e-003 2.79383094e-004 2.92930566e-003
      1.86255405e-004 5.70339849e-003 1.51558984e-002 2.48340511e-004
      3.20868893e-003 2.48340511e-004 8.35332088e-003 -7.59332499e-004
      2.92930566e-003 2.92930566e-003 2.88224332e-002 5.64131374e-003
      1.86255405e-004 3.08451848e-003 4.34595917e-004 3.72510811e-004
      3.41468200e-004 3.14660370e-003 5.53889461e-002 4.03553364e-004
      5.58766187e-004 2.44935625e-003 3.39494413e-003 4.17320151e-003
      -3.86821746e-004 3.17764631e-003 -3.63256130e-003 -1.65436754e-003
      2.79383094e-004 2.17297958e-004 -4.91481740e-004 2.99139088e-003
      -1.46811223e-003 4.99461917e-003 -7.94033147e-003 2.56199436e-003
      1.02440466e-003 5.63965470e-004 4.59949905e-003 4.44428623e-003
      3.30091035e-003 9.83725954e-003 3.40683348e-002 2.83617806e-003
      9.31277027e-005 1.24170256e-004 9.31277027e-005 -7.39822222e-004
      2.80513545e-003 1.24170256e-004 3.80434394e-002 1.86255405e-004
      2.86722067e-003 -6.15651952e-004 -6.46694563e-004 2.79383094e-004
      -5.84609399e-004 9.31277027e-005 9.27489847e-002 -5.10992017e-004
      -6.15651952e-004 -4.60439158e-004 -3.67311470e-004 2.22052610e-003
      1.55212823e-004 2.16997322e-003 1.04100652e-001 5.27723576e-004
      2.37573893e-003 5.58766187e-004 4.45258431e-003 -1.16921880e-003
      3.11556109e-003 3.51911457e-003 3.91290057e-003 7.93545693e-003
      5.09927887e-003 7.13978952e-004 4.11111629e-003 5.03719365e-003
      3.39494413e-003 8.07106728e-004 -8.89315922e-003 5.63965470e-004
      3.25013022e-003 6.80028740e-003 9.86830145e-003 1.17369602e-002
      6.65441342e-003 7.18213711e-003 3.59653324e-001 -1.80958037e-003
      9.95555078e-004 1.55212823e-004 9.33469972e-004 5.45505807e-003
      2.71200784e-003 3.10425639e-005 2.39440769e-001 -1.05245657e-004
      8.07393808e-003 2.68096523e-003 1.87905785e-003 2.71200784e-003
      -3.97849409e-003 1.91010046e-003 2.67489523e-001 5.42401569e-003
      4.41634236e-003 6.20851279e-005 2.71200784e-003 -1.05245657e-004
      1.87905785e-003 2.71200784e-003 3.10255706e-001 -5.46174531e-004
      1.94114295e-003 1.03834514e-002 2.24690288e-004 1.02659769e-003
      6.00554422e-003 -3.71451402e-004 2.04656377e-001 1.60370220e-003
      -4.51372238e-003 8.01232643e-003 6.05965173e-003 -5.96338371e-003
      -1.04977423e-003 8.37963820e-003 1.77635684e-015 0. 0. 0. 0. 0. 0.
      0. 6.71057701e-002 3.10425639e-005 2.77409283e-003 2.77409283e-003
      2.77409283e-003 2.83617806e-003 2.74305046e-003 3.10425639e-005
      4.26625200e-002 2.17297958e-004 -5.22524293e-004 -5.53566846e-004
      1.32549100e-003 3.10425639e-005 2.79383094e-004 1.55212823e-004
      3.91819738e-002 4.34595917e-004 2.48340511e-004 3.41468200e-004
      -1.46811223e-003 4.80836350e-003 3.17764631e-003 3.02243349e-003
      6.35617003e-002 -2.93694000e-004 2.20101583e-003 7.13978952e-004
      5.16136410e-003 3.30181653e-003 1.76008698e-003 7.13978952e-004
      1.85687449e-002 9.31276940e-004 3.48807196e-003 6.82936399e-004
      8.69191834e-004 3.45702935e-003 -1.43110037e-005 1.30378769e-003
      1.96951628e-002 2.51444778e-003 2.70070322e-003 8.40410218e-003
      7.61673320e-003 6.23654947e-003 5.30527206e-003 6.09564735e-003
      3.30504552e-002 7.00417953e-003 1.24170256e-004 2.77409283e-003
      8.07393808e-003 8.13602284e-003 1.86255405e-004 3.10425639e-005
      4.71214876e-002 1.55212823e-004 3.10425639e-005 9.31277027e-005
      2.77409283e-003 -9.14545381e-004 3.10425639e-005 2.83617806e-003
      9.97797549e-002 3.72510811e-004 5.76548371e-003 7.40773277e-003
      5.82756894e-003 3.41468200e-004 8.41540564e-003 1.92163268e-003
      1.08852252e-001 8.50853324e-003 8.72583129e-003 1.98371778e-003
      4.65638470e-004 2.29414343e-003 9.26728081e-003 5.95173938e-003
      1.33511741e-002 2.99139088e-003 2.96034827e-003 3.05347610e-003
      6.82936399e-004 2.99139088e-003 4.65638470e-004 3.27077392e-003
      9.55267716e-003 1.24170259e-003 4.10892302e-003 4.94707236e-003
      7.18213711e-003 1.03597837e-002 9.92518757e-003 7.98924360e-003
      -1.39384091e-001 -9.96101797e-002 0. -1.54467928e-003</_>
    <_>
      2.86458403e-001 -1.34305032e-002 -1.98415178e-003 -6.04815874e-003
      7.99097866e-003 8.46775074e-004 4.91657527e-004 -8.11570883e-003
      3.47137958e-001 8.05358868e-003 2.50055222e-003 7.67581724e-003
      -5.72261913e-003 1.41427293e-002 -1.64038991e-003 6.43744972e-003
      1.90071255e-001 7.62764225e-003 7.64874928e-003 -2.69455020e-003
      9.48721077e-003 3.99281876e-003 1.01673296e-002 4.25480306e-003
      2.45142028e-001 1.70888808e-002 1.07805310e-002 1.51942009e-002
      2.17854604e-002 2.59541273e-002 1.91726685e-002 4.26393608e-003
      1.57613128e-001 2.27196533e-002 3.75941806e-002 2.97408551e-002
      3.16973925e-002 3.32058184e-002 2.58692764e-002 1.66499354e-002
      1.56629104e-002 4.52734195e-002 6.55711293e-002 5.37684895e-002
      1.56776428e-001 2.76843876e-001 1.22468710e-001 4.14172327e-003
      3.63421410e-001 -1.25237778e-002 -1.64528633e-003 -5.05961338e-003
      -6.29903330e-003 -1.10868262e-002 -1.77735556e-002 5.31915808e-003
      4.64079231e-001 -1.97373424e-002 -1.55091854e-002 -8.84917099e-003
      -1.65234599e-002 -2.03287434e-002 -3.78999040e-002
      -2.18929742e-002 2.67018646e-001 -3.63480821e-002 -4.31792773e-002
      -3.50998119e-002 -2.66165193e-002 -1.13352528e-002
      -9.61348414e-003 -5.57263382e-004 5.44442274e-002 -5.71793541e-002
      -2.63009258e-002 -5.73548814e-003 -2.28718705e-002
      -5.31649450e-003 -1.37495780e-002 -9.87248216e-003
      -2.95856953e-001 -9.52784717e-002 -5.04507078e-003 2.13298318e-003
      1.16447983e-002 2.74349004e-002 6.39680540e-003 1.39371892e-002
      -5.97564280e-001 1.56233311e-001 9.01455954e-002 5.04275747e-002
      4.16155569e-002 3.72977145e-002 5.74836023e-002 5.19525260e-002
      -3.70719314e-001 7.24639278e-003 4.06900281e-003 9.73362289e-003
      6.22967398e-003 9.24947858e-003 4.27067373e-003 4.73569613e-003
      -4.98539239e-001 -5.20002749e-003 -1.77670363e-003
      -5.87545335e-004 3.29241552e-003 1.02454843e-002 6.88336091e-003
      8.33043735e-003 -2.31598228e-001 1.17981499e-002 1.46125685e-002
      -1.26308901e-003 6.01359271e-003 9.73058678e-003 4.39719111e-003
      7.63420248e-003 -6.25271857e-001 3.63707449e-003 1.93849821e-002
      -1.67936413e-003 4.74671088e-003 2.03289110e-002 2.77797226e-002
      3.10212392e-002 -5.68385541e-001 1.06517859e-001 7.91514218e-002
      8.72794688e-002 6.60476014e-002 6.21463545e-002 2.95094494e-002
      2.34362837e-002 4.44089210e-016 0. 0. 0. 0. 0. 0. 0.
      -6.46871269e-001 -1.05786743e-002 -1.12121645e-002
      -3.59756569e-003 -4.51061688e-003 -6.86142920e-003
      -1.01732807e-002 6.14181906e-003 -4.41904873e-001 3.39186226e-004
      1.28609212e-002 -8.95941909e-003 -2.78099999e-002 -1.68456230e-002
      -3.21785733e-002 -2.88567618e-002 -5.10094762e-001
      -1.55424317e-002 -4.44281468e-004 5.66097395e-003 -1.08476942e-002
      -1.88126578e-003 2.67079030e-003 2.26732274e-003 -4.58160371e-001
      -1.37033314e-003 1.09516829e-003 7.05343112e-003 2.50229612e-003
      1.33624971e-002 -1.38482521e-003 7.46264355e-003 2.69013941e-001
      -4.33461398e-001 -2.84985811e-001 -8.10219273e-002
      -5.60627058e-002 -7.22669661e-002 1.90618765e-002 8.06781929e-003
      -3.02582467e-003 8.15342879e-004 3.08008719e-004 2.71780940e-004
      0. 5.43561880e-004 8.15342879e-004 0. 7.47487471e-002
      2.49590189e-003 8.44173692e-003 3.27036344e-003 3.92991072e-003
      1.13861845e-003 -1.12040387e-003 2.83365464e-003 7.13604763e-002
      8.04566836e-004 9.15433280e-003 2.74034427e-003 5.79029508e-003
      2.78404308e-003 9.83341690e-003 1.02300011e-003 2.04448789e-001
      -9.09995101e-003 1.38785718e-002 -4.67316620e-003 5.78921614e-003
      2.96481606e-003 1.13498839e-002 6.74066553e-003 1.97814688e-001
      7.41194654e-003 8.74288287e-003 1.31915812e-003 2.11356338e-002
      2.01363768e-002 3.31998151e-003 9.78345517e-003 1.44827291e-001
      3.54320044e-003 4.29353118e-003 9.63089243e-003 1.51984878e-002
      1.62305180e-002 1.02620563e-002 1.07169496e-002 9.58909616e-002
      1.69794876e-002 1.80223417e-002 2.53088307e-002 8.10979828e-002
      8.02160427e-002 1.00278497e-001 1.08427301e-001 8.63628387e-002
      3.68049578e-003 -2.57988949e-003 -7.77967367e-003 -1.08402995e-002
      -8.22674856e-003 9.92770889e-004 -1.81925781e-002 1.28620625e-001
      -2.03578454e-003 -1.71379913e-002 -2.25174497e-003
      -1.36811631e-002 -1.09840771e-002 -4.86089848e-003
      -2.04875041e-002 4.88215804e-001 -1.84190385e-002 -1.79779790e-002
      -6.72133081e-003 -8.10807943e-003 -6.27650507e-003
      -6.79590926e-003 -1.45950681e-002 4.42380548e-001 -2.49237027e-002
      -1.38841078e-005 -1.09436791e-002 -1.47074088e-003
      -4.09715623e-003 -7.19300285e-003 -6.44314860e-004 4.51798588e-001
      2.50094384e-002 3.73187251e-002 -2.83971103e-003 1.49655212e-002
      3.07624247e-002 3.75384814e-003 1.92539189e-002 2.38316312e-001
      1.55088902e-002 3.39721851e-002 9.37926844e-002 1.03759833e-001
      7.08346590e-002 4.02774028e-002 4.12823334e-002 -2.44111210e-001
      -1.11555895e-002 -2.30112090e-003 -8.67581402e-004
      -2.99939630e-003 3.87949846e-003 -1.45536498e-003 -2.16432521e-003
      -2.55654693e-001 -3.71211371e-003 5.68938674e-003 1.70689484e-003
      -4.78813672e-005 -4.06900188e-003 -1.02233943e-002 3.23249190e-003
      -3.88051599e-001 2.77486484e-004 -7.12745183e-004 -1.00341961e-002
      -7.81822670e-003 -4.19061072e-003 -3.50704882e-004 1.32898474e-003
      -3.81213784e-001 5.66342147e-003 6.79966388e-003 9.71580110e-003
      5.15614683e-003 -9.68743581e-004 1.23962443e-002 5.99463517e-003
      -1.71267077e-001 -3.01773131e-001 -1.27274945e-001
      -9.14703757e-002 -5.83296902e-002 1.25659844e-002 1.53345596e-002
      2.37848554e-002 4.44089210e-016 0. 0. 0. 0. 0. 0. 0.
      2.79621214e-001 -1.23300748e-002 -8.20563640e-003 -6.73229340e-003
      -6.00238610e-003 -4.33397293e-003 1.73044659e-003 -6.83727581e-003
      2.86416233e-001 -9.47303697e-003 -4.09312034e-003 -8.39408766e-003
      -1.54632023e-002 -8.75322055e-003 -9.93457809e-003
      -4.71863896e-003 3.56478482e-001 -9.27617867e-003 -5.77918533e-003
      -2.27934048e-002 -1.04429331e-002 -8.04185774e-003
      -6.10492378e-003 -1.00844884e-002 2.45772302e-001 -3.19980495e-002
      -3.59995626e-002 -2.75346693e-002 8.78206454e-003 -2.85841227e-002
      -5.92317292e-003 2.92517710e-003 2.91575938e-001 1.99577771e-002
      2.03476883e-002 2.06356328e-002 6.03022473e-003 2.32232753e-002
      1.37000326e-002 1.22561380e-002 1.70365915e-001 2.87815835e-002
      4.88907583e-002 6.31560013e-002 7.96550885e-002 9.48818997e-002
      5.44268899e-002 1.02464698e-001 -2.11112857e-001 -4.00994293e-004
      -4.84741898e-003 -1.49578173e-002 2.10262579e-003 -1.48269942e-003
      -2.14883368e-002 -9.77373123e-003 -1.78563833e-001
      -1.13796105e-003 -8.87437630e-003 -2.12944802e-002
      -4.63260245e-003 -1.12317586e-002 -8.56084004e-003
      -7.47650489e-003 -7.57343546e-002 -2.02232250e-003 1.04818074e-002
      9.06274840e-003 -1.32887985e-003 -3.05850408e-003 7.11310562e-003
      -3.94030591e-004 -2.73086727e-002 1.14728631e-002 7.70927500e-003
      2.06460734e-003 -3.36373015e-003 -1.25915336e-003 4.77213413e-003
      5.05055208e-003 7.00969324e-002 6.84712781e-003 6.90023368e-003
      -5.66307222e-003 5.54204313e-003 -2.50215386e-003 -7.25987041e-003
      6.98578823e-003 8.45273882e-002 -3.12921382e-003 9.85974167e-003
      1.13881519e-002 4.85856719e-002 2.88503412e-002 6.90862238e-002
      1.09302320e-001 1.31079659e-001 4.70069468e-001 0. 1.78692918e-002</_>
    <_>
      3.85784870e-003 8.83108238e-004 2.24913564e-003 3.92248388e-003
      4.71070921e-003 -4.88570333e-003 1.09578692e-003 -4.55285888e-003
      -3.29915155e-003 -9.09270532e-003 1.28054142e-003 1.95924216e-003
      1.72128074e-003 -2.96075526e-003 1.48657872e-003 -2.88552511e-003
      1.79489516e-003 5.35748526e-003 -1.85898377e-003 3.79167683e-003
      5.53653983e-004 4.15718602e-003 -3.36481171e-004 -8.50550644e-003
      -4.44417261e-002 9.73772071e-003 -1.53678062e-003 5.41218137e-003
      7.51361251e-003 1.47596058e-002 -1.92845333e-003 1.29039036e-002
      -7.31718689e-002 2.14374228e-003 1.93646085e-003 8.60575493e-003
      1.95942484e-002 1.82984490e-002 1.82653982e-002 1.14877922e-002
      -4.69655767e-002 9.10274452e-004 1.28612965e-002 3.22162732e-002
      6.28716201e-002 1.01307102e-001 -1.29673360e-002 -6.44142181e-002
      2.09373996e-001 -3.21314335e-002 -2.27671210e-002 -2.95767114e-002
      -1.86801739e-002 -1.82362702e-002 -1.61068235e-002 7.52742914e-003
      2.13860050e-001 -4.53352965e-002 -3.36325206e-002 -1.61976125e-002
      -1.75900497e-002 -1.14081269e-002 -1.04629826e-002
      -1.21536329e-002 1.04633711e-001 -5.04400507e-002 -4.09343280e-002
      -3.49811465e-002 -1.03416247e-002 -2.79601128e-003 2.49515404e-004
      -1.18079409e-002 2.94201653e-002 -6.91097304e-002 -1.50594497e-002
      -2.29628626e-002 -2.21763756e-002 -1.87124368e-002
      -4.51418757e-003 -9.54732858e-003 -1.22071750e-001
      -5.38737625e-002 -3.46841440e-002 6.31369185e-003 1.36974249e-002
      -3.45860585e-003 8.38184170e-003 2.22422369e-003 -1.86363354e-001
      6.29139543e-002 1.04227578e-002 3.21214981e-002 2.31967736e-002
      3.11042834e-002 3.69864851e-002 5.46675138e-002 -2.18648881e-001
      6.27239374e-003 -5.86878182e-003 6.69711502e-003 4.06211987e-003
      4.33570426e-003 3.24432272e-003 1.05360954e-003 -3.07322353e-001
      1.24350116e-002 -9.16405302e-003 3.28170159e-003 4.19387966e-003
      6.22559199e-003 6.36643218e-003 2.51811859e-003 -1.49497360e-001
      7.11898552e-003 7.11866887e-003 3.50109156e-004 1.62996061e-003
      4.17219754e-003 3.00049037e-003 3.70370015e-003 -4.17447358e-001
      1.16579095e-002 1.87889524e-002 2.30717123e-003 1.31264124e-002
      8.38945247e-003 9.75167472e-003 1.24274949e-002 -3.27182919e-001
      5.55589013e-002 3.27234305e-002 5.99299297e-002 5.25630005e-002
      3.63744125e-002 3.67139559e-003 8.08216352e-003 1.04083409e-016 0.
      0. 0. 0. 0. 0. 0. -2.00110629e-001 -3.67899425e-002
      -3.34315561e-002 -3.07332724e-002 -2.06552669e-002
      -1.41536128e-002 -3.88709567e-002 -1.11627141e-002 1.69298559e-001
      2.69141281e-003 6.30685454e-003 9.54773044e-004 1.09308551e-003
      5.54737309e-003 -4.72168846e-004 3.66630428e-003 -4.96188492e-001
      3.48510034e-003 4.94684977e-003 1.03068464e-002 3.68086342e-003
      1.67397899e-003 5.17014414e-003 1.13741914e-003 -3.89371246e-001
      1.65288104e-003 1.77195598e-003 1.01943873e-002 3.30162409e-004
      6.18315022e-003 5.03818877e-003 8.78129620e-003 3.40710521e-001
      -1.00453850e-002 2.01793369e-002 -4.10511829e-002 -1.03663288e-001
      -2.16251478e-001 -2.48640701e-001 -8.56125876e-002
      -7.52301479e-004 2.25690339e-004 0. 7.52301057e-005 0.
      1.50460211e-004 2.25690339e-004 0. 6.09335378e-002 4.75816568e-003
      2.73613562e-003 -1.51730317e-003 3.58963944e-003 4.44698939e-003
      2.16726423e-003 7.85136875e-003 8.50837305e-003 1.03356841e-003
      7.09954277e-003 -3.72132752e-003 1.17528643e-002 2.97475676e-003
      -2.78383028e-004 4.60671075e-003 5.54978698e-002 -4.37788572e-003
      -7.81063363e-003 3.79420293e-004 -3.50140268e-003 -1.92357250e-003
      -2.49574194e-003 7.64437625e-003 6.39803037e-002 -7.51965074e-003
      4.66067996e-003 8.27921182e-003 -2.36992259e-003 7.09319161e-003
      -1.81427952e-002 -3.63526493e-003 -2.18949430e-002 1.36641297e-003
      1.52880931e-003 2.65613478e-003 3.76802380e-003 -6.91056857e-003
      -1.49284257e-002 8.59830622e-003 -1.96838751e-002 -1.65538732e-002
      7.97915738e-003 -2.38150209e-002 1.79763772e-002 1.53523972e-002
      1.73896104e-002 4.96718064e-002 2.10006118e-001 3.45565146e-003
      1.68197462e-003 2.32729013e-003 8.07492703e-004 1.48619327e-003
      3.55323986e-003 -5.74915810e-003 1.90995812e-001 2.22917809e-003
      -2.77879625e-003 1.45388383e-003 1.39932707e-003 3.14688520e-003
      2.73682573e-003 1.25024701e-003 2.12862998e-001 -1.02345804e-002
      -3.41383438e-003 3.49638960e-003 -3.29043600e-003 4.83309105e-003
      -3.41282599e-003 -3.44216038e-004 1.85813740e-001 2.75935163e-003
      7.25661754e-004 5.48120216e-003 9.43012536e-003 -2.72467523e-003
      4.13409958e-004 1.56701193e-003 6.45171553e-002 1.48625895e-002
      1.36929071e-002 1.23981247e-002 9.37199499e-003 5.20887203e-004
      6.55724062e-003 -2.12621945e-003 3.26970071e-002 5.49705001e-003
      -1.86064327e-003 2.32551079e-002 2.49715727e-002 3.25487852e-002
      -7.61222001e-003 3.36585231e-002 -2.89394613e-002 -3.29528488e-002
      -2.12571453e-002 -2.09124610e-002 -1.49076004e-002
      -1.70045327e-002 -1.10083353e-002 -1.79666094e-002 3.10489088e-001
      -3.04825348e-003 1.49796123e-003 -3.88256297e-003 -3.50418501e-003
      -4.83014155e-003 -1.32862125e-002 -3.31665250e-003
      -2.99901545e-001 5.23209712e-003 6.65173121e-003 3.46914283e-004
      2.86286371e-003 2.61958712e-003 2.74199387e-003 2.76823831e-003
      -2.36664221e-001 2.70653167e-003 2.73301103e-003 1.33218821e-002
      3.06120585e-003 3.17968172e-003 1.09056365e-002 2.74400576e-003
      1.87388003e-001 2.37860554e-003 4.57063084e-003 -3.70761310e-003
      -3.19595002e-002 -1.61430985e-001 -1.85277745e-001
      -8.60408694e-002 1.04083409e-016 0. 0. 0. 0. 0. 0. 0.
      1.61576718e-001 1.09978684e-003 3.45334853e-003 4.56276815e-003
      3.03525547e-003 4.48089838e-003 4.44322545e-003 1.66795461e-003
      9.66950208e-002 2.14399653e-003 2.07540812e-003 3.20809521e-003
      4.28588782e-003 2.59662140e-003 1.70162774e-003 2.07839953e-003
      8.93228427e-002 3.03336093e-003 -3.86462244e-003 -3.65673890e-003
      3.43743409e-003 7.31915841e-003 -8.51173711e-004 5.09338034e-003
      4.22707386e-003 1.54954963e-003 5.94469311e-004 5.87393204e-003
      9.92192607e-003 8.13074131e-003 1.01333195e-002 5.59844356e-003
      7.50738457e-002 3.86839616e-003 4.57854895e-003 9.90309287e-003
      4.09171637e-003 3.93515080e-003 4.76540858e-003 1.04926629e-002
      -3.75000248e-003 1.85435284e-002 1.00171193e-002 3.65970358e-002
      2.11445875e-002 -8.14108702e-004 2.11512800e-002 4.83195484e-003
      2.84344722e-002 8.13957211e-003 3.00920423e-004 3.31690814e-003
      8.91715568e-003 8.95809103e-003 -5.59869781e-003 6.67369168e-004
      5.54205887e-002 -4.75889584e-003 -5.38201956e-003 7.08995038e-004
      3.47800972e-003 4.62021999e-004 8.29160796e-004 3.78957158e-003
      -1.33205391e-003 2.73282593e-003 7.63270492e-003 3.66031379e-003
      1.26080855e-003 2.16326420e-003 -1.40754776e-002 -6.88661123e-003
      -4.07216921e-002 1.14196008e-002 1.17328428e-002 3.77614424e-003
      -9.19321831e-003 1.28142769e-004 9.05860914e-004 2.29099859e-003
      -1.30296767e-001 -9.69324377e-004 5.10402163e-003 5.45026362e-003
      -2.41487706e-003 -1.45262911e-003 -2.98203807e-003 5.16499626e-003
      -1.16884544e-001 -1.43871009e-002 -2.31358293e-003 4.52410337e-003
      4.03702864e-003 2.67492998e-002 5.95307611e-002 6.15403801e-002
      -2.19241366e-001 -3.18909526e-001 0. -2.03773737e-001</_>
    <_>
      1.12411166e-002 -3.84125533e-003 2.37378594e-003 6.22395845e-003
      5.09645417e-003 -1.08249998e-003 9.45220888e-003 4.30135662e-003
      1.01463884e-001 6.60157390e-003 5.24320733e-003 3.64028779e-003
      -9.78750293e-004 9.27873608e-003 -1.32447714e-003 1.42942593e-002
      7.01017752e-002 2.56887474e-003 1.49161015e-002 1.53604299e-002
      1.85961388e-002 1.24102430e-002 1.06568271e-002 2.45622192e-002
      1.87729716e-001 6.95685996e-003 1.85770020e-002 2.03882400e-002
      1.33848544e-002 2.71841604e-002 2.04376522e-002 2.25880351e-002
      8.80736411e-002 4.06235009e-002 5.03766164e-002 4.43705991e-002
      6.29432797e-002 8.73140171e-002 4.08118926e-002 2.12465636e-002
      -9.61997826e-003 2.82737892e-002 7.23097920e-002 1.35998756e-001
      3.57447833e-001 4.73267078e-001 2.65218675e-001 5.49057536e-002
      7.58073568e-001 -1.43420976e-003 8.66504479e-003 -3.73714790e-003
      4.67479927e-004 -2.60497723e-003 -1.62665965e-003 1.09673310e-002
      7.47360229e-001 -1.10907229e-002 -1.53353987e-002 -1.29022775e-002
      -3.53430188e-003 -1.27737690e-003 -6.60613459e-003
      -6.01046486e-003 5.30429125e-001 -2.12458912e-002 -1.46856122e-002
      -2.07028091e-002 -2.19787331e-003 2.60584609e-004 6.33285008e-003
      -5.91832306e-003 2.68341780e-001 -3.17506082e-002 -3.82432714e-003
      1.40936533e-002 -4.51654056e-003 1.00213997e-002 4.34520748e-003
      5.27785858e-003 -9.14889723e-002 -5.37398644e-002 -4.39304560e-002
      1.16060851e-002 1.14198439e-002 2.16738656e-002 2.99596116e-002
      2.95370854e-002 -4.63570625e-001 2.04266429e-001 1.62209541e-001
      5.68604097e-002 3.40514258e-002 5.36572784e-002 5.60971051e-002
      5.39019406e-002 -2.33291522e-001 -2.60725938e-004 -1.40451733e-003
      5.49989613e-003 -1.29409006e-003 -1.64428508e-004 -2.55801133e-003
      -4.01007198e-003 -3.19475234e-001 6.96558878e-003 -1.13676926e-002
      -6.19026879e-003 -8.84808367e-004 -2.27171648e-003
      -9.65455722e-004 -8.44822824e-003 -2.52388746e-001 1.46838119e-002
      1.77735966e-002 2.27130367e-003 2.58730305e-003 8.71016458e-003
      -3.79455206e-003 5.76153304e-003 -6.57432079e-001 2.49941330e-002
      2.24300940e-002 1.41730784e-002 6.78556599e-003 1.96389966e-002
      1.64273605e-002 2.29574386e-002 -6.49278283e-001 1.24845743e-001
      9.29237381e-002 1.02159083e-001 7.47400671e-002 6.19932525e-002
      3.45002152e-002 2.64692456e-002 6.10622664e-016 0. 0. 0. 0. 0. 0.
      0. -6.71030581e-001 -1.95734343e-003 3.53446673e-003
      8.61290842e-003 -1.30868563e-003 -1.17142107e-002 5.76484157e-003
      1.50849642e-002 -6.31168425e-001 1.15153976e-002 9.38493479e-003
      -3.11237178e-003 -8.35522916e-003 -8.65827594e-003
      -1.35240080e-002 4.17242205e-004 -7.23426998e-001 -3.12962271e-002
      -1.86164752e-002 -9.46707278e-003 8.10301583e-003 1.39438407e-002
      2.32747756e-002 1.32446392e-002 -6.97543204e-001 2.13781390e-002
      6.54982869e-003 1.91511884e-002 1.18100708e-002 2.23442130e-002
      1.38273304e-002 1.79716647e-002 -1.41900377e-002 -5.17867386e-001
      -2.87682384e-001 -1.64575711e-001 -1.44513696e-002 5.11776991e-002
      4.92425896e-002 4.80015948e-002 -2.81354063e-003 7.68329483e-004
      -3.38186219e-004 -2.97776627e-004 -2.58582644e-004 9.79911769e-004
      1.46986777e-003 0. -4.53293085e-001 7.48510519e-003
      -1.83976511e-003 9.35872085e-005 1.33298687e-003 -4.04329585e-005
      1.28421257e-003 5.78803476e-003 -3.67464125e-001 -2.77936505e-003
      9.45944060e-003 -9.07653011e-003 3.09395278e-003 -4.91583720e-004
      7.35508325e-003 9.31207743e-003 -9.85971466e-002 1.03401393e-002
      8.15240014e-003 1.35750202e-002 1.37756933e-002 1.93863735e-002
      9.90919583e-003 2.14967299e-002 1.14375986e-001 2.15184018e-002
      5.36997756e-003 1.58257838e-002 3.50477174e-002 2.98248082e-002
      2.31080875e-002 2.41752621e-002 1.97786912e-002 3.10060661e-003
      3.42391385e-003 2.17221994e-002 1.95430070e-002 3.10636293e-002
      2.71512382e-002 3.26116048e-002 2.15040762e-002 1.69471242e-002
      3.86574678e-002 4.03681621e-002 5.43205328e-002 1.32916868e-001
      2.35995039e-001 2.36458153e-001 2.98380524e-001 8.46808543e-004
      -4.10564244e-003 -1.11199345e-003 -5.67402644e-003
      -3.38497688e-003 -2.21365783e-003 -1.14619115e-003 3.93775791e-001
      -1.23410998e-002 -4.75092465e-003 -5.53005515e-003
      -2.26520468e-003 -9.01323836e-003 -6.05751807e-003
      -5.29063400e-003 6.28651559e-001 -5.15159452e-003 -1.31670758e-002
      -7.62703770e-004 3.86653491e-003 6.59775361e-003 -4.46591666e-003
      -4.63761203e-003 6.96083307e-001 8.90722778e-003 -7.11167639e-004
      6.77677291e-003 1.07945278e-002 2.54319352e-003 5.11268107e-003
      1.06256856e-002 3.27346325e-001 2.77333017e-002 4.10215780e-002
      2.09225379e-002 2.41002794e-002 3.48181799e-002 3.04656606e-002
      4.61240076e-002 2.18635708e-001 2.91242916e-002 7.52981007e-002
      8.74945223e-002 2.88011655e-002 5.48981838e-002 1.90617189e-001
      1.72540799e-001 1.45184249e-001 -3.99510004e-003 4.68094973e-003
      -3.01702786e-003 1.64701126e-003 5.81945851e-003 -2.02988158e-003
      -3.08667170e-003 -7.76545852e-002 -3.50528536e-003 2.13507353e-003
      -5.64671261e-003 -3.09422123e-003 -1.57245272e-003 1.97894801e-003
      1.18955493e-003 -2.55695850e-001 3.71848978e-003 2.60685501e-003
      2.67597148e-003 5.75200902e-005 5.00750635e-003 3.83790932e-004
      6.04999997e-003 -3.73766690e-001 8.55129492e-003 5.68932993e-003
      8.54309462e-003 5.70414634e-003 4.37288126e-003 1.05313901e-002
      4.60758526e-003 -2.42836758e-001 -2.35934168e-001 -1.87848255e-001
      -1.68257788e-001 -3.68950516e-002 -1.45761948e-002 1.65372286e-002
      3.41798738e-002 2.92723835e-003 -2.92723975e-003 0. 0. 0. 0. 0. 0.
      -8.57950188e-003 -1.48966452e-002 -9.35513899e-003
      -4.11384553e-003 -3.95755284e-003 4.01869323e-003 2.16342229e-003
      -4.75115888e-003 -3.84271182e-002 -6.14547543e-003 7.07947928e-003
      -8.43480695e-003 -2.16957345e-003 -5.73979691e-003
      -1.88508187e-004 -1.05224364e-002 3.84300947e-002 4.24665306e-003
      -6.93011144e-003 -1.90649857e-003 -3.11839557e-003
      -3.78119270e-003 1.02214506e-002 -8.41625500e-003 1.34283677e-001
      1.38538620e-002 2.72093667e-003 1.39495553e-002 1.05786575e-002
      1.87571766e-003 8.85595381e-003 1.19214309e-002 2.09930211e-001
      1.86924096e-002 2.87067592e-002 9.47075337e-003 8.52425862e-003
      2.39914767e-002 1.23085221e-002 1.88173261e-002 1.36694551e-001
      4.10842225e-002 7.69481212e-002 9.71246418e-003 2.46297549e-002
      1.57314494e-001 1.66379362e-001 2.17666626e-001 -6.93404198e-001
      1.51090848e-003 -1.62932766e-003 -1.39029510e-003 -3.86529719e-003
      6.01777853e-003 -3.70594626e-003 -8.20181239e-003 -5.27284205e-001
      -1.83906546e-003 -8.09958298e-003 -4.77711158e-003
      -2.17522072e-004 -1.23139126e-002 -2.34782882e-003
      -6.23601628e-003 -3.37629586e-001 4.98552341e-003 1.12018306e-002
      1.63890216e-002 6.13551540e-003 1.24990777e-003 -3.07195284e-003
      -7.94548483e-004 -1.89819202e-001 1.67212542e-002 1.74409188e-002
      -2.03325041e-003 -2.50067119e-003 4.36488260e-003 1.77971367e-002
      1.32625829e-003 3.59068997e-002 1.93842233e-003 7.66090490e-003
      1.57091737e-004 1.53427832e-002 8.08955170e-003 1.88726501e-003
      1.19637873e-003 7.38558918e-002 3.70102399e-003 2.21654605e-002
      -6.34475276e-002 -8.74183327e-003 1.28428057e-001 1.85249984e-001
      2.41250753e-001 -2.48951748e-001 -1.69010699e-001 0.
      1.33649409e-002</_>
    <_>
      5.42186677e-001 1.30075542e-003 8.32334813e-003 7.88947102e-003
      7.27255922e-003 4.97897016e-003 1.26544554e-002 -1.72884506e-003
      4.42014754e-001 6.86519407e-003 8.23003706e-003 1.40690692e-002
      9.39289480e-003 1.67260468e-002 1.03696331e-003 1.42959245e-002
      2.21466810e-001 1.15404958e-002 1.37373954e-002 1.04680983e-002
      1.99765582e-002 1.13770682e-002 1.09565593e-002 1.35668349e-002
      2.87845880e-001 1.42787741e-002 2.10323930e-002 2.14589573e-002
      1.83261577e-002 1.72812883e-002 1.88925769e-002 2.11609639e-002
      1.77154526e-001 3.96090187e-002 5.08075431e-002 4.88347001e-002
      5.69288209e-002 8.39857012e-002 7.98626319e-002 9.33213159e-002
      1.55864460e-002 5.19246757e-002 1.15980342e-001 2.29727253e-001
      3.15179288e-001 4.96922404e-001 3.31226617e-001 2.08550453e-001
      -7.29481056e-002 6.36737328e-003 9.66807362e-003 -1.62447919e-003
      5.11713140e-003 2.57292320e-003 -2.06779153e-003 1.70097500e-002
      1.15716755e-001 2.70279008e-003 -4.70187236e-003 1.62541447e-003
      -2.69258471e-005 -2.79107550e-003 -3.18631786e-003 2.79199239e-003
      2.14384943e-001 -1.81565083e-005 -1.32918998e-003 1.38872652e-003
      5.10660186e-003 -1.78819511e-003 -9.13188048e-003 2.35943095e-004
      1.91122055e-001 5.88131370e-003 1.31767616e-002 6.49863435e-003
      -2.22119782e-003 -1.53189981e-002 3.37912212e-003 -6.06304733e-003
      2.71025538e-001 -1.52138462e-002 -2.08414551e-002 1.99682098e-002
      -1.91852991e-002 -3.20278779e-002 -1.13469688e-002
      -3.48660089e-002 3.95185262e-001 -3.91623341e-002 -4.39233966e-002
      -1.18680164e-001 -9.66356844e-002 -4.72648814e-002
      -1.14529012e-002 -2.18671430e-002 -1.29848391e-001 2.44182139e-003
      -1.57713832e-003 6.30475162e-003 5.18894158e-005 5.64904418e-003
      1.24739527e-004 -2.67204712e-003 -2.22231954e-001 1.75420586e-002
      2.50620791e-003 2.17549107e-003 4.08021268e-004 1.32877128e-002
      3.88756068e-003 2.78332690e-003 -1.22370556e-001 6.65696524e-003
      1.33999791e-002 -1.17215177e-003 1.47986412e-003 7.52439909e-003
      1.86795648e-003 1.38722046e-003 -3.59788984e-001 1.66065041e-002
      3.11224069e-002 9.84791783e-004 1.22616794e-002 6.22155238e-003
      1.40999602e-002 9.55771469e-003 -2.00425372e-001 3.88319641e-002
      2.64907535e-002 4.05549742e-002 2.63084117e-002 2.85310093e-002
      9.19328630e-003 -1.56322654e-004 4.44089210e-016 0. 0. 0. 0. 0. 0.
      0. -2.69662231e-001 -3.70181026e-003 -4.12380742e-003
      1.11662820e-002 9.78926290e-003 -7.56823318e-003 2.97746621e-003
      1.26696201e-002 -1.75418064e-001 1.40040293e-002 1.64916329e-002
      1.31165916e-002 7.57054705e-003 1.18190311e-002 -2.62108981e-003
      4.52360604e-003 1.21575445e-002 -1.35985613e-002 -5.84005564e-003
      6.98974123e-003 -1.35940062e-002 -1.07642207e-002 -1.61331818e-002
      -9.55775380e-003 -1.25373900e-001 -7.75290141e-003
      -1.40709784e-002 -1.09270103e-002 -9.60067194e-003
      -9.53667052e-003 -1.91586670e-002 -4.57209814e-003 3.77946370e-003
      1.02543876e-001 7.73396343e-002 3.10718603e-002 -3.43788695e-003
      1.73615422e-002 -7.05163088e-003 -2.55984329e-002 -4.82222950e-003
      1.39641552e-003 1.67506194e-004 4.65471792e-004 0. 9.30943585e-004
      1.39641552e-003 0. 5.05328834e-001 4.98482538e-003 4.92388848e-003
      6.85998378e-003 2.38373643e-003 5.49423043e-003 2.37640482e-003
      1.14836143e-002 3.12504202e-001 -8.82741343e-003 3.75296618e-003
      -3.29490309e-003 2.78071896e-003 -3.91920010e-004 8.93634744e-003
      5.28043509e-003 7.76315928e-002 5.56462025e-003 1.73851941e-003
      1.16454093e-002 4.42207232e-003 1.40835987e-002 3.30349925e-004
      1.54452417e-002 1.03689805e-001 3.87086649e-003 4.01622802e-003
      3.78522580e-003 7.28035113e-003 1.01514533e-002 7.21826870e-003
      1.43797006e-002 1.07818887e-001 9.43739247e-003 2.48258840e-003
      1.89406574e-002 1.79365855e-002 1.97891928e-002 1.75858550e-002
      1.46165062e-002 1.06364802e-001 2.13970114e-002 3.89180444e-002
      5.31802475e-002 1.41111121e-001 1.60180852e-001 1.63843453e-001
      1.85523540e-001 1.83660179e-001 -7.51176849e-003 -5.23756351e-003
      -1.58570634e-004 -6.48782216e-003 -7.10193953e-003
      -3.34253372e-003 -2.55169277e-003 3.74020040e-001 2.55291379e-004
      -7.44080683e-003 -5.79754356e-003 -1.98317645e-003 1.76443066e-003
      -1.15300519e-002 -9.40447208e-003 4.38789278e-001 -2.53768684e-003
      -4.38111508e-003 3.89735238e-003 -1.52237387e-003 -1.45780307e-003
      3.15737771e-003 -1.02843996e-002 4.36790198e-001 -1.09514091e-002
      -2.76351999e-003 -3.40050878e-003 -1.54102105e-003
      -2.11765547e-003 2.05463334e-003 3.99982510e-003 3.92057955e-001
      3.72095853e-002 3.50762457e-002 2.18343399e-002 2.19850112e-002
      2.16693301e-002 2.70984303e-002 1.50142247e-002 2.26132408e-001
      3.89252156e-002 5.12250327e-002 9.79833454e-002 1.24908566e-001
      1.22204207e-001 1.51662648e-001 1.58368111e-001 -1.07088357e-001
      -2.95045623e-003 -3.68517038e-004 4.83056938e-004 -2.90060113e-003
      1.02016865e-003 1.51912624e-003 5.86563721e-004 -7.56396502e-002
      -2.75236741e-003 5.15678665e-003 3.74417449e-003 -2.43794546e-003
      -4.49915044e-003 -1.03690254e-003 -1.78393186e-003 1.51538223e-001
      -8.90635606e-003 1.20256306e-003 -6.58567587e-004 -1.24378756e-004
      -4.42266092e-003 -3.27827944e-003 4.40659141e-003 1.91416785e-001
      5.19041962e-004 2.75859074e-003 1.20546948e-002 -3.32898606e-004
      -3.13947676e-003 8.86728801e-003 -1.51994254e-003 7.28349015e-002
      1.39013985e-002 -1.79151855e-002 2.36466844e-002 1.49950050e-002
      -7.28472543e-004 3.19966511e-003 8.96847714e-003 4.44089210e-016
      0. 0. 0. 0. 0. 0. 0. 4.86961067e-001 -8.77126865e-003
      -2.31370726e-003 -4.10123309e-003 2.20514950e-003 6.10430725e-003
      4.64307144e-003 -3.21725011e-003 3.76679569e-001 -5.24507929e-003
      -3.61101906e-004 -1.68538338e-003 -3.90016939e-003 1.11949409e-003
      -1.15590775e-003 1.72101823e-003 3.74457002e-001 2.73212674e-003
      -3.06928530e-003 -7.00052215e-006 -6.97200652e-003 6.91067846e-003
      6.55661803e-003 -1.16999901e-003 2.76905000e-001 1.23116244e-002
      -2.43110047e-003 6.90960512e-003 2.31151357e-002 2.30054092e-003
      1.58619434e-002 2.38097776e-002 2.10763246e-001 1.62593462e-002
      1.44466376e-002 1.17568905e-002 2.02162117e-002 2.17694063e-002
      2.01238468e-002 1.19705843e-002 1.70118377e-001 4.08036672e-002
      4.32672352e-002 5.81499599e-002 1.07859358e-001 1.49321303e-001
      1.45140275e-001 1.75650567e-001 2.42703333e-001 9.06213094e-003
      2.27370905e-003 3.25673376e-003 8.83290451e-003 1.23794358e-002
      3.05908569e-003 3.30684823e-003 2.38000810e-001 5.96317044e-003
      9.73477669e-004 2.92365695e-003 4.65141982e-003 3.87565233e-003
      1.29113338e-004 8.29601660e-003 3.16068113e-001 5.32654999e-003
      1.09773912e-002 9.29593202e-003 1.05928164e-002 -7.93127343e-003
      1.05471220e-002 5.89073356e-003 2.32398525e-001 9.70138237e-003
      5.44111896e-003 -1.67611905e-003 -9.27135069e-003 4.82918555e-003
      1.40029760e-002 4.82719019e-003 1.65377885e-001 1.35034369e-002
      9.29504074e-003 1.09294988e-002 1.77131016e-002 1.17529267e-002
      1.32213579e-002 1.38773043e-002 1.35715395e-001 2.47131232e-002
      3.44772302e-002 5.27936295e-002 1.08558327e-001 1.26802817e-001
      1.60877377e-001 1.99845836e-001 3.82919461e-001 2.77802914e-001 0.
      2.91638076e-002</_>
    <_>
      1.26871914e-001 -1.21460506e-003 1.72816461e-003 -2.78659118e-003
      5.01360418e-003 -4.61105257e-004 2.83794710e-003 3.35626910e-003
      1.26181364e-001 1.04537176e-003 4.66090254e-003 2.76362733e-003
      1.21216255e-003 5.57569275e-003 1.07083202e-003 5.72433276e-003
      5.16801700e-002 3.78168793e-003 2.52326555e-003 2.10789754e-003
      5.90033410e-003 3.88161774e-004 3.99384834e-003 3.69557133e-003
      6.62249178e-002 8.31731420e-004 2.51421006e-003 5.40281413e-003
      1.51977467e-003 7.48705259e-003 8.02929699e-003 8.38627852e-003
      3.67050134e-002 8.01854860e-003 -1.36619166e-003 4.06742096e-003
      6.90684794e-003 1.40864132e-002 1.58870295e-002 3.94410128e-003
      5.85804577e-004 8.96826386e-003 2.10810155e-002 1.99687816e-002
      7.12005198e-002 1.67501524e-001 9.43377167e-002 6.05049450e-003
      3.13122243e-001 -7.98165798e-003 2.94389133e-003 1.47300935e-003
      -8.95028561e-003 -1.64120900e-003 -1.33353686e-002 7.68028246e-003
      3.31210643e-001 -1.87910825e-003 -5.58747165e-003 6.44527026e-004
      -6.66976767e-003 -1.40798772e-002 -7.87835661e-003
      -6.13308884e-003 2.26409987e-001 -4.92710248e-003 -1.06904749e-002
      -1.11714384e-004 -1.75065605e-003 -3.57713574e-003 4.16814489e-003
      3.43948959e-005 1.73009187e-001 4.33366466e-003 -1.68219628e-003
      4.89639910e-003 -3.42913903e-003 -3.33285169e-003 2.67201615e-003
      -1.39334574e-002 1.67743400e-001 -5.13549671e-002 -4.78945971e-002
      -1.48725649e-002 -2.24320758e-002 2.27597984e-003 -9.97792743e-003
      1.75022904e-003 4.49983776e-002 -3.86785343e-002 2.14410219e-002
      1.67482998e-002 2.69898847e-002 1.72796305e-002 1.42323468e-002
      6.06218679e-003 -2.88668752e-001 6.55503757e-003 3.17332131e-004
      4.80348757e-003 3.27751879e-003 5.73895779e-003 2.99829734e-003
      2.18131277e-003 -3.92072231e-001 8.52391403e-003 2.95747886e-004
      1.33747386e-003 -7.56604481e-004 8.36787187e-003 4.03923867e-003
      8.36022757e-003 -1.60561129e-001 8.73635057e-003 9.22137778e-003
      -5.07573073e-004 5.74007921e-004 6.03723433e-003 1.27856177e-003
      3.75815132e-003 -4.62389410e-001 -4.75006877e-003 1.43039348e-002
      5.35414787e-003 1.09532448e-002 1.07885338e-002 1.16602732e-002
      1.16613992e-002 -4.12272424e-001 6.45560399e-002 5.52854724e-002
      7.40419924e-002 5.44623397e-002 4.97598723e-002 2.39047650e-002
      1.83458533e-002 4.71844785e-016 0. 0. 0. 0. 0. 0. 0.
      -4.62369472e-001 2.35000509e-003 1.68204610e-003 6.23960700e-003
      4.06182045e-003 -4.42577526e-003 2.84965755e-003 1.03115644e-002
      -4.78212535e-001 5.72206965e-003 1.14938030e-002 1.16594024e-002
      2.90455460e-003 8.21132399e-003 4.47893236e-003 1.00647649e-002
      -2.12303460e-001 -9.49424691e-003 1.50436524e-003 8.15452263e-003
      -5.14751859e-003 -5.36491349e-003 3.15901381e-003 -3.02330568e-003
      -2.20900238e-001 -9.38040111e-003 -4.97982185e-003
      -6.12624828e-003 -4.28989297e-003 4.70752828e-003 -6.04048325e-003
      7.46190688e-003 -1.23841777e-001 -3.69767360e-002 -1.50895370e-002
      -1.96079127e-002 2.22450146e-003 -8.67125858e-003 -4.55327705e-003
      -8.89852736e-003 4.71844785e-016 0. 0. 0. 0. 0. 0. 0.
      -2.82711424e-002 -5.56407217e-003 7.91610626e-004 2.53524003e-003
      -4.20525810e-003 1.81641115e-003 -6.51493436e-003 9.48450397e-005
      -7.15254173e-002 -9.48621519e-003 1.08832086e-003 -5.09373425e-003
      -3.00333463e-003 -6.88222470e-003 3.66431777e-003 -5.69878425e-003
      -7.62124434e-002 5.67059033e-003 -1.96925458e-003 5.75452438e-003
      6.57581957e-003 2.58064689e-003 -1.45894033e-003 3.52637633e-003
      -5.99838160e-002 -6.02796266e-004 -1.59403700e-002 5.28071821e-003
      7.81000732e-003 -3.38126629e-005 8.89803807e-004 1.00184735e-002
      3.20596434e-002 -6.60375273e-003 -7.55866338e-003 8.09287000e-003
      -6.43747067e-003 -1.00937588e-002 -6.05637499e-004 1.51466904e-003
      2.07600538e-002 8.42191093e-003 -3.28918919e-004 6.39912440e-003
      1.06609659e-002 3.33536528e-002 3.28003354e-002 5.52944466e-002
      3.07352781e-001 -2.08638143e-003 -2.94613745e-003 -3.08312196e-003
      -2.24959571e-003 -2.59783049e-003 -1.23723713e-003
      -1.00226374e-002 3.55729669e-001 -2.89902184e-003 -4.80822608e-004
      -2.78051099e-004 -8.73720087e-003 -3.48721840e-003
      -1.28498150e-003 -8.83748988e-004 4.73110527e-001 -8.64223344e-004
      -5.47313690e-003 -6.73861150e-003 -9.26684774e-003 6.28071357e-005
      -7.36433722e-004 -8.03127047e-003 3.58930171e-001 -3.07259918e-003
      -7.71820871e-003 1.39706535e-003 2.61493679e-003 -8.52086488e-003
      -6.71937689e-003 -7.19856587e-004 7.99138397e-002 1.20860245e-002
      1.35774948e-002 9.63136833e-003 5.99888479e-003 1.99760497e-002
      1.93439983e-002 1.05053466e-002 3.54370549e-002 -9.87349777e-004
      -7.36532747e-005 1.44515401e-002 2.95809899e-002 5.00942618e-002
      6.09695390e-002 5.99706024e-002 -1.32251725e-001 -4.47024032e-003
      -1.78027037e-003 -6.07302529e-004 -9.58015677e-004 5.73278312e-003
      8.90730589e-004 -4.87543317e-003 -2.89820790e-001 4.66357742e-004
      9.18804761e-003 1.16010767e-003 2.47431942e-003 -1.76121492e-003
      -2.78051099e-004 3.65498243e-003 -2.38678783e-001 -4.31590946e-003
      -3.62306577e-003 -6.33887993e-003 -1.67272761e-002
      -1.12324096e-002 -8.66230857e-003 -3.99409654e-003
      -2.67559350e-001 -4.53342544e-003 -1.81473535e-003 1.01838633e-002
      -9.58015677e-004 -5.21847920e-004 4.25174925e-003 2.60664523e-003
      1.22071102e-001 -5.89971915e-002 -8.51561949e-002 -9.04112458e-002
      -5.13831042e-002 -5.65090440e-002 -6.10076077e-002
      -2.29394063e-002 4.71844785e-016 0. 0. 0. 0. 0. 0. 0.
      4.19088721e-001 4.44474106e-004 4.10359446e-003 -1.62914759e-004
      -1.28414459e-003 2.98754848e-003 2.58261245e-003 -3.92630091e-003
      4.17463303e-001 1.27054960e-003 3.38971894e-003 2.49346113e-003
      5.99589839e-004 3.80974798e-003 1.04102772e-003 -8.52757366e-004
      2.68326044e-001 3.40268645e-003 8.77676532e-004 -5.15360711e-003
      -2.30517727e-003 6.83506019e-004 1.59091805e-003 -4.21910489e-004
      1.85050413e-001 1.87716773e-003 1.84986333e-003 5.26726199e-003
      7.69983605e-003 2.98030791e-004 1.25903841e-002 -3.98211239e-004
      7.50718787e-002 2.21942365e-003 2.54244078e-003 8.17502290e-003
      1.02477823e-003 2.97129853e-003 -1.82306441e-003 -5.19427704e-004
      2.63661407e-002 6.52859407e-003 1.03717921e-002 2.22223960e-002
      2.22923905e-002 5.45905381e-002 7.02840611e-002 9.55706239e-002
      1.12584926e-001 7.40430260e-004 -2.34414125e-003 -1.27444149e-003
      1.77833531e-003 9.84817185e-003 -3.79846036e-003 -9.50094953e-004
      1.04775205e-001 -9.06419125e-004 -3.57794319e-003 -2.93635065e-003
      -7.64652155e-004 1.51043932e-003 -2.09556404e-003 2.76741246e-003
      4.12666472e-003 1.67555071e-003 5.00368769e-004 7.85129145e-003
      9.39069665e-004 -5.52460086e-003 4.67276806e-003 -1.02145867e-002
      -1.16885558e-001 4.20881854e-003 -3.25467298e-003 4.81924595e-004
      -5.61563717e-003 7.73969921e-004 4.10874560e-003 3.39415623e-003
      2.67830696e-002 3.24221421e-003 7.03015830e-004 1.55973539e-003
      -7.36122159e-003 -1.72756705e-002 -6.86874194e-003 1.14768562e-004
      1.25277229e-002 -8.87844805e-003 -1.30566582e-002 -3.55335418e-003
      1.17778089e-002 1.54389418e-003 5.07724993e-002 6.18816949e-002
      -3.65699440e-001 -5.19665539e-001 0. 7.23351259e-003</_>
    <_>
      2.11277783e-001 -2.50530127e-003 1.78247236e-003 9.47331486e-004
      3.08750989e-003 -3.07636755e-003 2.32478720e-003 -2.44213734e-003
      2.59272218e-001 3.32970126e-003 -1.62697735e-003 2.08510063e-003
      8.99496372e-004 4.68243565e-003 -4.87727532e-003 6.87690778e-003
      1.21185534e-001 8.87035951e-003 1.03616193e-002 8.53062980e-003
      1.73106622e-002 1.20400488e-002 8.06222111e-003 1.35044036e-002
      1.95583418e-001 9.08882078e-003 1.04826698e-002 1.48076331e-002
      1.83526073e-002 1.97121948e-002 2.23351195e-002 1.68685131e-002
      1.15631558e-001 2.92601958e-002 3.41210440e-002 3.22883464e-002
      3.92898545e-002 5.49569279e-002 5.25751151e-002 6.45593926e-002
      8.79712123e-003 3.61539200e-002 8.86433050e-002 1.59777552e-001
      1.31102055e-001 2.02270731e-001 6.14998341e-002 -4.14221734e-002
      2.20117047e-001 2.87528324e-004 5.19549148e-003 -1.70531799e-003
      -1.11226074e-003 -4.85711778e-003 -3.96182993e-003 1.11391367e-002
      3.24049890e-001 -5.26742777e-003 -6.62975665e-003 -2.28939345e-003
      -4.19923197e-003 -6.99147582e-003 -1.03144245e-002
      -4.00067773e-003 3.69163513e-001 -6.91498537e-003 -1.25791067e-002
      -1.04256365e-002 -8.82845465e-003 -3.43500520e-003
      -1.30383752e-003 -6.39921008e-003 2.86848575e-001 -5.37687261e-003
      7.27141509e-003 -1.29233580e-003 -1.37562677e-002 -1.05513157e-002
      -3.55465151e-003 -1.77600700e-002 1.71830490e-001 -2.65760776e-002
      -2.54891720e-002 -1.26015740e-002 -2.97445972e-002
      -4.47821319e-002 -4.19788659e-002 -5.64597324e-002
      -4.76344414e-002 -1.67564824e-001 -6.61335289e-002
      -2.78373528e-002 2.47218478e-002 4.12193201e-002 5.01985624e-002
      5.11668921e-002 -1.02852210e-001 -6.87096315e-003 -8.85447487e-003
      -6.58078538e-003 -6.82554720e-003 -1.30282599e-003
      -1.95140846e-003 -6.09712768e-003 2.78136004e-002 -8.64138920e-003
      -2.55673416e-002 -2.34080963e-002 -2.08627675e-002
      -7.93018285e-003 -1.30490605e-002 -1.20075112e-002
      -1.40714779e-001 -7.37668481e-003 -1.34974928e-003
      -1.25477929e-002 -5.39871212e-003 4.30411287e-003 1.15731428e-003
      2.88691884e-003 -2.85809696e-001 -6.05396293e-002 -3.57353128e-002
      -3.81020419e-002 -2.52656564e-002 -7.58490758e-003 2.09609210e-003
      1.50793046e-002 -4.72442150e-001 6.29542544e-002 6.12577759e-002
      7.77064189e-002 5.66458665e-002 5.74964955e-002 2.72561647e-002
      2.00080890e-002 -5.55111512e-017 0. 0. 0. 0. 0. 0. 0.
      2.23294958e-001 -2.23217197e-002 -1.47785973e-002 -8.85238778e-003
      -9.51324403e-003 -1.97634194e-002 -1.41223986e-002
      -2.87100277e-003 2.41846144e-001 -1.38105843e-002 -1.83975063e-002
      -1.04656378e-002 -2.08547693e-002 -2.71965191e-002
      -2.45249700e-002 -1.77178644e-002 -1.46911219e-001
      -1.40234903e-002 -8.46274756e-003 3.44870728e-003 -1.13233887e-002
      -1.25255100e-002 -9.87108331e-003 -1.38829919e-002
      -3.35659206e-001 1.67146896e-003 -7.28661846e-003 2.86886818e-003
      -3.51994019e-003 4.77020023e-003 -1.01328816e-003 -3.37303296e-004
      1.25635415e-001 -1.88799366e-001 -8.60724971e-002 -7.84212798e-002
      -3.85161787e-002 -9.80284624e-003 -2.16211379e-002
      -1.91793665e-002 -4.89956141e-003 1.46986777e-003 0.
      4.89955884e-004 0. 9.79911769e-004 1.46986777e-003 0.
      7.70548955e-002 8.03813245e-003 3.24787386e-003 1.75816717e-003
      1.48331083e-003 1.42344960e-003 -2.11934419e-003 5.24898758e-003
      1.87971983e-002 -1.30451145e-003 8.54921155e-003 -9.92942951e-004
      7.45236920e-003 -1.44905283e-003 7.58582354e-003 2.66931090e-003
      1.43682480e-001 2.35259882e-003 -5.08397818e-003 6.78729499e-003
      3.31904786e-003 4.61618695e-003 1.91430433e-003 1.06101101e-002
      2.48310313e-001 -6.15436875e-004 1.88415509e-003 1.09941643e-002
      8.26043356e-003 8.76050163e-003 5.26056858e-003 5.80830965e-003
      1.30718708e-001 7.05824886e-003 3.65233049e-003 1.37372315e-002
      1.20776938e-002 1.32160308e-002 1.12371752e-002 1.90818552e-002
      8.00669938e-002 1.98942404e-002 2.84227766e-002 3.73566635e-002
      1.00680314e-001 9.65510905e-002 9.21988636e-002 9.96156633e-002
      3.36585492e-001 -1.20745521e-004 -6.28970889e-003 3.43647756e-004
      -2.80546490e-003 -2.01784680e-003 -3.54915595e-004
      -3.06312321e-003 4.57014233e-001 1.51977630e-003 1.12398225e-003
      -3.77650606e-003 -2.94910953e-003 -2.34549819e-003 3.03644541e-004
      -4.16345289e-003 6.68850183e-001 3.24530178e-003 -4.20940667e-003
      1.81792676e-003 4.82610230e-005 9.25536733e-004 4.11314657e-004
      7.75220059e-003 6.76799238e-001 -2.46903975e-003 -4.32867324e-003
      5.15652634e-003 4.20444505e-003 -9.31177754e-003 -3.40902037e-003
      4.46322281e-003 2.89905816e-001 2.99921110e-002 2.51805335e-002
      2.05245260e-002 1.03536351e-002 2.30899472e-002 2.19593551e-002
      1.58296824e-002 1.58757508e-001 3.27472277e-002 4.26463149e-002
      6.96806386e-002 9.39286798e-002 5.68487011e-002 7.32210726e-002
      8.10068250e-002 2.08142981e-001 -6.27895305e-003 -1.16764463e-003
      -2.11648783e-003 9.42727434e-004 1.90296234e-003 -2.75696348e-003
      -2.69477698e-003 2.31328413e-001 -4.52798186e-003 1.71957223e-003
      -6.36517396e-003 -5.90145681e-003 -4.97210911e-003
      -6.86002057e-003 -2.09360477e-003 3.26936811e-001 -1.01565868e-002
      -1.05636399e-002 -1.20541668e-002 -8.99737142e-003
      -6.42682798e-003 -8.76978319e-003 -8.65945965e-003 2.85408765e-001
      -8.39071069e-003 -8.18419829e-003 7.89467478e-004 -1.55744506e-002
      -7.07654934e-003 -2.43962090e-003 -6.66184491e-003 2.83737957e-001
      -1.07749149e-001 -6.79053068e-002 -1.40076755e-002
      -1.32541312e-002 -2.39155050e-002 -2.47323494e-002
      -1.17826303e-002 -5.55111512e-017 0. 0. 0. 0. 0. 0. 0.
      -4.63125948e-003 -4.56453301e-003 -2.83898623e-003
      -2.93218833e-003 -1.81492732e-003 7.37203169e-004 2.54352693e-003
      -4.07357467e-003 1.13624819e-001 -4.54450399e-003 4.00300557e-003
      2.18535028e-003 -8.86125548e-004 -2.20949249e-003 -2.62942328e-003
      -1.44150341e-003 2.07874805e-001 8.06409866e-003 2.40584556e-003
      1.61259188e-004 7.11559877e-003 9.54790879e-003 6.57512620e-003
      2.30557658e-003 2.54427433e-001 1.43740326e-002 9.09874856e-004
      8.72504618e-003 2.45183557e-002 2.41623120e-003 7.48472940e-003
      2.40468187e-003 1.76276773e-001 1.26837585e-002 1.68895032e-002
      1.60122197e-002 1.18561964e-002 1.30012548e-002 1.69226509e-002
      1.67522058e-002 1.33589953e-001 4.50488552e-002 5.16051762e-002
      6.11610338e-002 6.86740503e-002 6.92158788e-002 4.12495211e-002
      7.74972215e-002 -2.06776336e-001 5.32486849e-003 -3.77623015e-004
      -1.23672490e-003 2.05178908e-003 7.92675372e-003 -1.11920075e-004
      -8.46634386e-004 -1.15281016e-001 1.69080938e-003 -8.73120094e-004
      3.17988190e-004 8.51061370e-004 -1.57095585e-003 -1.78915286e-003
      4.02184064e-003 6.36112988e-002 6.07636245e-003 1.00771757e-002
      1.26557760e-002 8.60891212e-003 2.66898470e-003 7.20910309e-003
      5.20559913e-003 1.63154170e-001 1.47599932e-002 1.88827105e-002
      2.21863366e-003 2.58846488e-003 7.96400383e-003 1.39813228e-002
      9.87026934e-003 7.91642517e-002 1.07687674e-002 3.82272503e-003
      4.03892389e-003 1.59886330e-002 5.75844618e-003 8.92042276e-003
      1.02318758e-002 7.85605088e-002 1.73132624e-002 2.57532261e-002
      4.08788994e-002 7.65580907e-002 8.13207328e-002 4.86062467e-002
      6.90631047e-002 6.69646263e-003 -4.68612537e-002 0.
      -1.16905272e-001</_>
    <_>
      3.48667474e-003 3.54336880e-005 9.21275860e-005 4.25204234e-005
      3.54336880e-005 5.66939016e-005 8.50408469e-005 5.66939016e-005
      3.51502188e-003 7.08673761e-005 2.83469508e-005 6.37806370e-005
      1.13387803e-004 7.08673761e-005 6.37806370e-005 7.08673761e-005
      1.97047018e-003 1.48821491e-004 1.55908216e-004 1.41734752e-004
      2.12602114e-004 1.70081694e-004 9.92143177e-005 1.41734752e-004
      2.35351105e-003 2.90556229e-004 2.48035823e-004 2.62209272e-004
      1.98785812e-004 2.69296026e-004 2.62209272e-004 2.69296026e-004
      8.32362915e-004 5.60209446e-004 6.45250257e-004 7.09030952e-004
      7.44821795e-004 1.02156179e-003 1.12006173e-003 9.07459587e-004
      1.35005190e-004 1.09171472e-003 2.92080734e-003 2.80634803e-003
      1.91413343e-003 8.57495237e-004 1.37148279e-004 1.05613880e-002
      2.05410361e-001 -6.48297695e-003 -2.53027584e-003 -8.63882620e-003
      -8.04190245e-003 -9.27145407e-003 -1.03982138e-002 6.08886033e-003
      2.34056145e-001 -1.14500877e-002 -1.43411690e-002 -8.15143157e-003
      -1.23905959e-002 -1.02833696e-002 -1.24411900e-002
      -1.19659891e-002 1.54968217e-001 -2.56242193e-002 -3.04754917e-002
      -3.03046256e-002 -2.46820282e-002 -2.04347763e-002
      -1.38456300e-002 -2.06869077e-002 9.52633247e-002 -4.80237044e-002
      -3.47434171e-002 -3.46395522e-002 -4.22444195e-002
      -3.60369645e-002 -2.52909567e-002 -2.41875350e-002
      -3.61045972e-002 -1.21283151e-001 -6.72130734e-002
      -3.10875736e-002 -1.99457426e-002 -9.15165059e-003
      -4.50658705e-003 1.63748150e-003 -2.69969255e-001 3.66348843e-003
      2.99426317e-002 2.10203379e-002 7.25460658e-003 1.99711882e-002
      3.44052538e-002 4.16052379e-002 -2.44863495e-001 5.20574767e-003
      -6.97958312e-005 5.16394153e-003 2.55752448e-003 2.58551422e-003
      2.53626425e-003 -6.30662762e-005 -3.63654017e-001 9.73831210e-003
      1.93441031e-003 2.05551041e-003 1.96163333e-003 9.88077745e-003
      4.64950362e-003 7.29813613e-003 -1.33665532e-001 5.20574767e-003
      5.25535503e-003 2.83469508e-005 -4.18060627e-005 2.52244784e-003
      2.64893775e-003 2.55752448e-003 -4.05715257e-001 2.36302475e-003
      1.00954864e-002 2.32759095e-003 7.36895110e-003 4.83479397e-003
      5.01444237e-003 1.53153697e-002 -3.53200167e-001 4.88122366e-002
      4.34863716e-002 5.91379739e-002 4.60573547e-002 4.34512980e-002
      2.01420058e-002 1.23277344e-002 -3.33066907e-016 0. 0. 0. 0. 0. 0.
      0. -1.06233895e-001 -2.00007204e-002 -2.24725064e-002
      -1.54793970e-002 -1.85203981e-002 -1.99899282e-002
      -1.69534422e-002 -8.23483150e-003 2.63646662e-001 1.23842037e-003
      6.03870396e-003 1.29921630e-003 9.93025955e-004 -1.41932361e-003
      5.38469525e-004 3.01131024e-003 -4.37302768e-001 -4.78401227e-004
      -5.53072372e-004 4.68616607e-003 -9.63457103e-004 -4.66118392e-004
      1.85763254e-003 -6.43912354e-004 -3.63028139e-001 -9.38406592e-005
      -2.44020030e-005 7.56775262e-003 3.94494691e-006 5.09419804e-003
      2.49235146e-003 7.67437462e-003 3.68090391e-001 -2.30590836e-003
      -1.58906579e-002 -9.34041962e-002 -1.46080211e-001
      -1.73964515e-001 -1.42322555e-001 -8.86486396e-002
      -3.33066907e-016 0. 0. 0. 0. 0. 0. 0. 6.27745241e-002
      2.62767752e-003 2.12602117e-005 2.59260088e-003 7.08673761e-005
      2.65602442e-003 6.37806370e-005 5.24118124e-003 1.04651451e-002
      4.25204234e-005 2.62767752e-003 3.54336880e-005 7.85468519e-003
      4.25204234e-005 2.53626425e-003 2.66311108e-003 5.60413525e-002
      5.24826813e-003 2.16173939e-005 2.64220801e-003 -6.37237508e-006
      4.28776002e-005 1.48821491e-004 2.72689178e-003 8.15421566e-002
      4.78576694e-005 9.99286785e-005 2.80484580e-003 2.93240719e-003
      5.40489051e-003 2.97642982e-004 2.78429990e-003 7.28887413e-003
      2.83469508e-005 3.57908684e-005 5.70510783e-005 1.70081694e-004
      2.91859079e-003 4.04301216e-004 5.65221207e-003 2.35558092e-003
      2.74142250e-003 7.23204343e-004 1.80038845e-003 1.52472011e-003
      1.32593431e-003 1.10624544e-003 6.09939080e-003 4.68639396e-002
      2.58551422e-003 -2.09030313e-005 2.12602117e-005 1.41734754e-005
      3.54336880e-005 2.56425398e-003 2.12602117e-005 5.66989779e-002
      5.66939016e-005 2.64893775e-003 4.99643393e-005 2.83469508e-005
      2.65974559e-005 1.45306540e-005 -2.76325918e-005 1.37332901e-001
      7.80109440e-006 2.19745689e-005 1.70438871e-004 7.15817368e-005
      2.71271821e-003 4.32347879e-005 2.63512135e-003 1.46289274e-001
      1.11995483e-004 2.72514229e-003 9.28419468e-005 5.30531909e-003
      8.32913574e-005 2.64292234e-003 2.66382541e-003 1.48694301e-002
      7.91989453e-003 5.43288048e-003 3.40163388e-004 5.65010542e-003
      5.57959545e-003 2.86225416e-003 3.38413927e-004 1.15340925e-003
      5.39663597e-004 3.68431560e-003 6.82896795e-003 6.69467682e-003
      8.79757851e-003 3.48342326e-003 3.13688745e-003 2.28146255e-001
      -5.80315106e-003 -3.68318171e-003 -5.98890986e-003
      -3.22970352e-003 -1.57610548e-003 -4.42852033e-003
      -6.40864484e-003 3.03551406e-001 -3.99547775e-004 5.40661532e-003
      -4.81767493e-004 -3.74483760e-004 -5.18488814e-004
      -2.98593333e-003 -4.07915388e-004 -2.53968060e-001 2.98066973e-003
      3.35100433e-003 -1.95704703e-003 3.66241875e-004 2.06729950e-004
      5.88872412e-004 7.60867260e-004 -2.49618620e-001 1.71234633e-003
      9.21971630e-004 1.18282894e-002 1.59042713e-003 1.36615185e-003
      9.46067832e-003 1.66063255e-003 3.10957819e-001 -1.98816657e-002
      -3.08343209e-002 -3.74716744e-002 -6.36183843e-002
      -8.99791270e-002 -1.00192674e-001 -8.05576071e-002
      -7.08676771e-006 0. 7.08673770e-006 0. 0. 0. 0. 0. 3.54260206e-002
      2.83469508e-005 2.59968755e-003 2.53626425e-003 2.62059062e-003
      2.53415760e-003 2.58305040e-003 -6.72955639e-006 1.69815570e-002
      -4.18060627e-005 3.57181335e-007 6.37806370e-005 2.59933039e-003
      4.25204234e-005 -5.59795371e-005 -3.68259971e-005 3.20863798e-002
      9.92143177e-005 1.20474535e-004 1.52450175e-005 7.12245528e-005
      5.22736507e-003 2.64220801e-003 2.64256517e-003 6.50904402e-002
      1.84255172e-004 2.70634587e-003 7.65618024e-005 5.23978891e-003
      2.64117285e-003 2.66418257e-003 1.84255172e-004 1.06547168e-002
      2.62209272e-004 2.95438175e-003 4.11030749e-004 4.53551213e-004
      2.98272865e-003 3.69224697e-004 3.48321686e-004 1.22264717e-002
      6.81041158e-004 1.46129669e-003 6.94235554e-003 4.13006591e-003
      3.54827521e-003 3.05431033e-003 2.78501445e-003 3.03679872e-002
      7.72783812e-003 -1.38162959e-005 2.49410095e-003 7.70693505e-003
      7.73492455e-003 1.45306540e-005 1.45306540e-005 4.37224917e-002
      -4.18060627e-005 -1.34591128e-005 1.41734754e-005 2.59260088e-003
      -4.88928017e-005 1.45306540e-005 2.58551422e-003 9.47691202e-002
      -1.34591128e-005 5.22063533e-003 7.79161882e-003 5.22063533e-003
      7.15817368e-005 7.84086902e-003 2.64220801e-003 1.02366596e-001
      7.89756235e-003 7.96134304e-003 2.81228987e-003 2.90913420e-004
      2.81228987e-003 1.05822915e-002 5.24260988e-003 7.65595585e-003
      2.59260088e-003 2.74850917e-003 2.73433561e-003 1.77525610e-004
      2.92567746e-003 3.83398205e-004 3.09575931e-003 5.21712052e-003
      2.36005406e-004 3.65596870e-003 4.83236741e-003 4.44295350e-003
      6.50369236e-003 5.97147224e-003 3.13155004e-003 2.64156740e-002
      -1.52605817e-001 0. -2.39796564e-001</_>
    <_>
      1.32182673e-001 3.93047194e-005 3.80902668e-003 3.55570391e-003
      1.97672867e-003 -1.59935630e-003 8.07073840e-004 -1.78978633e-004
      9.20189396e-002 1.92024407e-003 1.97251604e-004 2.23062554e-004
      6.36438280e-003 5.72248874e-003 5.97621198e-004 5.85008832e-003
      3.64989676e-002 1.33917190e-003 6.11342816e-003 4.50718543e-003
      7.86787085e-003 6.11600513e-003 1.04225741e-003 8.38915072e-003
      5.88823445e-002 7.17332261e-003 5.58980042e-003 5.49823698e-003
      1.11981742e-002 8.63790791e-003 1.27244107e-002 7.19551090e-003
      4.50845473e-002 8.84564687e-003 1.94939524e-002 1.90228000e-002
      2.32046209e-002 3.50814611e-002 2.87703387e-002 4.22345065e-002
      -4.16833861e-003 1.64388474e-002 6.84783161e-002 1.48165822e-001
      1.08163923e-001 1.18839473e-001 3.15339416e-002 -1.95584130e-002
      4.14537370e-001 9.36165859e-004 7.84838386e-003 1.15197210e-003
      -4.26886778e-004 -4.82461270e-004 -2.80646561e-003 1.72272138e-002
      4.76954073e-001 4.99604968e-004 -3.27752368e-003 6.68152294e-004
      -3.89013730e-004 -3.46249226e-003 -4.50786809e-003 1.47659142e-004
      3.57873976e-001 -1.21298793e-003 -1.13130109e-002 -9.30226035e-003
      -6.73604570e-003 -3.66380927e-003 2.95100035e-003 -1.89382967e-003
      2.24867046e-001 -1.58540197e-002 -1.20541537e-002 -8.55354499e-003
      -1.68010648e-002 -6.87624421e-003 -3.49807582e-004
      -6.71978341e-003 1.20213442e-002 -8.31131935e-002 -4.99943830e-003
      1.74589884e-002 -4.99914968e-005 8.10737628e-003 4.36942419e-003
      6.35604607e-003 -1.67354196e-001 6.13359846e-002 6.13212883e-002
      1.51914544e-002 5.54022333e-003 1.66940149e-002 2.90994737e-002
      4.02200446e-002 -7.71249235e-002 1.23464921e-003 -1.91435951e-003
      3.00989556e-003 -3.81023892e-006 1.87144370e-003 6.26241323e-004
      -5.50174853e-003 -1.62982136e-001 7.51744490e-003 -3.32674896e-003
      -4.47377702e-003 -5.35625615e-004 1.17235379e-002 3.23660998e-003
      2.84941099e-003 -1.14087403e-001 7.04142684e-003 1.01484526e-002
      -3.10273899e-004 3.76066682e-003 3.45306075e-003 -1.63476635e-003
      4.36553918e-003 -4.29803073e-001 6.32214081e-003 2.02040169e-002
      4.27983189e-003 1.19037582e-002 7.67059438e-003 1.04583399e-002
      1.47815729e-002 -3.98430884e-001 7.03315139e-002 6.33121952e-002
      6.94042966e-002 4.46891189e-002 4.63668890e-002 1.71617102e-002
      8.19398183e-003 -2.77555756e-016 0. 0. 0. 0. 0. 0. 0.
      -1.72813490e-001 -3.83713236e-003 -9.74894385e-004 4.72403178e-003
      -1.85805303e-003 -6.55438425e-003 2.01055990e-003 1.04664965e-002
      -2.22715676e-001 6.63707964e-003 7.30451476e-003 5.83127374e-003
      2.70745903e-003 -1.09539530e-003 -2.49896501e-003 4.83900355e-003
      -2.56527960e-001 -7.07623665e-004 -7.96271767e-003 1.89216447e-003
      -6.19187718e-004 -5.31739369e-003 -2.97518796e-003
      -9.70315188e-003 -3.25460613e-001 2.27485457e-003 -4.04169131e-003
      7.28219189e-003 7.55960238e-004 7.42467307e-003 2.44166655e-003
      6.30555116e-003 -3.19177844e-002 -1.24668717e-001 -1.16589122e-001
      -5.38443886e-002 -2.78425775e-002 -1.40986836e-003 6.50470238e-003
      -3.02627217e-004 -4.45292052e-003 1.33587548e-003 0.
      4.45291807e-004 0. 8.90583615e-004 1.33587548e-003 0.
      -6.55045779e-003 4.48358105e-003 1.66235433e-003 5.30001847e-003
      -4.65307821e-005 3.79785080e-003 -6.18548540e-004 7.72430608e-003
      -6.00931905e-002 -3.52268486e-004 7.76980538e-003 1.72549463e-003
      8.06154124e-003 1.30721345e-003 5.24324737e-003 5.82305714e-003
      8.41690786e-003 7.12473225e-003 -2.32251571e-003 5.40591497e-003
      2.62254034e-003 1.86334259e-003 1.43045362e-003 4.83430410e-003
      6.50390098e-003 1.05750072e-003 2.79104616e-003 9.02818050e-003
      8.63497145e-003 9.79381613e-003 5.69400424e-003 3.76763847e-003
      3.26439738e-002 7.89176047e-005 -2.14275112e-003 2.40133144e-003
      -1.87588666e-004 3.18973977e-003 -1.73486408e-003 6.76985737e-003
      2.46170126e-002 7.57723721e-003 1.29707800e-002 1.55252134e-002
      6.58800751e-002 6.31350577e-002 5.46104647e-002 6.87651262e-002
      4.67175603e-001 2.76203221e-003 -1.90508296e-003 -1.06709788e-003
      -2.87223351e-003 -4.01782047e-004 5.60598390e-004 -1.93401618e-004
      4.45388556e-001 -7.48606864e-004 1.39588956e-003 -1.90717145e-003
      1.38117379e-004 2.54395767e-003 1.15129573e-003 -2.69998237e-003
      4.44672406e-001 2.39343266e-003 -6.36498180e-006 2.06463039e-003
      -8.83406959e-004 4.39079385e-003 -1.27001305e-003 1.87532953e-003
      3.79182667e-001 2.39166548e-003 5.24148345e-003 7.95365428e-004
      1.21417502e-002 -4.40592226e-003 -3.97691590e-004 1.07681043e-002
      1.79485098e-001 1.97904669e-002 1.69293899e-002 7.36491662e-003
      1.13127176e-002 1.60969980e-002 1.50260115e-002 8.39284714e-003
      9.94114131e-002 1.79383345e-002 3.40976641e-002 4.99175712e-002
      7.86895826e-002 5.86294979e-002 5.91938160e-002 6.39320314e-002
      1.59800768e-001 -8.56084749e-003 -1.81441859e-003 -9.42537002e-003
      -3.80557775e-003 -5.76794939e-003 -1.17862085e-003
      -3.68399895e-003 2.45374754e-001 -3.06228898e-003 1.04884501e-003
      -4.07541636e-003 -7.90151022e-003 -4.54531517e-003
      -6.04848098e-003 -6.17152639e-003 4.71572429e-002 -3.34759150e-003
      -1.42141781e-003 -6.65643485e-003 -6.44603232e-003
      -2.41091265e-003 -7.29711168e-003 -5.85472072e-003
      -5.84588498e-002 -8.17161985e-004 -1.29420927e-003 8.41381028e-003
      -2.54423660e-003 2.08701030e-003 5.70340734e-003 -7.83245196e-004
      -3.81106365e-004 -1.29877865e-001 -1.07429802e-001
      -5.85884713e-002 -3.50465961e-002 -2.52875127e-002
      -5.07312687e-003 9.49496590e-003 2.01612711e-003 -2.01612897e-003
      0. 0. 0. 0. 0. 0. 2.42568240e-001 -9.99765005e-004 4.62757889e-004
      2.19482183e-003 1.95436482e-003 1.59581366e-003 2.24026782e-003
      -3.66243045e-003 2.10689947e-001 -7.83282594e-005 2.49729236e-003
      -1.82274991e-004 3.08138574e-003 -1.45112816e-003 1.75133767e-003
      -1.09192543e-003 1.58290222e-001 2.13420903e-003 -1.45052106e-003
      -4.77648014e-003 2.53345468e-003 4.17962903e-003 5.83791640e-003
      3.94916488e-003 1.26874372e-001 9.05991532e-003 6.98482199e-003
      4.76437854e-003 1.50272427e-002 5.56652294e-003 1.00952787e-002
      6.31076749e-004 1.12823203e-001 6.66358694e-003 8.31845030e-003
      3.44969728e-003 5.52494638e-003 1.08251320e-002 1.13235749e-002
      1.53172957e-002 1.00858748e-001 2.38198228e-002 2.86782123e-002
      3.79493609e-002 6.40964061e-002 6.09545112e-002 2.78567150e-002
      3.88813354e-002 -2.15710729e-001 5.66774933e-003 -8.33832310e-005
      1.91149663e-003 6.18128479e-003 7.50258518e-003 6.09235321e-005
      -5.45039074e-003 -1.92724973e-001 2.07756995e-003 -4.44634957e-003
      -8.15040665e-004 -8.67432740e-004 -3.39247799e-003
      -3.06660589e-003 1.73302600e-003 -9.82490927e-002 3.65430932e-003
      7.90153630e-003 1.11535285e-002 7.00934045e-003 4.37095499e-004
      1.00570284e-002 4.17487114e-004 -5.53682111e-002 1.18367523e-002
      1.17447637e-002 1.63041649e-003 -1.37300420e-004 9.04010050e-003
      1.55801205e-002 8.82508699e-003 -5.65070333e-003 1.91095914e-003
      1.20236131e-003 1.23822840e-003 5.33878617e-003 -4.84646123e-004
      3.74180987e-003 7.13670254e-003 2.03347728e-002 6.43356470e-003
      9.30788461e-003 2.38820538e-002 5.26579469e-002 6.13164008e-002
      4.83115241e-002 6.65322989e-002 -2.07345903e-001 6.16674721e-002
      0. -2.07797512e-002</_>
    <_>
      -1.39346998e-002 -6.17965008e-004 -2.19300884e-004
      -1.99688056e-005 -4.18632990e-004 -6.44590124e-004
      -6.31277566e-004 -6.37933845e-004 -6.24621287e-003
      -4.31945518e-004 -6.24621287e-004 0. -2.12644620e-004
      -2.05988355e-004 -2.25957163e-004 -1.99688056e-005 0. 0. 0. 0. 0.
      0. 0. 0. -4.51914326e-004 -1.99688056e-005 -4.45258047e-004
      -6.37933845e-004 -6.51246344e-004 -1.24924257e-003
      -2.29915325e-003 -9.21395782e-004 8.42098380e-004 -3.32813433e-005
      -1.15400914e-003 -8.12849845e-004 -3.08537809e-003
      -3.88510781e-003 -3.27379932e-003 -4.02693497e-003 0.
      -6.65626794e-006 -9.98440300e-005 -1.56874349e-003
      -8.48578662e-003 -1.44995786e-002 -1.21919159e-002
      -1.26129221e-002 -1.71443343e-001 -4.97034518e-003
      -1.69330125e-003 -7.06350990e-003 -9.93512198e-003
      -9.09365993e-003 -7.53239915e-003 -8.79977923e-003
      -1.46281347e-001 -1.04791364e-002 -9.94904153e-003
      -1.93111338e-002 -1.71173587e-002 -1.38790486e-002
      -8.13971646e-003 -4.05767839e-003 -1.59952819e-001
      -2.90751830e-002 -2.46938914e-002 -9.24768019e-003
      -7.19128596e-003 -3.67870973e-003 -6.08166447e-003
      -4.54478338e-003 -2.02673346e-001 -3.68768871e-002
      -1.18498551e-002 -1.04641346e-002 -8.81778356e-003
      -5.12070861e-003 -7.18921609e-003 -3.77233210e-003
      -2.81596601e-001 -2.60700993e-002 -1.41296750e-002
      -7.17301341e-003 -9.42645478e-004 3.24815366e-004 9.34811775e-003
      5.41122258e-003 -2.81418055e-001 1.67320427e-002 1.85995530e-002
      2.71502063e-002 2.90425755e-002 2.31566001e-002 1.87196303e-002
      1.85959768e-002 -8.80774334e-002 1.18730683e-003 1.63846568e-003
      3.33174504e-003 1.38720917e-003 3.27463704e-003 2.68482836e-003
      1.71593926e-003 -1.91499278e-001 1.52188459e-005 5.15317020e-004
      -2.69691763e-003 2.67615949e-004 6.88913336e-004 -1.60596668e-004
      1.63281627e-003 -3.35674756e-003 7.82677031e-004 0. 0.
      2.57407228e-004 0. 0. 0. -5.46112880e-002 2.36928463e-003
      4.69004223e-003 2.55625206e-003 3.57650174e-003 3.00967880e-003
      2.26262864e-003 5.24454424e-003 -5.49681894e-002 1.17670149e-002
      1.41267814e-002 8.67110398e-003 7.71746878e-003 4.56337025e-003
      2.48568156e-003 1.70300447e-003 -2.22044605e-016 0. 0. 0. 0. 0. 0.
      0. -2.32849538e-001 -1.56933861e-003 -3.01219872e-003
      -5.06048603e-003 -2.12997757e-003 -3.34410742e-003
      -6.13271073e-003 -7.23252213e-003 -2.68078268e-001
      -1.09888974e-003 -3.07812961e-003 -1.96755864e-004
      -7.70172745e-004 -3.59597732e-003 -3.54093290e-003
      -2.07453989e-003 -1.42757788e-001 1.64404616e-003 2.22871057e-003
      1.87094521e-003 -6.24621287e-004 3.88733018e-003 2.44515436e-003
      2.54221889e-003 -4.63540517e-002 1.23047316e-003 -1.67882012e-004
      2.26586140e-004 1.03114103e-003 1.70432415e-003 1.20859535e-003
      3.21597233e-003 -1.20226584e-001 -8.98920745e-002 -1.50269538e-001
      -1.35357417e-002 1.77410971e-002 3.03255897e-002 3.13509069e-002
      3.47971432e-002 -2.22044605e-016 0. 0. 0. 0. 0. 0. 0.
      -6.89218789e-002 -8.23953422e-004 -1.04325428e-003
      -6.44590124e-004 -6.37933845e-004 -6.17965008e-004
      -6.17965008e-004 -1.02994172e-003 -6.37584999e-002
      -5.66546165e-004 -4.31945518e-004 -3.87182867e-004
      -6.65626794e-006 -8.30609701e-004 -4.18632990e-004
      -1.24924257e-003 -5.94975874e-002 -6.31277566e-004
      -4.31945518e-004 -6.44590124e-004 -9.98491654e-004
      -2.27252813e-003 -1.25589885e-003 -6.24621287e-004
      -5.83323725e-002 -1.26921141e-003 -7.57254136e-004
      -8.37265979e-004 -8.23953422e-004 -2.32043050e-004 3.05968890e-004
      -5.79858723e-004 -1.18622016e-002 -1.12072786e-003
      -1.66121940e-003 -1.46188715e-003 -1.35334127e-003
      -1.90714526e-003 -8.83289438e-004 -1.12738414e-003
      -3.31702852e-003 -1.72538043e-003 -1.88717654e-003
      -2.98793544e-003 -2.98127928e-003 -2.54450855e-003
      -3.61051131e-003 -3.81260086e-003 -1.09655850e-001
      -4.25289240e-004 -8.77203536e-004 -1.88052026e-003
      -8.37265979e-004 -1.53270457e-003 -2.09982111e-003
      -1.07653567e-003 -9.42369401e-002 -8.37265979e-004
      -6.31277566e-004 -9.21395782e-004 -4.89450293e-004
      -6.57902623e-004 -1.32005988e-003 -4.31945518e-004
      -6.32170439e-002 -9.43273655e-004 -1.35334127e-003
      -1.89991866e-003 6.06132598e-005 -7.22063764e-004 -1.01846049e-003
      -8.12472135e-004 -5.55087216e-002 -2.80382531e-003 3.76095646e-004
      -5.51265839e-004 -4.13237605e-004 -1.00552570e-003
      -2.91046174e-003 -2.52511026e-003 -5.40150329e-003
      -8.90516094e-004 -1.08319183e-003 -8.63891037e-004
      -1.35334127e-003 -8.83859815e-004 -1.57504377e-003
      -6.71215181e-004 -6.03498984e-003 6.34704556e-005 4.13446742e-006
      -6.20799605e-004 -1.68128649e-003 -3.43742641e-003
      -3.01097473e-003 -2.93297390e-003 -3.71275008e-001
      -1.73203670e-003 1.05375897e-004 -1.16257463e-003 -7.83308933e-004
      -3.15638795e-003 -1.01182821e-004 -1.40698219e-003
      -2.71816045e-001 -1.91988738e-003 -1.84907007e-003
      -7.19147793e-004 -2.43653310e-003 -1.70115696e-003
      -8.12657177e-004 -3.32655665e-003 -3.73037100e-001
      -1.76177302e-003 -1.73380924e-003 -2.30518053e-003
      -2.29852414e-003 -1.95133756e-003 -1.60060602e-003
      -4.86534380e-004 -3.69248480e-001 1.98132242e-003 3.92578251e-004
      2.37390073e-003 2.88623548e-003 6.60440768e-004 1.86156563e-003
      5.40684036e-004 -2.29448438e-001 -7.83933327e-002 -8.82254392e-002
      -2.10488103e-002 -9.82122030e-003 -1.03293974e-002
      -7.60526815e-003 -3.73524521e-003 -2.22044605e-016 0. 0. 0. 0. 0.
      0. 0. -9.70044583e-002 -1.28918025e-003 -1.52179354e-003
      -1.29583641e-003 -1.30914897e-003 -1.08319183e-003
      -1.50182482e-003 -1.47519971e-003 -7.87634179e-002
      -1.68118812e-003 -2.00458779e-003 -1.56598596e-003
      -6.13517826e-004 -1.52844982e-003 -8.83859815e-004
      -1.75440707e-003 -7.93017522e-002 -1.28918025e-003
      -1.52844982e-003 -1.08319183e-003 -2.36997055e-003
      -2.82188458e-003 -2.11978983e-003 -1.70781324e-003
      -8.46340731e-002 -1.27586769e-003 -2.97702453e-003
      -9.23797430e-004 -1.50848110e-003 -8.70547316e-004
      -2.46075680e-003 -8.83859815e-004 -2.39552651e-002
      -1.50182482e-003 -6.51246344e-004 -1.07653567e-003
      -1.46854343e-003 -1.89383281e-003 -1.06322311e-003
      -1.03659800e-003 -1.49513297e-002 -3.38900136e-003
      -1.05656683e-003 -3.43559519e-003 -4.18632943e-003
      -3.50215798e-003 -3.05689964e-003 -3.37604480e-003
      -9.58669484e-002 -1.06987939e-003 -6.44590124e-004
      -8.43922200e-004 -1.06322311e-003 -1.26255513e-003
      -1.45523087e-003 -1.04991056e-003 -7.87029937e-002
      -1.26921141e-003 -1.46854343e-003 -1.49516854e-003
      -8.57234758e-004 -4.51914326e-004 -8.57234758e-004
      -4.31945518e-004 -7.93673620e-002 -1.04991056e-003
      -1.05656683e-003 -1.87386398e-003 -1.04991056e-003
      -1.04325428e-003 -1.26921141e-003 -6.37933845e-004
      -7.84829333e-002 2.86000082e-004 -2.48517259e-003 -1.05656683e-003
      -1.25589885e-003 -8.57234758e-004 -1.67453196e-003
      -2.10647727e-003 -1.65925808e-002 -2.51845410e-003
      -1.66787568e-003 -8.43922200e-004 -1.48185599e-003
      -2.06653983e-003 -8.63891037e-004 -2.48517259e-003
      -9.09046829e-003 -3.54173942e-003 -3.57502070e-003
      -2.53176643e-003 -4.41894308e-003 -2.61164177e-003
      -4.26656054e-003 -3.61531461e-003 -8.29711463e-003 1.60262316e-001
      0. -1.75514072e-002</_>
    <_>
      -2.45858692e-002 0. 0. 0. 0. -1.22929341e-003 0. -1.22929341e-003
      -2.58151609e-002 -2.45858682e-003 0. 0. 0. -1.22929341e-003 0.
      -1.22929341e-003 -1.47729581e-002 0. -1.23652781e-003 0.
      -1.22929341e-003 0. -1.23802095e-003 -2.46582134e-003
      -2.22632065e-002 0. -1.22979109e-003 -1.22979109e-003
      -1.22979109e-003 0. -2.45858682e-003 -7.23443327e-006
      -2.10863817e-002 -1.22979109e-003 -1.22929341e-003
      -1.23078655e-003 -9.95413075e-007 -1.49311973e-006
      -2.36941250e-005 -2.48461310e-003 -9.86070093e-003
      -1.22929341e-003 -1.26138807e-003 -1.23901642e-003
      -3.73593695e-003 -7.40178674e-003 -2.34308690e-002
      -2.83164065e-002 -2.13405773e-001 -3.47601660e-002
      -2.96239797e-002 -3.08808703e-002 -2.17907708e-002
      -2.19419412e-002 -2.06245948e-002 -1.60257518e-002
      -2.03164175e-001 -4.45208140e-002 -3.69107872e-002
      -2.98625883e-002 -2.90947128e-002 -2.37097517e-002
      -1.69704165e-002 -1.26233287e-002 -2.23940402e-001
      -6.18177541e-002 -4.69885394e-002 -3.60621288e-002
      -1.89811382e-002 -1.44527731e-002 -1.67030673e-002
      -1.50236767e-002 -2.98187524e-001 -8.44699740e-002
      -4.36258093e-002 -3.69678028e-002 -2.53793653e-002
      -2.81674080e-002 -2.12996509e-002 -1.21460874e-002
      -4.72255051e-001 -9.18896049e-002 -3.91436704e-002
      -8.70262738e-003 7.00403051e-003 -2.41758255e-003 1.71146560e-002
      7.94564281e-003 -4.85596210e-001 3.22342329e-002 1.78596266e-002
      4.55872864e-002 5.29893413e-002 4.43604141e-002 2.95244865e-002
      3.46218869e-002 -1.45168737e-001 2.25941907e-003 5.11288235e-004
      8.53304751e-003 2.47198879e-003 4.99346852e-003 3.30481329e-003
      1.82461436e-003 -3.55673641e-001 4.25605197e-003 2.63383961e-003
      1.19637360e-003 3.97464447e-003 1.66675611e-003 2.69170688e-003
      3.18730087e-003 5.09567428e-007 1.53447909e-003 -7.51918051e-005
      -5.08292796e-005 1.55941671e-004 -3.32607815e-005 -4.11636174e-005
      -9.22525942e-006 -8.68801549e-002 5.73860761e-003 1.19805895e-002
      5.33023849e-003 5.91749884e-003 8.68215133e-003 8.59258324e-003
      9.73380730e-003 -6.79522753e-002 1.82051305e-002 1.74694695e-002
      1.07977372e-002 1.54947136e-002 5.74142672e-003 -2.78381689e-004
      6.13387034e-004 3.29597460e-017 0. 0. 0. 0. 0. 0. 0.
      -2.70705640e-001 -3.84189375e-002 -3.35959457e-002
      -2.42603850e-002 -2.22404394e-002 -1.87011063e-002
      -2.04397216e-002 -1.32634351e-002 -1.06606349e-001 4.92209976e-004
      -1.41074345e-003 2.18754541e-003 1.88957935e-003 2.51418725e-003
      -1.31404796e-003 1.33567548e-003 -2.97472447e-001 1.99951301e-003
      5.78652928e-003 3.72432615e-003 -5.25932235e-004 7.69372890e-003
      6.71188300e-003 6.48483587e-003 -9.27690938e-002 2.60561146e-003
      -1.12502887e-004 2.34820554e-003 2.73602735e-003 4.02120501e-003
      4.15833062e-003 8.26136209e-003 6.55101240e-002 6.54450338e-003
      2.14753188e-002 5.82177239e-003 -5.62964976e-002 -1.47777796e-001
      -2.74557590e-001 -4.97758687e-002 3.29597460e-017 0. 0. 0. 0. 0.
      0. 0. -2.76728682e-002 0. -8.89825060e-006 -1.25598814e-003 0. 0.
      0. 0. -2.40022130e-002 2.38367909e-004 0. -9.91920941e-004 0. 0.
      -1.22929341e-003 -1.77965012e-005 -2.36890074e-002
      -2.46798270e-003 -2.50725471e-003 -1.22929341e-003
      -1.02368859e-003 -1.25199219e-003 -1.27005833e-003
      -1.61326843e-005 -1.96471084e-002 -2.48461310e-003 1.33754453e-003
      -3.60907070e-005 -2.47688103e-003 -1.03142078e-003
      -3.53702973e-003 -2.28044414e-003 -1.39174433e-002
      -9.95413075e-007 -1.66303907e-005 -9.39595702e-006
      -4.97706537e-007 -2.47521722e-003 -3.45990364e-003
      -3.40281913e-005 -8.82621016e-003 -4.95043444e-003
      -1.54642803e-005 -6.15469692e-003 -9.22525942e-006
      -1.04881858e-003 -2.51930975e-003 -2.51382054e-003
      -5.32466024e-002 -8.89825060e-006 0. -1.61326843e-005 0. 0. 0.
      -1.22929341e-003 -5.62989302e-002 -9.89366345e-006
      -1.23819162e-003 0. -1.77965012e-005 0. 0. -7.23443327e-006
      -3.35183889e-002 -1.08761084e-003 -1.27845886e-003 1.91363972e-004
      3.31382704e-004 -1.18844900e-005 -1.00805366e-003 -9.91423265e-004
      -3.47246081e-002 1.33339211e-003 8.51656077e-004 1.37665996e-003
      4.43645724e-004 -1.28251221e-003 -1.24741695e-003 -1.29625539e-003
      -6.84166932e-003 -1.23028888e-003 -1.23028888e-003
      -8.21982394e-005 -1.24957843e-003 -3.68837803e-003
      -1.26372033e-003 -2.45958217e-003 -2.11417419e-003
      -5.31147118e-004 -4.01418982e-003 -1.84755761e-003
      -2.55276775e-003 -2.27602525e-003 -1.01914052e-002
      -8.49154126e-003 -2.98347563e-001 -2.44952440e-002
      -2.31653154e-002 -2.34993938e-002 -1.96319614e-002
      -2.24367399e-002 -1.93796270e-002 -1.92603581e-002 4.80937883e-002
      -1.77242048e-003 -2.17457535e-003 -9.61257902e-004
      -2.85389065e-003 -3.39229312e-003 -3.78311169e-003
      -1.35288108e-003 -6.22923136e-001 3.99223110e-003 2.35204585e-003
      2.36583082e-003 2.35219253e-003 -4.45023266e-004 1.10307580e-003
      1.00468565e-003 -5.90225458e-001 3.60378833e-003 -1.91958505e-004
      3.86184664e-003 5.62489079e-003 1.03900465e-003 2.24623829e-003
      -4.57423012e-004 5.59214456e-003 -5.87724661e-003 -1.09887803e-002
      -1.61520280e-002 -5.33016995e-002 -1.59981266e-001
      -2.26865947e-001 -1.33257538e-001 3.29597460e-017 0. 0. 0. 0. 0.
      0. 0. -6.04818203e-002 0. -3.30327784e-005 -6.50701404e-005
      -7.23443327e-006 -4.97706537e-007 -3.25350702e-005
      -3.25350702e-005 -5.90407327e-002 0. -9.95413075e-007
      -3.30327784e-005 0. 0. -4.97706537e-007 -3.25350702e-005
      -5.39695285e-002 -8.22984657e-006 -1.23968476e-003
      -1.23652781e-003 -6.50701404e-005 -4.97706537e-007
      -1.23028888e-003 -9.95413075e-007 -7.31126815e-002
      -1.28353178e-003 -1.22929341e-003 -4.12626250e-005
      -1.24475767e-003 -1.54642803e-005 -8.72755299e-006
      -2.22010058e-005 -1.00965146e-002 -1.23028888e-003
      -1.26956066e-003 -9.22525942e-006 -1.22929341e-003
      -1.24475767e-003 -1.26282393e-003 -4.97706537e-007
      -1.62619241e-002 -1.23851863e-003 -2.54784874e-003
      -1.07183796e-005 -2.50708382e-003 -9.83584020e-003
      -8.64007790e-003 -1.47634055e-002 -1.00764101e-002 0. 0. 0. 0. 0.
      -1.22929341e-003 -8.89825060e-006 -8.70078616e-003
      -1.23652781e-003 -1.22929341e-003 0. 0. 0. 0. 0. -3.82275432e-002
      -4.97706537e-007 -8.22984657e-006 -1.23652781e-003
      -1.23652781e-003 -7.23443327e-006 -4.91767144e-003
      -2.45858682e-003 -5.31897619e-002 1.38737832e-003 -1.77965012e-005
      -4.97706537e-007 -2.48802220e-003 -1.24542613e-003
      -2.45908462e-003 -1.26232614e-003 -3.71149331e-002
      -1.22979109e-003 -1.44688665e-005 -7.73214015e-006
      -1.23652781e-003 -1.22929341e-003 -1.22979109e-003
      -4.97706537e-007 -3.21420282e-002 -3.68837803e-003
      -2.46631890e-003 -1.25199219e-003 -3.76990787e-003
      -1.22979109e-003 -2.58556502e-005 -2.48610624e-003
      -2.13942230e-002 -1.23967215e-001 0. -2.34390408e-001</_>
    <_>
      -2.75056195e-002 0. -5.58486674e-004 -9.61804588e-004
      -1.03938894e-003 -4.80902294e-004 -1.55168789e-004
      -7.75843946e-005 -1.59941521e-002 -7.75843946e-005
      -7.75843946e-005 -4.80902294e-004 -1.11697335e-003
      -7.75843946e-005 -9.61804588e-004 -4.80902294e-004
      -8.17533955e-003 -4.80902294e-004 -4.80902294e-004
      -4.80902294e-004 0. -7.75843946e-005 -7.75843946e-005
      -9.61804588e-004 -1.12005258e-002 -7.75843946e-005
      -1.52029120e-003 -1.19455776e-003 -1.11697335e-003
      -1.55168789e-004 -7.75843946e-005 -8.87728005e-004
      -6.00024639e-003 -6.36071083e-004 -1.04289677e-003 1.48153180e-004
      3.03321984e-004 -1.77194818e-003 -1.84953259e-003 -3.50608886e-003
      -9.61804588e-004 -4.80902294e-004 -1.52029120e-003
      -1.55168789e-004 -4.37995931e-003 -7.79794063e-003
      -5.29343309e-003 -7.01722410e-003 -1.84881002e-001
      -6.36071083e-004 -1.99696282e-004 -1.92360918e-003
      -9.68820183e-004 -4.51353117e-004 -5.47545729e-004
      -7.54675129e-004 -1.71754032e-001 -1.11697335e-003
      -9.09843890e-004 8.50176002e-005 -3.35092004e-003 -1.12048117e-003
      -5.84406022e-004 -2.48560379e-003 -1.75722897e-001
      -4.40921262e-003 -2.02681730e-003 -2.48560379e-003
      -1.44972245e-003 -2.64077261e-003 -2.37847003e-003
      -1.34972658e-003 -2.07416937e-001 -6.87425211e-003
      -1.88443693e-003 -4.20785602e-003 -2.70741596e-003
      -2.41854275e-003 5.03435789e-004 -1.74590677e-003 -2.70344645e-001
      -1.64002983e-003 2.14572693e-003 -1.10591052e-003 8.72993551e-004
      -4.14544455e-004 4.00227495e-003 3.03250761e-003 -2.25202873e-001
      1.13365250e-002 1.45496428e-002 1.94628201e-002 1.59455556e-002
      1.01420786e-002 2.05394272e-002 1.26645435e-002 -7.63556063e-002
      3.36578651e-003 1.47939357e-003 2.55286694e-004 3.80216120e-003
      2.85896473e-003 3.51013616e-003 1.25014817e-003 -1.70715511e-001
      7.95165251e-004 2.18721980e-004 -3.80784331e-004 -9.63661441e-005
      1.63135002e-003 -1.31316180e-003 2.42259004e-003 -6.97908411e-003
      2.84713809e-004 0. -4.80902294e-004 2.84713809e-004 0. 0. 0.
      -4.69111986e-002 5.76687220e-004 8.83812376e-004 3.32138082e-003
      8.70696921e-003 2.85165361e-003 2.74452008e-003 2.48204428e-003
      -6.68543950e-002 1.50392102e-002 1.60340704e-002 1.08483536e-002
      6.57991180e-003 5.51097374e-003 3.51744751e-003 2.75183120e-003
      -9.02056208e-017 0. 0. 0. 0. 0. 0. 0. -2.72965342e-001
      -1.77580325e-004 1.44217722e-003 3.18820612e-003 3.54699627e-003
      3.33986711e-003 1.97123690e-003 5.02276001e-003 -3.13522071e-001
      9.76670883e-004 -2.87798047e-003 -1.81322350e-004 1.34247669e-003
      -5.51053556e-004 -1.14705216e-003 -4.24310286e-003
      -6.35768548e-002 1.72689091e-003 7.76557077e-004 5.88035793e-004
      0. 1.78235956e-003 -1.96188470e-004 -4.06825711e-004
      -1.72236171e-002 4.36374801e-004 6.88031723e-004 -9.61804588e-004
      9.17277124e-004 -8.10143596e-004 2.84713809e-004 -2.55164719e-004
      -5.85520118e-002 -4.79330905e-002 -1.10870503e-001
      -2.97422372e-002 1.44260591e-002 1.49787795e-002 3.06988619e-002
      2.22924110e-002 -9.02056208e-017 0. 0. 0. 0. 0. 0. 0.
      -7.12546483e-002 -9.61804588e-004 -1.44270679e-003 0.
      -1.52029120e-003 -4.80902294e-004 -1.55168789e-004
      -1.11697335e-003 -7.25107864e-002 7.65616132e-004 -1.44270679e-003
      6.88031723e-004 -1.44270679e-003 0. -1.44270679e-003
      -2.40451144e-003 -7.34519958e-002 -4.80902294e-004
      -7.13655492e-004 -1.03938894e-003 2.84713809e-004 -1.03938894e-003
      -1.52029120e-003 -9.61804588e-004 -7.44832382e-002
      -9.61804588e-004 -6.36071083e-004 -9.61804588e-004
      -9.61804588e-004 -1.99696282e-004 -1.11697335e-003
      -2.83345301e-003 -3.44771594e-002 -8.10143596e-004
      -1.44270679e-003 -4.80902294e-004 1.51660992e-004 -1.92360918e-003
      -4.45274854e-005 -8.10143596e-004 -2.29095835e-002
      -3.29241302e-004 -1.44270679e-003 -2.25285045e-003
      -1.04289677e-003 -5.10033860e-004 -1.37213804e-003
      -1.12048117e-003 -1.36305198e-001 -4.80902294e-004
      -1.44270679e-003 -1.44270679e-003 -3.75423790e-003
      -2.88892142e-003 -1.19455776e-003 -1.75304443e-003
      -1.08214580e-001 -1.44270679e-003 -1.44270679e-003
      -2.25285045e-003 -1.77194818e-003 -9.61804588e-004
      -1.77194818e-003 -2.88541359e-003 -7.03971311e-002
      -1.83062884e-003 -1.92711700e-003 -1.87515642e-003
      -2.77280662e-004 -1.92711700e-003 -8.32259480e-004
      -2.43013515e-003 -7.17114285e-002 -2.00119358e-003 4.47315717e-004
      -1.75304443e-003 -1.35768927e-003 -3.14057851e-003
      -4.00238717e-003 -3.19575123e-003 2.09249835e-002 -2.88541359e-003
      -2.40451144e-003 -1.92360918e-003 -8.10143596e-004
      -1.92360918e-003 -3.84721835e-003 -5.28992526e-003 3.51984450e-003
      1.48670468e-003 1.92307960e-003 3.06193484e-003 -1.31018378e-003
      -4.04340681e-003 -2.22746073e-003 -2.50771944e-003
      -3.51984769e-001 -3.29241302e-004 1.68289326e-003 0.
      9.17277124e-004 -1.44270679e-003 6.88031723e-004 2.29684822e-003
      -3.22665542e-001 -1.00633211e-003 6.10447314e-004 -6.77090720e-004
      -1.36863021e-003 -1.92360918e-003 -6.84401894e-004 1.51660992e-004
      -3.27678680e-001 7.65616132e-004 -9.61804588e-004 -4.80902294e-004
      -4.80902294e-004 -9.65312414e-004 4.36374801e-004 2.84713809e-004
      -3.37182760e-001 -2.59193293e-005 8.39692715e-004 8.13773368e-004
      1.35365187e-003 1.51660992e-004 9.09965951e-004 -3.55160650e-004
      -2.55274475e-001 -5.88423833e-002 -5.29602617e-002
      -1.83613393e-002 -7.69225089e-003 -4.37188847e-003
      -7.04144477e-004 1.08731212e-003 -9.02056208e-017 0. 0. 0. 0. 0.
      0. 0. -8.59631822e-002 -2.63726478e-003 -2.07877788e-003
      -1.44270679e-003 -1.92360918e-003 -4.40570479e-003
      -2.00119358e-003 -1.03938894e-003 -7.40435198e-002
      -1.92360918e-003 -1.92711700e-003 -8.87728005e-004
      -3.14057851e-003 -2.07877788e-003 -1.59787561e-003
      -1.52029120e-003 -1.04859248e-001 -1.27214217e-003
      -1.03938894e-003 -3.04058241e-003 -1.84953259e-003
      -1.60138344e-003 -2.15636240e-003 -2.63726478e-003
      -1.28763050e-001 -6.36071083e-004 -3.27333575e-003
      -1.92360918e-003 -1.92360918e-003 -2.71484908e-003
      -1.85304042e-003 -1.19455776e-003 -1.17134294e-002
      -3.02518671e-003 -1.67546002e-003 -1.59787561e-003
      -2.31153122e-003 -1.19455776e-003 -2.23394670e-003
      -1.52029120e-003 -1.18372012e-002 -4.54547768e-003
      -2.87001790e-003 -5.42969815e-003 -5.50728245e-003
      -5.67784719e-003 -4.94879577e-003 -7.98937771e-003
      -7.38014579e-002 0. -4.80902294e-004 -7.75843946e-005
      -1.03938894e-003 -7.91239901e-004 -1.92360918e-003
      -1.11697335e-003 -5.20044751e-002 -5.58486674e-004
      -9.61804588e-004 -1.55168789e-004 -1.03938894e-003
      -4.80902294e-004 -1.03938894e-003 -1.75304443e-003
      -4.96566743e-002 -2.07877788e-003 -5.58486674e-004
      -1.03938894e-003 -1.83062884e-003 -1.11697335e-003
      -5.58486674e-004 -6.36071083e-004 -5.35016246e-002
      -7.13655492e-004 -1.75304443e-003 -1.59787561e-003
      -1.92360918e-003 -2.15636240e-003 -1.92360918e-003
      -5.58486674e-004 -3.10337590e-003 -2.32753184e-004
      -3.10337578e-004 -3.87921988e-004 -4.65506368e-004
      -1.55168789e-004 -3.87921988e-004 -1.66006410e-003
      -2.56028492e-003 -3.87921988e-004 -4.65506368e-004
      -1.90821325e-003 -3.35092004e-003 -4.07997146e-003
      -2.94760219e-003 -3.83182243e-003 -3.45534422e-002
      -2.50394680e-002 0. -3.09399003e-003</_>
    <_>
      -1.81840807e-002 -2.11677820e-004 -2.25718497e-004
      -2.88375159e-004 -1.03082228e-003 -2.25718497e-004
      -3.62885738e-004 -1.11718674e-003 -3.54246330e-003
      -5.00052935e-004 -3.14269768e-004 -8.85512563e-005
      -4.21220539e-005 -2.07370656e-004 -5.46482159e-004
      -3.48845060e-004 -1.20939781e-004 0. 0. 0. 0. -6.04698907e-005 0.
      -1.20939781e-004 -4.28715604e-004 -2.23531708e-004
      -1.95450339e-004 -2.69960932e-004 -2.69960932e-004
      -2.98042287e-004 -3.74739640e-004 1.36282659e-004 4.11428697e-003
      -1.20939781e-004 6.20108156e-004 1.11927651e-003 9.98336705e-004
      3.17758706e-004 3.03718029e-004 -1.34980466e-004 0.
      -1.20939781e-004 -1.20939781e-004 -7.25638645e-004 3.08786868e-003
      -9.93490085e-006 -1.53957924e-003 1.04239094e-003 -3.35824728e-001
      -2.75496114e-003 4.71058709e-004 -3.69504537e-003 -2.72786920e-003
      -1.09189330e-003 -2.20220606e-003 -4.41793771e-003
      -2.83976316e-001 -3.97375366e-003 3.45859298e-005 1.69276900e-003
      -6.55742036e-003 -6.62908889e-003 -3.76852253e-003
      -2.80238013e-003 -2.32304335e-001 -2.82151508e-003
      -3.78369121e-003 -4.40776581e-003 -2.21941201e-003
      -4.11095889e-003 -3.15011502e-003 -3.36540164e-003
      -2.39506558e-001 -7.71746272e-003 -7.80880451e-004
      -8.77272431e-003 -7.79891247e-003 -5.00804838e-003
      -3.62108951e-003 1.60263781e-003 -2.62291968e-001 -1.58846751e-002
      -9.38045699e-003 -1.00113573e-002 -7.99799524e-003
      -1.46958577e-002 -3.36080417e-003 -5.83428470e-003
      -2.14918971e-001 -3.67086716e-002 -3.67807709e-002 1.62197591e-003
      2.95404010e-002 6.86165784e-003 7.60828750e-003 1.24125453e-002
      -1.24576591e-001 2.80734920e-003 4.01840778e-003 3.99727048e-003
      3.47297313e-003 5.70744229e-003 6.65832171e-003 3.98953864e-003
      -2.58936673e-001 -2.85438960e-003 -5.85526985e-004
      -4.75297496e-003 1.48358522e-003 7.83073017e-004 -3.65619129e-003
      2.48449435e-003 3.32298689e-002 -4.28466825e-003 -5.18379873e-003
      -2.26682844e-003 -6.68096327e-005 -4.91971243e-003
      -2.87429523e-003 -3.14425607e-003 2.22888630e-004 3.20721790e-003
      5.15468465e-003 6.53088838e-003 6.33644080e-003 5.95851289e-003
      5.92494756e-003 5.87961357e-003 -2.36616898e-002 1.71489995e-002
      1.87124796e-002 1.43301683e-002 7.81647395e-003 -3.16614844e-003
      -3.93858273e-003 -4.30147909e-003 6.66133815e-016 0. 0. 0. 0. 0.
      0. 0. -3.37415874e-001 -2.84000591e-004 1.11607462e-003
      4.54676524e-003 -1.24499702e-003 3.42558278e-003 -4.47964034e-004
      -4.64317854e-003 -5.18374801e-001 -2.05189339e-003
      -1.23816449e-003 -1.55176350e-003 3.99458176e-003 -2.64985021e-003
      -3.14206979e-003 2.70995987e-003 -1.25323674e-002 -5.00765815e-003
      -4.48013609e-003 -4.73531708e-003 -7.48837553e-003 1.33498036e-003
      -2.07171799e-003 -6.98067422e-004 -6.83420245e-003
      -6.96604187e-003 -1.02658141e-002 -2.49333400e-003
      -1.19267672e-003 -5.10669127e-003 -2.06392212e-003 1.59810588e-003
      -4.08791542e-001 -1.26596838e-002 1.13575743e-003 3.44160944e-002
      3.17087695e-002 3.49269919e-002 4.10874411e-002 4.16437387e-002
      6.66133815e-016 0. 0. 0. 0. 0. 0. 0. -5.60593195e-002
      -2.67840544e-004 -1.07075763e-003 -2.27113557e-003
      -2.93476507e-003 -1.24031329e-003 -1.96659938e-003
      -1.05890364e-003 -5.37458658e-002 -4.08656115e-006
      -1.95450339e-004 -8.41645291e-004 -1.44980429e-003
      -3.60698934e-004 -3.00229061e-004 -3.44131188e-003
      -4.23623696e-002 -2.31861765e-003 -4.13838262e-003
      -2.24629394e-003 -2.58788629e-003 -4.26574983e-003
      -8.28432664e-003 -3.84027394e-003 -5.49636073e-002
      -5.39916428e-003 -2.04449310e-003 -1.00187138e-002
      -3.20639811e-003 -4.35449323e-003 -4.78374120e-003
      -8.98125768e-003 1.20371049e-002 5.63945447e-004 -1.16632626e-004
      -2.80813674e-005 5.31556900e-004 -1.30673317e-004 9.92881600e-004
      3.94389674e-004 1.04295136e-002 5.77986124e-004 -1.77102513e-004
      4.47312807e-004 4.75394161e-004 7.55309185e-004 6.53798867e-004
      -3.41079454e-003 -2.12120026e-001 -2.31537805e-003
      -1.34721247e-003 -3.42508452e-003 -1.31701073e-003
      -2.70774448e-003 -3.40667018e-003 -4.87759011e-003
      -1.27213955e-001 -2.37591425e-003 -5.88604191e-004
      -2.18128227e-003 -1.10621750e-003 -1.68420363e-003
      -1.35247048e-003 -2.85967346e-003 -7.27230459e-002
      -2.94412742e-003 -5.14464313e-003 -5.61585603e-003
      -6.22021174e-003 -5.78835746e-003 -5.55565907e-003
      -5.29755186e-003 -1.54482812e-001 -3.79941473e-003
      -3.80293489e-003 -4.95548407e-003 -4.85983881e-004
      -3.40638543e-003 -6.56934083e-003 -4.34193248e-003
      -1.41571823e-003 -8.63991503e-004 -4.38456936e-003
      -3.30731785e-003 -5.02254115e-003 -5.05372975e-003
      -3.31435003e-003 -4.89971600e-003 1.73403770e-002 5.57112042e-004
      1.67412136e-003 2.80338223e-003 -8.66808649e-003 -1.96137186e-002
      -2.06203852e-002 -2.38484088e-002 -5.15053391e-001
      -5.28830430e-003 7.68912199e-004 1.35970840e-004 -2.71036872e-003
      -2.07131170e-003 -9.17866942e-004 1.16409129e-003 -4.57326651e-001
      -3.54330812e-004 -4.55343258e-003 -7.34270492e-004
      -3.38972150e-003 -6.96512917e-003 2.64698337e-003 -1.98754296e-003
      -4.87143278e-001 -7.32937187e-004 -2.90753716e-003
      -8.92255339e-004 -2.74010189e-003 -7.78959831e-004
      -7.49195693e-004 -2.85419822e-003 -4.25215930e-001 1.86968036e-003
      -4.45391191e-003 -1.27312931e-004 9.70120309e-005 3.41000341e-005
      1.08101871e-003 1.45224540e-003 -4.12231475e-001 -1.61908846e-002
      -1.80181116e-002 -1.85754448e-002 -5.29143820e-003
      -1.58266537e-002 -1.43792666e-002 -8.05461500e-003 6.66133815e-016
      0. 0. 0. 0. 0. 0. 0. -1.35878935e-001 -1.45199115e-003
      -7.35505018e-004 -2.94880569e-003 -1.34509208e-003
      -2.13184813e-003 -3.39269591e-003 -2.84001610e-004
      -1.18480794e-001 -1.10102573e-003 -5.56045212e-003 1.24428741e-004
      7.87207027e-005 -4.03791107e-003 -4.81281336e-003 -1.31701073e-003
      -1.20441519e-001 -4.88944398e-003 -5.10112196e-003
      -4.40510409e-003 -4.70628403e-003 -2.64515402e-003
      -6.18805992e-004 -6.79342251e-004 -1.69407547e-001
      -6.14167796e-003 -6.16002548e-003 -6.41813269e-003
      -6.92618033e-003 -7.62605714e-003 -6.06726389e-003
      -6.85771555e-003 -7.50978244e-003 -8.51018413e-004
      -8.44590832e-004 -4.05007799e-004 -1.10481819e-003
      -5.88604191e-004 -1.04653509e-003 -2.50870804e-003
      -4.79531428e-003 -2.68581067e-003 -2.36459868e-003
      -7.01059587e-003 -6.48956001e-003 -1.17030730e-002
      -1.28363548e-002 -1.92196351e-002 -9.17988420e-002
      -2.11677820e-004 -1.02591941e-004 -2.39759189e-004
      -9.54124960e-004 -1.07294437e-003 -1.79289287e-004
      -1.92447740e-003 -8.25107843e-002 -2.53799866e-004
      -1.40406837e-005 -8.85512563e-005 -2.04111007e-003
      -9.49817768e-004 -1.25223363e-003 -3.09028011e-003
      -7.39707872e-002 -2.38988851e-003 -1.33859809e-003
      -2.19443836e-003 -3.30430805e-004 -9.35262535e-004
      -5.72376768e-004 -2.42234347e-003 -8.49333405e-002
      -2.53850059e-003 -6.49264315e-003 -1.70360424e-003
      -2.89212842e-003 -5.53414458e-003 -1.74572621e-003
      -1.00672636e-002 -5.46467432e-004 -3.12082993e-004
      -2.05183882e-004 -2.55920255e-004 -2.69960932e-004
      -2.84001610e-004 -1.77102513e-004 -2.81881250e-004
      -2.33265251e-004 -3.26123671e-004 -4.14674927e-004
      -1.33152318e-003 -2.13881372e-003 -4.59354604e-003
      -6.98343432e-003 -1.01799658e-002 -2.77356822e-002 2.66256839e-001
      0. -8.00374430e-003</_>
    <_>
      -1.52582105e-003 -8.24768140e-005 0. -1.23715217e-004 0.
      -8.24768140e-005 -4.12384070e-005 0. -8.24768096e-004
      -1.23715217e-004 0. -8.24768140e-005 -4.12384070e-005
      -8.24768140e-005 -4.12384070e-005 0. -3.29907256e-004 0.
      -4.12384070e-005 -8.24768140e-005 -4.12384070e-005
      -4.12384070e-005 0. 0. -5.36099309e-004 -4.12384070e-005
      -1.23715217e-004 -1.23715217e-004 -8.24768140e-005 0.
      -4.12384070e-005 4.59746952e-004 3.26559157e-003 -1.16959703e-003
      2.53554928e-004 7.54540320e-004 -2.63053551e-003 2.94793339e-004
      2.12316518e-004 -1.54074270e-003 -4.12384070e-005 -8.24768140e-005
      -1.16959703e-003 -2.62786308e-003 1.56256801e-003 -2.23834370e-003
      -5.33207832e-003 -4.94523207e-003 1.30116548e-002 -3.42631433e-003
      3.67076718e-004 -5.47683984e-003 -3.32579948e-004 -1.36581337e-004
      8.60541360e-004 -3.47774616e-003 -7.66357454e-003 -3.34383734e-003
      -5.14318235e-005 4.39360127e-004 -4.43095760e-003 -1.87944714e-003
      -3.21667059e-003 -1.87944714e-003 -4.91742305e-002
      -1.16635291e-002 -2.43186415e-003 -8.31969175e-003
      -3.55270226e-003 -5.18204644e-003 -4.23150696e-003
      -5.55931637e-003 -1.16994761e-001 -4.60877735e-003
      -5.97437285e-003 -1.72228459e-002 -9.38596018e-003
      -9.36212204e-003 -3.73052177e-003 -8.40891059e-003
      -1.82601914e-001 -1.84372850e-002 -2.46333890e-002
      -2.94996388e-002 -2.05612108e-002 -1.57178659e-002
